3.140218928368181950e-01 5.648510280207642842e-02 1.191838440902592000e-01 -4.121159037543515279e-05 1.646002432354324585e-01 -8.349170769127854663e-02 -7.194004258917996442e-02 1.882927777942416114e-01 -3.515064541405749643e-01 3.417755644347202082e-02 2.241195850979461612e-01 -2.361684899062070631e-01 -3.157886568896938612e-02 -1.093618161248213344e-01 1.169650182040879727e-01 -2.794785677107912703e-01 -5.555874909297411346e-01 1.824320950063217268e-03 3.498649067225281795e-02 -3.578177783608209594e-01 -7.888053179626053346e-02 3.078014136471207696e-01 7.752435429799190425e-01 3.698145159941619853e-01 -4.591464231526670714e-01 -3.684688543882761458e-01 4.203253735163701987e-02 -4.694561706939555656e-01 -3.587425430063590492e-01 7.110534936215159307e-01 -8.431672893639378941e-02 -2.049989600487235053e-01 1.977564206428995552e-01 8.359435267630707656e-02 3.849640340795563720e-01 2.714898819536221142e-01 3.310988370656047231e-01 6.118426083696679174e-02 2.418182581754966531e-01 1.465994104101746021e-01 4.800558670349863721e-02 -6.306719351292690810e-03 2.674497028753822780e-01 1.739688019929987728e-01 -2.840996278666024083e-02 1.613324054030204069e-01 2.887076439731564581e-01 -5.400120984959311948e-02 3.396009512462080382e-01 -9.016671219752474264e-02 8.457779950514895950e-02 5.753341066220654110e-01 4.541001882919763755e-02 5.102945393592773771e-01 -1.578384191605159415e-01 5.698411744672794432e-01 1.532716475072400109e-01 2.377174112003522799e-01 -9.441914699672519784e-02 -4.223606950558295159e-01 -1.393035698528932442e-01 -1.142449263699756717e-02 -5.863118676533419782e-01 2.957960326183596278e-01 1.352811796440545923e-02 2.100146234040331794e-01 -1.896049078603096738e-01 2.321637788122007107e-01 -2.403065267013335671e-01 -1.878408999945202495e-01 7.043568128428129294e-02 -3.080673787046539491e-01 -9.112296659867694104e-02 -2.421204827520768710e-01 3.115103056101039547e-01 -2.675983637123646175e-01 8.619075125115949199e-02 2.259922893999259663e-01 -6.740380120999702740e-01 1.498875294795441460e-01 -1.350040474596731765e-01 2.378166880086417523e-01 4.363151880471057842e-01 -2.154085058390639851e-01 1.691514492401718084e-01 -5.170754879180439190e-01 -2.279029489713242929e-01 -1.600553293399511467e-01 7.039669028439356213e-02 -3.297544787187170479e-01 -2.754935453124061073e-01 1.492499736352341788e-01 2.282781772468486514e-01 3.020638593415863604e-01 5.217648538200677644e-01 -4.787043211622789562e-01 2.036108635793772437e-01 -5.395339684218199983e-01 2.736075158654064365e-01 -8.783645126964019501e-02 -4.793086042685536230e-02 -2.915655289703014338e-02 -7.823823772426739820e-02 -1.341696044102679009e-02 -3.171581130418499872e-01 -1.005250798752150704e-01 -5.938922303725453766e-02 1.309066273673487046e-01 4.489538254192038808e-02 -2.852633153328735793e-01 4.879720549495280002e-01 -5.041851473923030236e-01 6.862200177533755996e-01 -6.777024082186196285e-02 1.538441599930110426e-01 2.161261410493765522e-01 -1.151090745159107642e-01 -2.763846787093555690e-01 5.412825745081282225e-01 -3.884089613668138541e-01 9.264395775359560714e-01 1.078728778100609853e+00 -7.808336874389870674e-01 -2.909839477781346884e-01 3.750663123657917847e-02 2.678986868405219823e-01 -2.766238678439710084e-03 7.638110098881012444e-01 2.955468028918228213e-02 -4.030560639181259008e-02 9.189923442512880625e-01 1.279577295023469619e-01 -7.359789830873514349e-02 4.836965332307580079e-01 -1.478694123632322555e-01 3.779732694018791972e-01 1.600167092258874754e-02 2.354140404802803344e-01 5.099787476399846309e-01 -3.086873889172746244e-03 2.293955992251447140e-01 -3.497620435589064991e-01 5.816360061655517777e-02 -1.216486519733445265e-01 2.639931214953573080e-01 -2.666827619513931769e-01 4.391504972596215195e-01 -7.510620196292857598e-01 -8.262423137889753910e-01 8.741045408242579251e-01 1.375681755237413706e-01 2.010211272823560213e-01 -2.587759211725555453e-01 1.987437755538673523e-02 -3.954928374738797547e-01 2.659305264870567287e-01 -3.260421678951415103e-01 2.368697378441799173e-01 1.688003101759772140e-01 5.097024401875486221e-01 -2.630305151584268475e-01 1.360188259451925175e-01 -9.736810958409104488e-01 7.099479938184463101e-01 -7.586714636729312289e-02 -3.778434829497959724e-01 2.558388727116355232e-01 -3.410627122667311273e-01 -1.585278067040916949e-01 -8.460446385254537238e-02 3.260543709367023646e-01 -3.732311570275303331e-02 1.040879291262763150e-02 -7.766064219797188528e-01 -1.892065586965801516e-01 3.935066956091492485e-01 2.508675557436118031e-01 -1.603522540434290655e-01 -5.920302758973154944e-01 7.676893154817856502e-01 -3.000398813565425815e-01 2.307893859416712268e-01 -2.337198675637825462e-01 5.475561536436084342e-01 -3.999267869302195466e-01 -2.520241378809927602e-01 -1.491853482197410818e-01 -4.420753201405599325e-02 1.575329806571837965e-01 -3.718069936186177427e-02 -2.817846137644783866e-01 -1.967884380000065325e-01 -7.362729749032503879e-02 -1.711988528759858796e-01 1.902364272089445696e-01 -1.762902441235084938e-01 7.096038926089952292e-02 -1.640683754080327350e-01 -4.581488585723302726e-02 6.449867092840284588e-01 -2.018725365775701427e-02 5.622891348801657002e-02 -1.011467729601294163e-01 4.983489328782453875e-01 -1.815265858564228119e-01 2.556011495299346792e-01 -4.900793949243519854e-01 -4.736231699530192851e-01 3.504955942427876447e-01 -2.375983548795580769e-01 -1.432082654361460927e-01 -4.111118961968975305e-01 -1.809502097571222268e-01 -4.210182340847771210e-01 -2.560055296211359299e-01 5.527591888485942073e-01 -1.380041465749151097e-01 1.598132649991516052e-01 2.029853046019750862e-01 1.013334429291562200e-01 -4.731304320944966779e-01 -5.813360443240783715e-02 -2.316270920590559126e-02 7.037413786014831696e-02 3.405111523259845563e-01 -1.027295941044545705e-02 -7.714565533485915338e-01 -3.346217193547725705e-02 1.491717774307281530e-01 -1.398889448317720552e-01 1.178009279056049623e-02 8.585424348954748264e-02 7.234913681469321012e-02 -1.301364115229134422e-01 3.006407854517507694e-01 5.604180842832862802e-02 8.529716180246639523e-02 -9.318375784033784692e-02 3.584856913628387542e-01 -2.724053743119033213e-02 2.700440623697135112e-01 -2.581835204584609911e-01 2.965775301219500393e-01 -1.641811821955050377e-01 4.101817710098399489e-02 7.393541894422420713e-01 2.179519758640923177e-01 4.018285454227605857e-01 3.036636550563994175e-01 6.534522266685713898e-01 1.914045294544718945e-01 -2.439893475184403970e-01 4.964896363126240775e-02 6.171928612043455775e-01 1.211289119027112587e-01 -5.596870259975134099e-01 7.716953146737880187e-02 4.278889124503643809e-02 7.660543417182676118e-02 -2.778003156454822431e-01 7.762123020036486298e-02 4.888452483602543919e-01 -1.070161725550253518e-01 -8.654561979693556339e-02 -7.309014470004646102e-02 3.655526218431403018e-01 2.504097674159406761e-01 9.509923637888023640e-02 3.594698933038906197e-02 -4.726276851532450474e-01 2.008001726916548713e-01 -2.295454563898931544e-01 -9.737925423626743182e-01 1.340832025925532134e-01 -5.476438754956485244e-01 -4.308710414055852422e-01 -4.101477101873681197e-01 7.794433980363618675e-02 5.543042838681810219e-02 5.649358804044629645e-01 1.367832953004780201e-02 4.579691776658779689e-01 -1.008379611745933158e+00 1.789657603729689073e-01 3.183338786723293734e-01 2.905721141438918909e-01 2.653593260807352583e-01 -2.122978086698550371e-01 -3.913034059800736819e-01 2.409485426151036780e-01 -1.015304575239742713e-01 -3.407503163606812741e-02 -3.959387286899783143e-01 -4.096821823550336195e-01 -1.802691636300895184e-01 -1.559542326125208656e-01 3.745284006136619936e-01 2.057488035795967118e-01 2.277445145715650265e-01 -8.365620131160092510e-02 5.628432296821468395e-01 -3.376946919758098686e-01 5.671884807237458775e-02 -4.356265097770692374e-01 -3.064690497927737289e-01 6.993628861432206467e-02 2.031489678140750432e-01 1.870865576165215427e-01 -6.927348698334391541e-02 -7.789245465092618781e-02 1.561554053024451494e-01 -1.137662709063907429e-01 1.040244899899901987e-01 3.017622751607618170e-02 -4.139017463814019804e-01 3.324457543871898180e-01 -5.766976988144526528e-01 -4.833874923286243241e-01 2.742018802253866627e-01 7.683990692435528104e-03 5.647575866033666819e-02 1.635147307965914842e-01 -3.238104865571603819e-01 5.595880747406221101e-01 -4.849673830747757153e-01 -1.361466621906679830e-01 1.144321990227540053e-01 -8.136939410642974879e-01 -7.943232989181976678e-02 -1.140860533072303035e-01 4.023228799279721102e-01 -2.978659834983769447e-03 2.639657404408436991e-01 -4.071136405640633782e-02 -2.466630539073617553e-02 1.045145765715376623e-01 5.239244222444310317e-01 -1.121111787450637942e-01 -4.383808125345765583e-01 -1.933509163864778335e-01 -3.924533827059811797e-02 -7.045323153378487691e-01 -5.461378762012067956e-01 -2.558237524580791455e-01 3.849344805318026252e-01 4.455564554215597495e-01 3.780981008796143739e-01 -2.171284455467447083e-01 -1.151426360390203490e-01 1.417061055476377118e-01 -5.654202193554373063e-02 2.529815058006976702e-01 -6.603439453860642239e-01 -3.142239669350167797e-02 3.062649080523544565e-01 -5.215964365210427056e-01 5.382841781675735682e-01 -9.614812824752574927e-02 -5.936420047898580687e-01 9.775024149682203234e-01 4.685441200484697366e-01 1.728517225014953446e-02 -2.078437874081190406e-02 -2.695909138253673731e-01 1.138509831886684726e-01 5.605695297466192217e-01 4.123853154210161964e-01 1.515083226487277668e-01 5.947110521209341139e-01 4.158618496977083828e-02 -1.974903061992915876e-01 4.431808485803063746e-01 3.142687545304364560e-01 2.317630680883551453e-01 -2.111359342020416863e-01 -3.100647902506872278e-01 1.475318658676117167e-01 -2.689822862146683535e-01 1.570494450674315701e-01 2.551528536247033019e-02 3.246588256611588341e-01 5.634287937345635600e-01 -8.055085043350451723e-03 -8.989874543267015738e-01 4.434636013100025365e-02 4.213590190090194532e-01 -3.339957490161316045e-01 5.223619101246368412e-01 -3.263280277312207572e-02 4.611241299949327410e-01 -6.127918644812338500e-02 2.041451187245157672e-01 -1.333573658121293970e-02 -6.222762619825267238e-01 -2.453893517143198588e-01 3.291506531576945394e-01 -6.033751681670365685e-02 2.229532210737189823e-01 -5.528610520802392791e-01 -2.781287153362804743e-01 -1.756981385336739698e-01 1.570219956056837785e-01 1.609996450902202447e-01 -2.028697933195994785e-01 2.280195115081309343e-01 -5.673493700649061278e-02 -1.854447600065935176e-01 3.818180522144289935e-01 1.847147933882336834e-01 -3.396163719565331029e-01 2.179069196528339580e-01 2.943354610970341789e-02 2.056244385830785504e-01 2.376945153086193561e-03 -3.148158603098261676e-01 -2.512129144662116897e-01 -4.321142118860262227e-01 -1.941643908959995168e-01 -4.113713558980421348e-01 2.602129565900637154e-01 6.115925582324396870e-02 2.722253890581748936e-01 1.758264060269833506e-01 1.507098458855787582e-01 -4.689430063133019633e-02 -4.081607695292912008e-01 3.976844713097337225e-01 -1.443827169521864906e-01 -5.347263932153233368e-01 4.654872720884801196e-01 -2.377438833386190387e-02 3.429616751107999462e-01 -2.051777554437797524e-01 2.997589947021628842e-01 -1.688512312679362193e-01 -2.870429360194866608e-01 1.445286338153260464e-01 2.362294437290301807e-01 5.307596946915161401e-02 2.830724809286792182e-02 -4.214067590374331179e-03 7.942462247904026607e-02 3.742985372845489267e-01 -1.846317688076027641e-01 -1.050037886666755071e-01 2.193843410863726695e-01 -3.507406602589113187e-01 2.502557019128928695e-01 -8.099381336262272135e-02 5.309348330001654181e-01 -3.032480157596798565e-01 1.105811377587481298e-01 -1.182111757005909619e-02 -1.474248491830588148e-01 1.496911841697016188e-01 6.589624969547605016e-01 -2.086844601850300074e-01 -3.288616404077631672e-01 1.373126634117234901e-01 -1.179961968996628530e+00 -1.748736328837937337e-01 2.250640249218130162e-01 9.636737725748100170e-01 3.301259713150087038e-01 2.201422337240096713e-02 7.911426260581928549e-01 -4.222606289792154022e-01 -4.006839137612908108e-02 -4.472324349950132505e-02 -3.592997120928615451e-01 1.916761036787674177e-01 1.564240776058914706e-01 -2.404004424851383381e-01 5.713331470500525588e-01 -1.119909764487896919e-01 2.743377916389959092e-01 -3.662826522198315837e-01 4.159876442505571204e-01 -2.661255403706799805e-01 3.040948327786572869e-01 7.556620890068292684e-02 2.465166871478623178e-01 -7.774322801248492731e-02 -2.079244947971771174e-01 8.319136517608972589e-03 -4.824535851687434818e-01 7.294472646158125517e-01 -1.213364899626566407e-01 1.988555418783957141e-01 -5.048780122365156275e-01 -5.369501815944333067e-01 1.891153064078404666e-01 -7.605001675830087848e-02 4.490887455168459524e-02 -1.551401506077973447e-01 -4.675360062584779097e-01 -3.330591147800305296e-01 -3.276027732511663237e-02 3.768252467790051408e-01 9.061101739693401269e-01 6.069389824853640425e-01 5.396002155417402024e-01 -8.664050037430178763e-01 -1.353986152827233724e-01 -2.047413963736473275e-02 1.166219884435051035e-01 -5.069956068281636363e-02 -8.083559172640884805e-02 -1.595893897052686750e-01 2.542676104690870242e-01 4.924959014267878965e-01 9.096387443923663330e-02 3.435754327433994670e-01 3.654710643823362859e-01 -1.421620708902861796e-01 1.544453257332889795e-01 1.729939302655086886e-02 -2.652130297431927186e-01 2.986732013276957032e-01 2.714245962098145726e-01 -2.553145823480286111e-02 6.753001310821163394e-02 -6.192398951258203388e-01 -1.546711506356363286e-01 -3.782192772095398503e-01 -2.876293733290609667e-01 1.394082829585802374e-01 -5.779460217204379635e-01 -1.278738205279690565e-01 3.922074021381818376e-01 6.442923374641412737e-01 4.092632185950820234e-01 6.771058308994044872e-02 -4.014764776708683591e-01 1.188687640998365019e-01 5.362523403155207147e-01 -2.724840463531289503e-01 2.349356315037445797e-01 -2.291167639179530757e-01 2.916549239906593427e-01 -1.042656684443678122e-01 1.600486944742108841e-01 4.346035650507761028e-02 -1.028559515502569105e-01 -6.825539574232333262e-01 -1.612331766597968896e-01 3.425142690137082946e-01 1.609559886423628516e-01 -1.851066737597337891e-02 2.975682863182856908e-01 -1.119782893015134062e-01 3.897896182658225905e-01 4.832693053335184175e-01 5.152323475005676778e-01 -2.584516905779939977e-01 2.464546218963414304e-01 -3.233119792512625934e-01 -2.408788020521075990e-01 -7.506597011429065880e-01 -3.995285150527003726e-01 2.748123453582959619e-01 -1.926658315874101024e-01 2.098587769845599860e-01 -2.361554425838599536e-01 -2.018845202339553946e-01 -2.675581551250626466e-01 -4.066495171458621161e-01 4.309481362076147959e-02 -5.022432868606345746e-01 -4.695502657156315207e-01 2.690190938892110251e-01 3.676305429583204276e-02 3.466518748342766743e-01 -6.064699840664765640e-01 2.205211532515125861e-01 -4.150230984249803634e-01 4.159922549125903424e-01 2.836966009389085483e-02 -7.274655753202688979e-01 -4.656549247162102279e-01 -5.091135290652347434e-02 2.703384314192498472e-01 -2.207082547204510404e-03 6.360569149437472758e-02 5.409362988389500027e-01 1.140528371259240392e-01 5.683728360634385801e-01 1.787060814769507733e-01 -1.376477922859593583e-01 -1.278926232733995361e-01 2.040092531913446083e-01 1.294530571889561388e-01 -2.320768525751676636e-01 8.967231706768257204e-01 5.964494610723501955e-01 7.370360919773576436e-01 -3.726824842906515389e-01 1.226947736247324811e-01 4.958281290441585165e-01 -1.589647482750525254e-01 -1.845007494059217601e-01 1.442412137707733688e-01 -1.454293792412325315e-01 -1.446958257167495210e-01 3.366471942649783000e-01 -4.861332098427955661e-01 3.761698562430363380e-01 2.918186563350728124e-01 -2.861007394793236430e-02 2.575377738183208809e-01 6.896924795386255580e-02 -3.126375439103483700e-01 2.902656568893135502e-01 -6.387638843173234493e-01 -1.268275082017304989e-01 -2.239357774099094353e-02 -4.982379263364164479e-01 6.693502038340681803e-01 3.422900035614943604e-01 3.118312277467107929e-01 -8.550319367969927420e-01 -7.928345655721114049e-02 -5.470420786774842226e-01 5.559834930623575033e-01 -2.162581844033402700e-01 -4.732883228582332458e-01 5.198888081742567557e-01 2.497656675973514706e-01 2.017683553240134098e-01 -1.941735369514959453e-01 9.649995957013815517e-02 -7.119223102501086586e-01 7.525386829669584721e-01 2.545687298643105612e-01 5.846075094786763460e-01 -1.603379525877199896e-01 -4.237522601188437599e-01 -5.354370464530429086e-01 2.148194054487529980e-01 -5.749684943557714645e-01 -2.349739145521715367e-01 -1.137728898363975921e-01 -5.089953072454891370e-01 5.097114220488584424e-01 -2.383070882010153158e-01 3.782570592303437229e-02 -5.476335802807487108e-01 -2.414994201142557917e-01 2.394417475654832261e-01 5.866125326496584025e-01 -2.435543487079167013e-01 3.999730507298959736e-01 -3.016495197891932434e-01 -2.733747412738178340e-01 -7.863294735707873628e-02 -3.251947190599415727e-01 4.719885579087499949e-01 2.205900822723140808e-01 -3.043212513298656496e-01 8.361164062637702066e-02 3.883068857566305820e-01 9.032196098088297181e-03 7.785485068555489940e-01 2.423243839227191276e-01 -3.058928890132935341e-01 -1.610245977368208736e-01 7.880930325536198433e-01 5.343903170490497262e-02 4.321693028088475219e-01 2.005643666755304311e-01 1.636054742219440472e-01 2.430912594592569420e-01 -3.390051009191418635e-02 2.103717994379630252e-01 2.679651506203269140e-02 1.056501305126393286e-01 9.779629768002998103e-02 -4.229136307999700750e-01 -5.448697483345875670e-01 -1.303147658027101197e-01 -3.178157606102986477e-01 -2.299565725093195012e-01 -6.637976426609586145e-02 6.769221969272066763e-01 6.050230042793000584e-02 -4.067529306983981852e-01 -5.502434060412554340e-01 -4.621029626542161317e-01 -3.062727041468429889e-01 -8.029949035569262650e-01 4.672867798537043149e-01 1.733445747529648584e-01 -8.858408795408623249e-02 -1.663277612027923569e-01 -2.057248682986422689e-02 5.322511729834469296e-01 3.985373687208094706e-01 7.577464592101145202e-01 -1.461247518211589713e-01 2.946885731379600415e-01 -1.124486385649027392e-01 4.961931920277007357e-02 1.212280379095040661e-01 5.862645702513119561e-01 2.592442772845846011e-01 7.430176619980827235e-02 -4.179330152228086792e-01 3.200990912704698016e-02 -5.748711524832244013e-01 4.701464889816306392e-02 -6.333739497941193175e-01 -1.169581642312522290e-01 -5.233941047597393537e-01 -7.031557018856725572e-01 -4.503026266048171800e-01 -1.091525880342399529e-01 1.619622156843009420e-01 -4.458930890200036856e-01 -5.821847271298482562e-01 3.332570657126457392e-01 -5.329100904462889116e-02 -5.677761325598948972e-01 5.488603014883882691e-01 -7.434939909109143930e-01 -8.163098246222963983e-01 -5.294570389495224516e-01 -1.253666120800486783e-02 5.160797037414976973e-01 -6.238898503228154646e-02 -2.367968576281489490e-01 -3.480894164636669230e-02 2.137242335171751217e-01 1.308883357415157322e-01 -6.446205275236298327e-02 2.048278596610869640e-01 3.911191045446298087e-02 1.112048682306396655e-02 -1.693629309812307582e-01 -6.909881863590376649e-02 -2.359044059665653115e-01 3.051655830099465616e-01 3.726107980283868693e-01 1.796145666538953856e-01 -1.249571083647393367e-02 1.646673795630881343e-01 4.915460813353942915e-01 6.321759627994363306e-01 4.879616208764246954e-01 -3.671626828386259644e-01 2.362799988765448556e-01 -4.255275022976615640e-01 -7.801342107594024800e-01 6.023747582317090510e-01 8.241221722881054979e-02 -2.833672195164115837e-01 -6.932343016386951495e-01 1.580270400831599864e-01 -7.257452824066723540e-02 -2.878898279900307666e-01 3.398491332197330350e-01 9.451239655094695324e-02 2.200557993466151219e-01 1.591728092511405235e-01 1.636097965336499871e-01 -2.442360011571576006e-01 -7.779040649656007722e-02 -2.234239231867195530e-01 1.332858140345960507e-01 -3.472992081940785569e-01 1.466646161452902749e-03 8.915995443575408519e-01 -2.650537344254129679e-01 -1.366919170620800594e-01 -2.016185996931249558e-01 -2.077857669806946750e-01 6.985642354620309746e-02 1.048832639248565984e-01 8.619055771421378909e-01 6.567601171166389529e-01 3.570942098357741349e-03 1.797785189525012983e-01 2.263193080537609370e-01 1.079918617919697621e-01 -2.534255480557177087e-01 -6.474549087471802578e-01 3.202531909225343754e-02 1.888534899820528135e-01 4.248414001040434762e-01 -2.249248369094320465e-01 4.001392273744191347e-02 2.778717388424820633e-01 -1.176195033023974268e-01 1.250318476837660731e-01 4.279851752945912913e-01 4.491882628849300785e-01 2.877608023018635164e-01 -2.803532376040248630e-01 -6.293390854519611555e-01 1.914317127992122003e-01 -5.374591568907668981e-02 5.903635227194370394e-01 -4.069539645708922793e-01 -2.745477072835472709e-01 -4.360228939272797200e-01 2.168379596950870403e-01 8.030904815203211422e-01 -3.969933118014387086e-01 -8.806748450111627491e-02 -2.574422550272228438e-01 2.057338694690102887e-01 3.277197325209780243e-01 5.338658847257775619e-01 5.497536497735320410e-02 -7.852174007962617885e-01 -6.712103472297640261e-01 4.421361569531473967e-01 -2.164045965232894997e-01 -1.796393957251113671e-01 5.343450864661226235e-02 -4.404117953283371856e-01 -2.857888006091687805e-01 3.409019461171471921e-01 8.403922102048754228e-01 7.111124721223489875e-02 -1.187567899507478847e-01 -8.533435155170489284e-02 -2.313625593585519891e-01 6.698733429002539097e-01 -2.910283632598342218e-01 1.068443650202883788e-01 4.088013366911109614e-01 7.822214313170476885e-01 -1.074789026493883970e+00 3.425973731014287926e-01 -2.576678715600441150e-01 2.400967858180427794e-01 2.736409062397358039e-01 1.111873302667810842e-01 5.009301913208984436e-01 3.121754174287745282e-04 -1.694415109825539723e-01 2.434765371413265822e-01 -4.769294216215506643e-01 4.974178874467018452e-01 2.244112786354076905e-01 -3.537447296381187045e-01 2.778853905227470777e-01 2.335547475688471222e-02 -2.386359131542118983e-01 -5.783556087845237448e-01 4.523673486836856106e-01 1.616278649422998315e-01 3.959195829490550489e-01 3.441375917247475602e-01 9.040426189131360590e-02 -9.310699703812141959e-02 1.524092279794946325e-01 -3.742675320635569514e-01 8.621615842507035499e-02 5.200327160707829410e-01 -6.632273290668241339e-01 2.474939825140427263e-01 -8.574746886158894910e-01 1.412914470350505325e-01 -1.758226634802447230e-01 1.859472009149518712e-01 -2.229006800614280748e-01 -5.582105232330207834e-01 -4.638244729860719340e-01 1.897432279091191831e-01 -4.591833828665978778e-01 3.777639667759224995e-02 -3.345616762433061830e-01 1.695054554625974319e-01 7.198381186904908580e-01 -1.754493989643475804e-01 -7.647577147485818960e-01 3.290989770172313977e-01 3.142557675840152442e-01 2.484903467884167494e-01 -9.922133718071080022e-02 -4.852615123090154858e-01 -3.929057171266744919e-01 2.603490097661008140e-01 -1.206024506902195204e-01 3.355591797696313439e-01 6.653779428546957586e-02 9.249594128819213501e-02 1.917765253438223905e-01 3.144064242903987227e-01 5.657456074558971926e-01 -3.091762367920565802e-01 -1.150206945089938260e-01 -1.847947303987478584e-01 7.610455045224076009e-01 -6.173311062069567479e-01 5.385875377927907756e-03 -3.525605648570076349e-03 -1.191666345703719099e-01 -1.241294442385403179e-01 -7.474561166590927286e-01 -4.544130037260494248e-01 -8.571189326261631491e-02 -4.748834507376074876e-02 -9.167814422779406447e-02 4.339067448539497829e-02 -5.122915972318640154e-01 2.650467502388688668e-01 -3.787422530565164314e-01 -3.757629846237497406e-01 3.220113938159803180e-01 1.342031468004810935e-01 5.089144091342392429e-01 9.836725372718234384e-02 4.475349717378707126e-02 -7.230650345166261816e-01 1.069435639718608611e-01 -7.520090478788602484e-01 2.047254253258836976e-01 1.620624642245334368e-01 3.400046224154749663e-01 -3.758299024375426067e-01 1.391139701352606395e-01 6.192752332599790049e-02 9.199441005860828358e-02 -2.056087454262258418e-01 -3.463949510643469787e-01 7.121856311609652268e-01 2.656892475658327868e-01 -9.627961962110014316e-01 -3.999641561923347743e-01 -4.317748219644608754e-01 6.649739256983218105e-01 -1.280487770602773134e-01 -4.627627655153402908e-01 -2.688916918120489233e-02 2.070042721214056525e-01 3.918927280864648033e-02 1.771481636686709007e-02 -2.855530903723537128e-01 -2.840128798120666875e-01 -4.245997818335260632e-02 1.181647179420757476e+00 9.414923674711989099e-02 1.545251921776388260e-01 3.375725756132765820e-01 -1.073287437917113535e-01 -3.118657651628508054e-01 -6.012007471155143834e-02 -4.185549224507699173e-01 -3.376838396499880490e-01 -2.768390681303648515e-01 2.546291396557255338e-01 -3.482362905307754275e-01 -4.521146301017270885e-01 -3.229002105595398242e-01 2.432762766144259403e-01 -1.391177483781086410e-01 -1.687819254470473984e-01 -3.510747919557818258e-02 5.466052785828064142e-02 2.321555642054563273e-01 -3.541650367027715518e-02 2.814576039894270965e-01 -7.602503385675553338e-02 -1.637073116933717987e-01 2.188657446385487149e-01 6.250868885923983598e-01 1.638691848719595334e-01 -2.833394305906333233e-01 -1.245061703976048373e-01 -1.988384186180209567e-01 -1.258873616089910830e-01 2.032830171520643159e-01 7.034224639699447890e-01 -1.666164109250225789e-01 6.984009414504045443e-01 2.242097328459523031e-01 2.326833055379712023e-01 1.616216827293009695e-01 1.263082372089782413e-01 -4.263814529523581864e-01 2.420009541701344594e-02 6.671043341771781821e-02 -3.338576392512200910e-03 -1.493503864415520743e-01 -4.828067870450509780e-01 -9.469988840681661801e-02 -2.503792718841234000e-01 2.588301046242655334e-01 -5.047902343656907043e-02 -3.777168714140358152e-01 -1.992659109984522281e-01 3.885237085622856301e-01 -2.817720030663709019e-01 3.702402938883008754e-01 4.222499892288462120e-01 2.944646570342622782e-01 5.503758142653111113e-02 -7.960574766989658713e-02 -1.189272643366582061e-01 2.323367219024625174e-01 3.792364465943390966e-02 -5.064844044145502266e-01 5.610572616128488288e-02 -5.313969241648228703e-01 -2.624063717551615160e-01 -4.343974396540682403e-01 2.651020007250550758e-01 3.994038848754964954e-01 -5.070813240452747284e-01 -2.409753407040127471e-01 -4.622106207994206017e-02 -1.564201699626738273e-01 -4.947148034239338132e-01 4.410977127541260145e-01 4.126863358976680558e-03 -7.802584504138387715e-03 5.368331992053990837e-02 7.056739758789212780e-02 5.538600745197290731e-01 -8.796657862648837867e-01 -4.475008881313236042e-01 -2.112814564681795293e-01 3.270233344465511838e-01 -2.178202814897622352e-01 -1.111229796625952948e-01 4.283999893506417744e-01 -8.307249715461623163e-02 -8.263809714272710716e-01 -7.052022101893813677e-02 -5.508915349008925988e-01 5.373650373347629294e-01 1.458688451443849177e-01 -8.274564756754013151e-02 2.859437848092856171e-01 -5.758245198366875872e-01 -8.275762843701356397e-01 1.195978186358885934e-02 -3.016006277476267483e-01 2.342545386714114941e-02 -2.156142386547930390e-01 -4.252153717031478819e-01 7.627151932331367734e-02 9.165176506877869000e-01 2.735266479816571006e-01 2.587545709305849595e-01 -6.006298701299243037e-01 -1.360294872336020588e-01 5.867992942284826485e-01 -1.097876588926068459e-01 3.181405057036040263e-01 -2.650699951018689604e-01 -4.837050473966856834e-01 -2.295614689621910398e-01 5.692434212493934220e-01 -1.724657218978564444e-01 -2.385591288751268135e-01 1.624858942475282397e-01 -3.305908992148066661e-01 6.554040893081417574e-01 9.907438356278949754e-02 1.321999612249910028e-01 -3.909906130195101581e-01 -1.404870937966903599e-01 -2.494936729051483448e-01 2.606580529746204133e-01 -2.867725661111709679e-01 8.450056271302307520e-01 1.045239720709640330e-01 1.461548306417456977e-01 -2.927016434217228902e-01 1.372810876656746504e-01 4.340236608199779522e-03 -3.979567894142132523e-01 1.896414898797673942e-01 2.726493430373295723e-01 5.102865180146879537e-02 -1.037820331651449074e-01 -2.888241489872528933e-01 6.595768915028868973e-01 3.649818731410368611e-01 -2.806766577677049512e-01 -2.637814171577362865e-01 3.290287659785844365e-01 -6.843026082366518437e-02 1.474835566330335301e-01 1.738486350183654494e-01 -3.156987946139508394e-02 -2.538603206326617290e-01 -5.997784178918743603e-01 2.765768701299215482e-01 -7.063275014566552379e-01 -2.081559184041300581e-01 -1.428324869011310116e-01 7.364600026284805478e-01 2.461993620058211263e-01 -1.501264331629295068e-01 -3.533976409852703782e-01 3.121445925019942016e-02 9.767913370214069413e-02 1.912565567531497313e-01 -4.626672394957270229e-01 -3.481382639020530467e-01 1.279297812357238218e-01 -5.278351433984724422e-02 4.912443911748650693e-01 -7.951183517238822329e-01 -3.796280617815711578e-01 1.072929821177441845e-01 7.150800749804962775e-02 2.328782786922758141e-01 -9.513199998911726629e-01 3.813050933765543132e-02 7.620283086384511961e-02 2.092989519648274233e-01 -2.591022437893876762e-01 1.082081504225596846e-01 5.852168597939760852e-01 1.440538332090162688e-01 -5.301703570593447878e-01 2.144850265652321897e-01 -2.816238273110633350e-01 -6.884012378132944310e-01 5.068487040357225748e-01 1.732733128030263803e-01 2.358184504555618788e-01 -3.246326818172928785e-01 -6.069720970022385309e-01 -5.567749219739385191e-01 -1.201392213001240550e-01 -4.181876147854957787e-02 2.687211296611797251e-01 -3.348554226510479515e-01 5.985064963012657474e-02 2.253211514664801018e-01 2.661060030666513865e-01 -7.676456087685462094e-03 2.378793492932990972e-01 9.620463971556718341e-02 8.874163541294362301e-02 5.393116720436962330e-01 4.190453985869629361e-01 5.464140637822272328e-01 -3.114792263625161817e-01 -5.497385455348104966e-01 -1.399197190743472763e-01 -4.650316407976935046e-02 3.750687386194916928e-01 2.532691431167284901e-01 -7.152648764352662614e-01 -2.947950986724522382e-01 -1.965566559288095816e-01 5.971272289523735788e-01 -2.343548435158960275e-01 1.048993923918354193e-01 -2.327185257524937434e-01 6.941512145137800349e-01 -7.924879561267809958e-02 9.964592310611376791e-02 2.757571459697411020e-01 -7.289468907175211676e-01 -4.655446624611248585e-01 2.630813081502878514e-01 8.643201203949128775e-02 -5.447160916712433520e-01 -2.804907774357222605e-01 -6.024107888067674332e-02 -4.008850865516407763e-02 1.807665511576138362e-01 -5.843662611645569216e-01 4.397783579918101982e-02 5.930952164828808826e-01 -7.068070310708168824e-02 1.239208190733329940e-01 -2.901168986449237375e-01 -3.224668197390313101e-02 2.036957655300010717e-01 -6.178229634707620432e-01 2.925846308681648855e-01 -9.349754892289772190e-01 -3.237870931442085598e-01 1.105516869134552660e-01 -1.209729607374664395e-01 -1.171329621929120962e-01 -5.135740523161792283e-03 8.946880381478755639e-02 -2.426773762284847313e-01 4.628213588199616146e-01 7.285500567300695618e-02 -5.162577463826636404e-01 -2.941085520088156935e-01 8.495724624959513638e-02 3.530112909155880274e-02 -1.050523421488814835e-01 4.474403029120513353e-02 -2.638106992979222243e-01 -1.557740472692774325e-01 -7.333872223598266737e-01 3.079290694868447864e-01 2.222240370708556123e-01 3.099958716557366795e-02 -3.369683414892197804e-01 -1.488503787120281918e-01 -3.688506016276906219e-01 -3.881046600236168764e-01 2.131449934333899121e-01 -9.444249782826627526e-02 3.070205106369908871e-02 -1.856469207386194364e-01 7.559326722672646270e-02 2.956752887499872195e-01 1.211438403794242169e-01 1.683083850007672799e-01 1.036726698607980668e-01 2.355998348799150655e-01 -8.666283429975706332e-01 3.904089412203675113e-01 6.148295199019986751e-02 -1.820880250075886941e-01 -2.812673105333011736e-01 1.791615511597202115e-01 -1.634351679886888731e-01 -3.514750166063032588e-01 -1.900059097004972997e-01 3.526842799933660845e-04 2.522644500243013121e-01 -6.866205198912046781e-02 4.377091692556696056e-01 5.829435298805947241e-01 9.253170357802975587e-01 2.723680583331333227e-01 4.159183300335303479e-01 4.751684359946893310e-01 1.979922446738358877e-01 1.633583897260015572e-01 -6.872736894154478360e-02 3.467284462727427408e-01 -5.048598686580050288e-01 4.077261315751168902e-01 -2.321218277456388868e-01 -1.029326948071828562e+00 -7.979607949164400915e-02 2.186642043928006263e-01 2.583075941665394226e-01 4.810430376271242550e-03 -1.460589480758596181e-01 -7.570522885683886316e-02 -9.011617236033568623e-02 -4.591705219372107516e-01 5.181612431946975850e-01 -3.900540686924471867e-01 3.610159003401856859e-02 -7.071819700753882720e-02 -1.352877640561085115e-01 -2.625910984013033467e-01 1.722351442666601173e-01 -1.605759672980764940e-01 -1.774752962089186092e-01 -4.400512533769275827e-03 -4.703354329338360063e-01 6.425141793996992368e-01 -4.542761300241696804e-02 -7.842021511736391171e-02 -8.403114219990368561e-01 3.473714621090269461e-02 1.496302055750837676e-02 1.251751598116247755e-01 -1.903113397739568113e-01 3.559060818448470803e-02 3.915410704311008683e-01 -2.439564647407428677e-01 -2.119607290640941055e-01 -3.875451131249990633e-01 -5.839998635438589103e-01 -4.288813494254643532e-01 -7.439732473531948109e-01 1.846966818535279997e-01 1.598880506846632743e-01 4.519688709884410738e-01 3.299500044508046209e-02 7.573085369136562939e-01 2.664786010786995285e-01 3.500199260785528677e-01 -3.995048074681888384e-01 -2.045476395748637224e-02 4.519676857874270759e-01 -1.350672040756137893e-01 -6.057234883337578868e-01 1.963857319176963989e-01 2.630862508582927362e-01 -2.017796753818873745e-01 -4.090451253554816535e-01 -3.952849676370488036e-02 3.396217281504502195e-01 -2.667302130466919774e-01 -5.117484289378660955e-01 -1.979158625243281622e-01 5.946939341535008305e-02 -5.742833457884223280e-01 5.504884883139888885e-01 -1.479358514274860814e-01 4.506308392352800229e-01 6.271229459452370980e-01 4.958410730059380489e-01 1.993518012844520959e-01 -1.395051612175351174e-01 6.588998686445500519e-02 6.993025618985685421e-01 8.937958170092558108e-02 -6.018888281089176395e-01 -7.759714044225811680e-01 3.324814302599333193e-01 -1.824689217894053805e-01 7.111217742832226518e-02 7.672122617208955442e-02 4.309769858680578825e-01 -2.661020999681214527e-01 3.918647029697083228e-01 -3.541188494784679452e-01 -6.639075001269990894e-02 2.931558421154565330e-01 2.277198859593083241e-02 -1.055646016659268632e-01 -2.658467987638366559e-01 -4.266253614040411146e-01 3.681730863517821417e-01 -7.976433668997170434e-01 2.521026053891932128e-01 -2.654532510436730663e-01 3.364911492468560250e-01 3.325524171785360084e-01 -1.859836624038713748e-01 -3.141313575224296412e-02 -5.729252840660703505e-02 -1.280324384084154110e-01 -1.296149095836160725e-01 5.156689676031463998e-01 6.148140406156628046e-01 -2.077567203454946665e-01 2.369237388841670122e-01 -2.938634156682213838e-01 2.263455915454044010e-01 -8.812709503869343985e-02 -1.277830593611529175e-01 -1.076562850094040513e-01 8.240893736171571726e-01 4.023671421644662294e-01 3.832595947522335345e-01 -1.111396145248505357e-01 -1.028094554229791735e-01 -2.102641425511063422e-02 6.184336252190494321e-01 -7.763143529329030734e-01 6.331740786674091570e-01 -5.302065458606337600e-01 2.178595572267699731e-01 -5.241660334887550121e-01 -5.220879994938051327e-01 4.326186414319844742e-01 -1.088588737550469088e-01 3.012799893198844225e-01 -3.300233733355814603e-01 5.341063283121748606e-01 -2.982741184791578570e-01 -1.563291869162849318e-02 -4.119610214931503367e-01 4.029929905973277104e-02 5.293364941288077885e-01 2.910259060854200053e-01 -3.044536053789895225e-02 -1.174046007437641037e-01 -5.018408773220788266e-01 -5.756115799659604626e-01 -8.453017642335607373e-01 -2.764654443888454605e-01 -5.048766392564415506e-01 4.804435605911218099e-01 -1.350714433408319315e-01 3.477095761019085574e-01 1.004440833904367975e-03 -1.907956043880230934e-02 1.901267915315809492e-02 -1.052287993164779278e+00 -4.718163308607583595e-01 -7.205722035151864713e-01 -4.467009554067195576e-01 2.956026889518051926e-01 -1.229432366193204534e-01 1.758128798132481130e-01 -5.739826432943151424e-01 -5.702518786605938889e-02 -1.500528615956047696e-01 6.190409610836468124e-01 -8.715713026564395061e-02 -5.147119352451824392e-01 2.972869137090901059e-01 3.644605949945677881e-01 3.288171309055089031e-01 -2.265558175517306816e-01 3.061366442004609043e-02 6.924085191554510410e-02 2.869455261299412863e-01 2.987703736902942442e-01 4.923686841919884261e-01 -3.555580353590197529e-01 1.784983312984204928e-01 -2.700675896980292978e-01 -6.755510049708435272e-01 2.826581508479383831e-01 8.368679725745669096e-01 9.226147916637646995e-01 -2.588838806546829296e-01 3.829534193266918574e-01 7.782628502453244577e-03 -8.101766407912505685e-03 -3.474459057063994383e-01 4.018130520104238879e-01 -1.377844185755623396e-01 -5.017604671774035241e-01 2.445833071142831938e-01 8.708740545534551236e-01 6.228709014151985190e-01 -7.272993914833416618e-01 1.149893203798841579e-01 2.598979994021258233e-02 7.158724027949318058e-01 4.306647186318135478e-02 -1.655648590008196308e-01 -4.280533789646991938e-01 3.351839921334704986e-01 4.132622279959582284e-02 -3.274856640250384809e-01 1.037570747001806265e-01 3.036737417648386339e-01 3.222889622490273526e-02 3.302830359154642487e-02 3.053660399216224786e-01 -1.289508437331044755e-01 -2.546682724455427427e-01 -4.204691159044429694e-02 -2.182634487252053390e-01 -2.288050039097885846e-01 -1.811382633166984668e-01 -3.725409326788947095e-01 2.100606082575191547e-01 5.179932631256776165e-01 5.838608852608436622e-02 -4.657812588241055929e-01 2.627044222338964508e-01 -3.551664455853416058e-01 3.186597837413829293e-01 7.021430228908868143e-01 -1.265666174952530809e-01 4.664142267224373750e-01 -3.251044866283208656e-01 -2.088264623552404942e-01 7.705950236287667510e-02 -7.944587449452912564e-02 -2.348734809374395383e-01 3.112727195305828309e-01 -7.501574971113083024e-01 -1.851303919314687130e-01 -6.844827752267275134e-01 5.420808344445585125e-02 4.721292414245476521e-01 -7.140504049658369379e-02 -3.921630554951744535e-02 -3.550915079066960245e-01 -2.913672720852785170e-01 -4.552000336873117670e-01 -4.079274784497044504e-01 3.999476371197321217e-02 -2.289221752516218122e-01 1.321592596980097345e-01 -4.926532102334276741e-01 -3.503437299489281509e-01 1.321574792922204089e-01 4.960006582946297621e-02 -2.353148263791593822e-03 2.403173771820838189e-01 -1.524745615071326110e+00 4.755773210406656903e-01 3.327706769909005713e-01 -9.740699845366916632e-02 1.276210463262818402e-02 4.076105951246748460e-01 1.960939575103066157e-01 -3.211379674171386256e-01 -4.425430788046183506e-01 4.192831659781180720e-02 -6.299855986265525676e-01 3.464280401523434083e-01 2.963643159528006610e-01 3.904401917660176025e-02 3.888514922033840804e-02 -6.912457194867435706e-02 2.871360773150898327e-01 3.772750896219661532e-01 -3.615590265451757435e-01 3.716227617518359089e-02 -1.719724518830572646e-01 2.577076739583985532e-01 4.152732256763111418e-01 2.977593971651544269e-01 -4.634023633301458944e-01 8.681624508310879784e-02 -1.059154284112392985e-01 6.571344438410408051e-01 4.483773526914376917e-01 -3.797899739964823440e-01 7.195013265196184560e-02 -1.833366948131172625e-01 -1.203839402801269286e-03 1.673600436042530226e-01 -3.308624072804299820e-01 -3.219558077757074810e-01 -1.022878232397149700e-01 1.359340765059690037e-01 -4.711762609655536505e-01 -1.410737026312214315e-01 6.998055890346435715e-02 -1.972746437043069734e-01 -4.325559212376656193e-01 9.773251157469514672e-01 4.095885252225753281e-02 -9.911408787907784179e-03 2.987675882813784489e-01 1.710040215514023743e-01 3.263137185734393819e-01 4.447768490378302131e-01 -6.136892053319041862e-01 -6.066569132534267716e-02 3.895140815948079371e-01 6.117198121399967242e-03 -6.047966443384470425e-01 -4.146649991307306271e-01 5.371886690163645006e-02 -5.034675397159757981e-01 5.623309543892788254e-01 -1.415229725506637892e-01 -5.860880954924851949e-02 1.127892339942360017e-01 -2.007996318658584745e-01 -8.105611246182299612e-02 4.091833055550569420e-01 -8.235455763762385140e-02 2.540900938252785290e-01 -8.355193658113196226e-03 4.838554180866224547e-02 -6.923382235505265436e-02 -1.486110920584575168e-01 4.754797038409920296e-01 3.016883935763244318e-01 -2.684502285689343778e-02 -5.054855519231348654e-02 1.934546418881742114e-01 1.243832729644572949e-01 4.682300136998301388e-01 2.122275325656459155e-01 4.219574590791338314e-02 4.191506351041993095e-02 2.198569089618204464e-01 1.539286740091160011e-01 -8.570281994793156610e-02 9.025843336963107477e-02 7.496223208301497354e-02 -6.296675857266001985e-01 4.395288326579071397e-02 1.504516896977291518e-01 2.610377568273610227e-01 2.948743956205223671e-01 2.602586617614360276e-01 -4.661301539884863399e-01 7.928231767809240660e-02 -4.846057740436651717e-01 -1.219146161181756227e+00 4.942365817453933663e-01 1.349134423175684938e-01 1.788201273787934642e-01 2.176583466938028233e-01 -1.587884225870759280e-01 4.611791051435643607e-01 1.490463451773861026e-01 -4.855328706614617795e-01 2.778161413563942639e-01 5.547229558170870822e-01 4.061284766085120901e-01 -2.948825669720140513e-02 -1.469935583399500090e-01 -3.474457344826066829e-01 4.721886544439266031e-01 -4.785805156781527403e-01 -1.604641171562070368e-01 -4.493337403054407653e-01 2.321888312335887161e-01 -1.296132106336687073e-01 -3.446031286535736204e-01 -2.862612241365549148e-01 2.210237741029917879e-01 -1.770888348196139606e-01 4.647851674514910658e-02 4.395076622133323174e-02 5.992923032809056513e-03 1.382129236108655124e-01 2.543289325079783336e-01 6.079469845445724385e-02 2.136229356274054192e-01 -1.063585812012388665e-01 -3.033501427069286716e-01 9.195140291707896985e-02 1.268631164944441191e-02 -2.244807284647757362e-01 -4.829041395159656275e-02 3.248140183016360871e-01 -2.458995312269271760e-01 2.110650098366943228e-01 -8.466011380368757000e-02 -1.809926588228877309e-01 1.923345861096367737e-01 3.796815706622933551e-01 4.180160757368134306e-01 -5.107279051451421026e-01 5.778126338721675248e-01 2.748073112648068417e-01 4.347295009477447070e-01 -8.152920689411756461e-02 -2.100204902977143850e-01 -2.860342020272134134e-01 4.362784251818742631e-01 3.598227140599059570e-01 -1.942646952732821619e-01 -2.260708178802961765e-01 -3.941520865271620488e-01 9.013422138276179219e-01 3.919343336115688747e-01 1.827953919925414117e-01 -2.964671648937912130e-01 2.639046026300694847e-01 1.557423042340025099e-01 -3.010693067995424271e-02 1.182765018222549369e-01 8.205643468607451974e-01 -2.050951980319484780e-01 3.154561843136087784e-01 -2.669996341547924423e-01 -4.310504055374436150e-01 -6.923111969136322430e-02 -6.462152627286942008e-02 -2.941540365365638565e-01 6.280023449416625159e-01 4.497201765066865531e-01 -4.191721143988963449e-01 2.462320286164504379e-01 -2.894719834222896915e-01 -5.781365950522395630e-02 3.322589286551393961e-01 -2.475675370123142371e-01 -4.851652274910078083e-02 -9.437268003597108768e-02 2.236685984587489517e-01 -1.428044582414289901e-02 -4.122448648571932495e-01 -1.021069025003648267e+00 -2.579684380238181918e-01 -6.363104716413992001e-02 1.912808269792773408e-01 3.109920482591275737e-01 -2.212637524682211920e-01 -4.291576264548851438e-01 -3.719296237812146910e-01 -1.786239737599748523e-01 1.845224927693378814e-01 4.735713953723176828e-01 -6.027706651161781615e-01 -1.937362428682537774e-01 -1.856581680333315998e-01 -8.820850099030084213e-01 2.598090419265294826e-01 3.616526212106013216e-01 1.230822270450358191e+00 3.106433284002993803e-02 -1.049340021816776769e+00 -3.200591109570722903e-01 6.799541677287117558e-01 4.489026902555437459e-01 -3.349275735741755744e-01 -8.026015428984702993e-01 4.457441657792056144e-01 3.561181833592622081e-01 -1.052618756335302330e-01 -4.849634588479372899e-01 3.362968543473360827e-01 -1.073415365253420489e-01 -2.131921255682771854e-01 2.729694281885695628e-01 1.135585454690305890e-01 9.438755750756841478e-02 -1.364102834486957683e-01 3.107323125226177929e-01 9.093804244136702297e-02 -3.681476363833344201e-01 4.772833649855633964e-01 -2.304345799551532070e-01 2.350700160609182632e-01 3.401868039580179665e-02 -3.561120965711431219e-02 -6.605880640785023461e-01 8.896285682374149850e-02 -1.371047295718825221e-01 5.134609337091292636e-01 -7.955837366946826306e-01 -2.559257160975640932e-01 4.083213716065610677e-01 1.492319656875305822e-01 5.743563946356790018e-01 -4.359375907994487709e-01 -8.671219395341868419e-02 -1.872797984017718353e-01 -4.011519311067737736e-02 -4.178636156242449551e-01 -2.852716027497589901e-01 -1.803338409724359881e-01 -1.318684047119376979e-01 3.628402760871716759e-01 1.275074508147708008e-01 -6.677070371605224874e-01 7.838007605675630929e-01 -4.481091667276560497e-01 4.077219395407863378e-01 2.650855288082066830e-01 -3.498319569287808850e-01 -4.108050498707043613e-02 -1.422617527836209095e-01 1.659100103797427894e-01 -6.028925308848915865e-01 2.238069786458959654e-01 -1.989257581950532872e-01 7.047873178158731156e-01 1.759122688539531132e-01 1.911733383460320346e-01 5.196327599365148375e-02 5.925503515740754290e-01 7.774637361160562365e-01 -1.331539073963782793e-01 -5.994965213365691659e-01 -3.315683541295317838e-01 4.790857731552731202e-01 6.978406971450897833e-01 -1.004484234410974730e-01 -3.703035150919897767e-01 5.131639171105314423e-01 1.066709928031620187e-02 7.602962095361694150e-02 -1.467894021859738052e-01 -7.527090610170084073e-02 1.253310245525230404e-01 -6.147557759566307789e-01 9.015309327228072656e-01 8.345564203143621129e-02 4.413479608068520688e-01 1.721497174715731424e-02 -2.129516154615783141e-01 -3.138098168140660005e-01 2.308031664009151385e-01 -3.459271547545387793e-01 -3.840118708286426874e-01 -5.682882347017746971e-01 1.822904258231125008e-01 -3.463944200506732241e-01 -7.948461270875438744e-01 7.327215760598014826e-01 3.326827413123371602e-01 3.270463675635510437e-01 -1.179489649858010518e-02 2.790241725123893471e-02 -2.666627618150824719e-01 2.734134463502047030e-01 -4.095728190864608709e-01 2.652237442582723315e-01 -1.422277751928317513e-01 -5.732571667800447773e-02 3.609293460197184333e-01 -3.015649705317491880e-01 4.766006406300333786e-01 -3.245884992391987467e-01 6.165330613598059006e-01 -2.440612626159543164e-01 -4.727621445909248044e-01 7.133457529939091213e-02 7.124038057868139484e-01 4.650962890629805058e-01 -6.191552786738552250e-01 2.410017076016408299e-01 -8.372331902846026630e-02 -4.414531089292824534e-02 -5.574239651110161203e-02 -8.809666785999994976e-02 -3.091547591860765443e-01 -2.323182932589379357e-01 2.247755979587853781e-01 -4.299911624018469825e-01 -1.391668589721252458e-01 -3.424774165636085277e-02 -4.482221829440912741e-01 2.326374254325290214e-01 2.923153717665331053e-01 1.564377596386120894e-01 -4.942186329839782233e-01 -3.745815346206563534e-01 3.164806373004530604e-01 -4.627329663652794411e-01 -9.275985917779049073e-02 -2.432567125731004698e-01 -8.897270672712853656e-02 -3.663891970160315648e-02 -3.227410047577087410e-02 1.575623652141046604e-01 -4.846965672643815948e-01 2.991165107223582864e-01 1.490883144185165543e-01 6.768069165794390329e-01 9.521519733671632291e-02 2.752504950896076958e-03 -2.555967080281410508e-01 -4.266002189836303748e-01 -1.156207377281200654e-01 2.518616707463135814e-03 1.450158114231565355e-02 7.718600748071073880e-01 2.503060856121978039e-01 -5.388621142331657676e-01 3.095713879442220651e-01 -2.174837712846123816e-01 -1.703699678159769915e-01 4.094361403098052965e-01 7.905884457731954251e-01 1.352417120967939479e-01 6.783115055441600594e-02 7.898339212439695056e-03 1.625801173158684387e-01 6.697482144334759857e-01 2.234188182291296232e-01 -6.411868974647990660e-01 1.392091787078876819e-01 -1.283414303472726337e-01 5.262416622756116436e-01 2.545452702914154375e-01 1.762693341291933224e-01 -1.036259905328431458e-01 6.217963004707531827e-01 7.714319135028953334e-02 -1.172604308300028292e-01 3.849243164888707658e-01 -3.301670477566547302e-01 -3.264764703785350691e-02 -7.075293218450477983e-01 3.429111319572554772e-01 1.020226900441300266e+00 2.758494550449264726e-01 -9.923984489765513145e-03 2.902610134673664910e-01 4.822582028048681968e-01 3.418115361228589166e-01 -3.556187276228396366e-01 2.313092869464969670e-01 2.413189336699797516e-01 -5.467483556817841484e-01 -1.883069992386013358e-01 1.544184666499784087e-01 -6.313949917177843485e-01 8.096636044098672047e-02 3.866382737904629496e-01 -4.136844978584837684e-01 -3.754932247696841224e-02 -7.845982677468153754e-02 1.529547198009025000e-01 -1.186707851282772924e-01 -9.413238391783464165e-02 6.719830697029854916e-01 3.177407156391818394e-02 2.522218879992518814e-01 -2.682977534182661161e-01 -1.969114501332858980e-01 1.427359028678567565e-01 -2.982976737109986967e-02 8.332903752420481869e-01 2.639185598587339560e-02 -2.258485568773510310e-01 2.636985704163221159e-02 -5.406110399941005396e-01 -1.963790569342395431e-02 -8.327882152212279232e-02 -8.906250839029684896e-02 5.971922949315162238e-03 -1.006695958448266051e-02 -4.617663104548246356e-01 -1.079898629655276221e-01 -2.117897093853255974e-01 4.240870224458158644e-01 -1.745143206808235647e-01 -7.881710229200422635e-01 2.679545370107183078e-01 -4.400302525535033649e-01 2.967219448222630507e-01 -8.204874852247284744e-01 4.535549616703058590e-02 -5.151390618622690015e-02 -3.295009116787417369e-01 1.056974146193037090e-01 -1.906942908783308133e-01 -1.699245070342648156e-01 -1.537728598079428910e-01 -6.783001265317870621e-01 2.442385789105851537e-02 -1.463903145570702724e-01 -1.789516741548933809e-01 -5.001657695652830110e-02 3.953858826921698988e-01 -4.143242180573112332e-01 -4.183816088876055050e-01 -4.387845797927726610e-02 6.610253217978033780e-01 5.345607465342645803e-02 2.784730307923639070e-01 -7.611522268851943496e-01 -2.143268812683831459e-01 -2.309129460745014129e-01 1.099122036207086373e-01 -3.974559771728890523e-01 6.363452251186028086e-01 3.158357196705215975e-01 2.480889360442048719e-01 2.111809385171226350e-01 -4.883106553024724183e-02 3.224272679640525774e-01 1.515991417495948790e-01 -1.486041003817023531e-01 -2.244945988744782156e-02 -3.728978520947973108e-02 -1.734681844863714961e-01 8.106108362519042210e-01 2.261592862309297347e-02 1.398870156566590917e-01 4.571726440438824562e-02 2.423589535108316151e-01 -2.116217769529245632e-02 -7.216058475328326893e-02 -1.984460202384260019e-01 -7.328596851663012890e-01 1.344582783911029041e-02 5.143275880849703177e-03 1.591472413353944571e-01 -3.752136251073780182e-02 6.513890608207668631e-01 -5.410203032515602528e-01 4.983076461643834443e-01 -2.782264947114522213e-01 1.332705605455594688e-01 4.354172575446575433e-01 -4.295506877384318578e-01 6.723923723004305852e-01 1.755809710678233881e-01 9.507055105284877017e-02 -1.825418596021184323e-02 1.580178495648433823e-01 -4.840192634539063343e-01 7.336301534801809021e-02 -5.034841217043460881e-01 3.448437354880530825e-01 9.429847342812519573e-02 -6.203152327512132524e-01 3.366022004880158680e-01 -7.359705096191913876e-02 2.310716914454077064e-01 1.364983578529191388e-01 1.469565573002495074e-01 8.499395373314611035e-01 -2.542295318725237840e-01 -3.481659991244249741e-01 1.429665746387800973e-01 -3.181602603157753228e-01 1.973269650615961657e-01 -2.749589895792004662e-02 6.340596612708647717e-01 2.786971020594645188e-01 -2.872082669644758224e-01 -2.776630457937906762e-02 -2.502573720480906205e-01 7.074852405828769841e-01 5.009407657583123674e-01 -5.374966806955940868e-01 -1.704132998755777395e-01 -1.719576519144934423e-01 -1.524000187733223211e-01 1.295259550152016992e-01 -6.295942040766500103e-02 1.170824773363374621e-01 9.742840918998943445e-02 -9.600526569632923668e-02 -3.354742765546619432e-01 -1.308971650917371832e-01 5.933236935055085093e-01 4.391358961970994179e-01 -2.278070078758127615e-01 -1.850795898581936993e-01 6.587943588572439113e-01 4.015043985104662649e-01 9.896467842620469968e-01 7.042104322657938287e-01 -1.176765380965465735e-01 8.789722330226774905e-02 3.979791958837043953e-01 1.030839906427455377e-01 -3.412644598337771784e-01 5.265491525680945362e-01 -8.901746397415318812e-01 -7.780968991916246968e-02 7.047978252077220507e-01 5.375685093263597031e-02 4.294712013656702965e-01 3.386652068994402964e-01 -1.041593355944204352e-01 2.739604098104914121e-01 1.971681626354723216e-01 -3.449301816986448666e-01 1.897635282485324038e-01 5.952972820404991428e-01 5.492276769939159475e-01 4.197684153380034089e-01 -4.943308655816628927e-01 -3.603921054861751738e-01 -8.163644401082865987e-02 3.082957616254844435e-01 8.508164089128984753e-02 -6.304721768296694950e-01 -9.380244246765323535e-01 1.867094276673502140e-01 -9.888401894256369784e-02 -6.769003881150830182e-01 7.781598337138155574e-02 -2.533248274004362699e-01 5.572342667473199201e-02 1.850245029291472040e-02 4.768140371914358910e-01 -2.387057122432882650e-01 3.929237415400089195e-01 1.621414258013939569e-01 8.374755323699416554e-01 7.977150218984614405e-01 -3.835747806864575615e-01 7.375642710053751383e-01 -5.702964287144463018e-01 -3.606799902528285418e-01 -3.102338212212031876e-01 -6.453419319920614683e-01 -3.872188573691868196e-01 1.792963422893359415e-01 -1.334324261531694700e-01 9.456472534290719656e-01 -1.360613703044524780e-01 3.759468975649686850e-01 1.739829135522180659e-02 8.521108455140019577e-02 4.375487800602603228e-01 -5.909783339562178078e-02 -4.064078981475257035e-01 -2.612707371962978975e-01 1.240200859649611409e-01 2.433457424310359885e-01 3.654798965342196948e-01 -9.829941808877140641e-01 -5.536831774738764089e-01 6.186870306172550515e-01 2.953364538287502894e-01 -5.342068444930583304e-01 -3.736715395049371446e-01 2.240362672995856452e-01 -3.023838799935780197e-01 -3.482234411197782098e-01 -5.802211174082329004e-01 4.059022355509552815e-01 3.914986822690496027e-01 6.978130394517941815e-01 2.423133252707414531e-01 -3.615020269292416044e-01 -3.646752037974086702e-02 9.063384236353964063e-01 -8.504844048552007152e-01 6.702209359642833375e-01 1.112019991458115982e-02 -3.210770987291917677e-01 -2.563354798743002205e-01 4.048259882371246787e-01 -3.207026123793348948e-01 4.142463442770485393e-01 -4.614390853942427762e-01 9.688142842047231529e-02 6.072882086807296353e-01 -3.637671668942790704e-01 -6.116813908024769375e-02 2.503547214426817824e-01 -5.516145822764642048e-01 -2.999654863336322919e-01 -2.762385735681216481e-01 2.649744370033683682e-01 2.246642218667136426e-01 -3.060891606083692151e-01 5.099868281582345952e-01 -2.355117487280503630e-01 -6.937249893690712321e-01 -3.510988899820315923e-01 -1.218267447180415228e-02 -4.009204392597873201e-02 -8.241766898087438120e-02 -5.912707667140188611e-02 -1.047674261783589494e-01 1.024083401702506224e+00 -4.659864065658378407e-01 5.142608305714866379e-01 8.402200083228694716e-01 -1.133464051226327346e-01 1.334711503668418175e-01 2.299131742538648715e-01 2.199908843090040145e-01 5.623519488373145414e-01 -3.946563595983645367e-01 -3.476067553441810065e-01 9.574592755141919653e-02 1.223417371799835618e-01 5.434045315490751982e-01 6.511205267032993405e-01 -1.748355054165512956e-01 -3.200611179711270599e-02 3.015643951528972355e-01 -2.023421202304366284e-01 1.485045378797670290e-01 3.120841028287040242e-01 6.409777837070947115e-02 5.211651352479007571e-02 -7.056922348413366408e-02 2.343359562302549381e-01 1.461048118734477042e-01 -6.292786960540918129e-01 -6.369513947412527299e-01 1.090450876709525785e+00 -5.743694915188792688e-02 -1.629761043539161292e-01 1.362894170128955418e-01 -4.707341522025169228e-02 2.890360138643749965e-01 5.884610921680856199e-01 -5.652418883969573260e-01 9.750177567432000147e-02 2.161475917798923729e-01 -3.644356714554604637e-01 -6.119454664846661895e-01 8.255115882991899412e-02 -7.130716524854266436e-02 4.905681394868814937e-01 2.429743735915296521e-01 5.010776692875375943e-02 2.820200373368146329e-01 6.457699607361602756e-02 -6.448609014973694098e-01 3.722995520245244161e-01 -4.795354501020151344e-02 5.069518875797537905e-02 6.491398101711870483e-01 7.987150713198931662e-01 -8.293355302776292404e-02 8.072747187275199909e-01 6.084086333782177114e-01 4.837806597903956396e-01 -8.323300634605261539e-02 -1.308524222600936149e+00 1.000265713933895295e+00 1.171356315636860934e+00 -3.374472281742667001e-01 -3.369241217472668248e-01 -4.373167974719919388e-02 4.541971326996945696e-02 -1.284287987403848474e-01 2.836954632493384754e-01 -3.147552341242536023e-01 3.716131123642770762e-01 1.127904614002454703e-01 -6.026844541308090664e-01 3.553015376037983453e-01 5.614435910632906146e-02 8.512864967802692695e-02 -2.035457469960793297e-01 -8.547312348246551839e-01 -1.383905827754693396e-01 1.880462121801430297e-01 -3.825610131983822049e-01 1.199338715101726516e-01 3.589540410388828429e-01 5.653968257242711175e-03 -9.742783970982814290e-02 -1.213446851185155495e+00 3.461673800017915914e-01 -2.549130912484042777e-01 -6.814636852582260929e-01 8.228903480661173830e-01 6.515280397891310971e-01 1.953549649658794518e-01 2.034857496157582712e-01 -1.394505631112100685e-01 5.753744382049993389e-01 -7.237062491689991717e-01 -1.475983270259501046e-01 5.392850053700725121e-01 3.374723776140087783e-01 5.084792361241601277e-01 -4.221343752201152100e-01 -1.351801700935746642e-01 6.863539484237155541e-01 8.898156912013468478e-01 6.910427692976922609e-01 -4.390520575501268841e-01 -9.020096036018522556e-02 -7.638138261551248309e-01 1.779786218877147108e-01 1.694980050983301012e-01 -1.298767684753437957e-01 8.877673377621508877e-01 -2.869746235516196786e-01 4.702758349590140385e-01 5.089208698970049127e-01 -1.222420428151025584e+00 1.535914985726952002e-02 -8.236858419308004109e-01 -2.063722087375330638e-01 -2.213767241663258389e-01 -4.539023756207747479e-02 -2.431359579581620078e-01 -4.569805097261055993e-01 3.659476656117841564e-01 -5.519208481094194374e-01 4.895621903911812067e-01 1.692279834259342586e-01 2.228744625801842294e-01 1.742268279651570662e-01 5.268889204552078542e-01 4.513100112278699561e-01 -1.110662677364970152e+00 -4.934141510540195896e-01 2.450077335399118428e-01 1.015033594740476913e-01 -2.426868213671131425e-01 -2.824084557991487499e-01 8.852724089277919095e-01 -6.762654165650103799e-01 6.766927079300738557e-02 -2.593212520881898464e-01 -8.945851709599646207e-02 9.875206082752441272e-01 -8.012411128486922607e-01 6.673807497222407070e-01 1.075001428862710079e-01 -1.465641220655090060e-01 -5.426338224762637941e-01 1.418189574469217416e-02 -3.104528443349383604e-01 -3.806640142559020168e-02 -2.055585007969834566e-01 -2.070883499328196320e-01 2.963671792064994648e-01 6.604153552515883152e-02 -3.328957022161428414e-01 -4.328956092156506230e-01 -2.334824070790931516e-01 4.442712488538224092e-01 4.844921574361150118e-01 3.254587322980374564e-01 -8.046989578481594796e-01 -5.592116340418289422e-01 -5.802175890249534895e-02 7.264518357682300809e-02 -7.815523759824392069e-01 -7.706461690747225257e-02 -1.752094248747945449e-01 4.002594345530924302e-01 1.929993100937282546e-01 -4.691942130688646351e-02 1.035854211272938391e-01 -6.847733527972909018e-01 2.181932494923487786e-01 -7.118563142350178286e-01 -2.866278892557796651e-02 -2.225543986024518528e-01 4.816063400703124442e-01 6.867174989117050821e-01 -4.809616969730524105e-01 -1.266838710445390148e-01 -5.614023516762811639e-02 2.044218175206675980e-01 3.292652715987780532e-01 3.555908472883800853e-01 1.234989995048312583e-01 6.794492709665129748e-01 5.065529248223056558e-02 4.666035174476637626e-01 -2.041360668209012963e-01 1.711770253405426878e-01 4.241333976781814230e-01 -7.501781605340999970e-02 -6.403599125187786623e-01 1.367215741706122589e-01 1.955712651962275839e-01 1.403316054351356201e-01 -1.242437878656631051e-01 -2.773925438709146096e-01 2.019575491868439709e-01 1.413796640550964989e-01 1.407100119332185817e-01 3.164818338988680257e-01 5.260444257565793924e-01 3.742529526660644257e-02 1.724016821201061669e-03 3.655036749638581606e-01 3.065570983081479239e-01 -9.544817187883503085e-02 -4.433294879083705675e-01 -1.955342039101769791e-01 6.363183288538215576e-01 1.080364732390565047e-01 9.506070331570853904e-02 3.816717379825377843e-01 9.567329402657641646e-01 -3.133354336220668945e-01 1.161717746690958154e-02 -4.417044400791934611e-01 2.639647988662222611e-01 -1.183446425564836368e-01 -4.614090754105117931e-01 -3.881022744600730046e-01 7.093220287576385008e-01 1.074207623494016633e-01 1.686132127906982137e-01 -4.176754781391096329e-03 -3.272834207143017204e-01 -8.905750170424129308e-01 -5.521717885690708982e-01 -4.688727455154048651e-01 4.953549061920970997e-01 6.858191292116557758e-01 1.170764730761226641e-01 4.878946212868895960e-01 3.322528055840439087e-01 4.123699346330232940e-01 -5.797090487943006298e-01 -5.563499210166793496e-01 -1.710775893895106203e-01 -3.594851916891162458e-01 -5.704163259763187499e-01 9.192393724314644465e-02 4.181675361295772442e-01 4.924533385907973737e-01 -6.674307817511626606e-01 -4.107782209309266963e-01 -4.705358373249053927e-01 7.194183062313727617e-02 1.259554098513034626e-01 -4.241249779033574585e-01 -1.306967644429433140e-01 6.306179772425597740e-02 -2.484288754945741806e-01 2.957643977840195785e-03 -3.515857685064847638e-01 7.191221162055609628e-02 -3.394927405518043950e-01 8.961247176821579563e-01 4.528780307717370501e-01 -9.779290264812296601e-03 -1.729971092720793135e-01 -2.412743440583438870e-01 -1.958510922038816937e-01 7.518150898286838496e-03 8.590961676127360780e-02 -3.331352517485083875e-01 4.889024129876679003e-01 3.239210298148445522e-01 -5.313297358262093484e-01 2.268445195974010398e-01 7.122003881394050051e-01 1.844227505126512789e-01 -1.978541260723168382e-01 5.639421490779714663e-01 3.560435886958761009e-01 -1.358334040060552028e-01 8.809953462197803176e-02 5.356901031246841249e-01 1.320393504642214666e-01 2.328687557513360942e-02 -6.023569169586836525e-01 3.357295731337627820e-01 -4.498644543209293079e-01 -4.190450804684874853e-01 1.481767065131926187e-01 2.735613825073757166e-01 4.975151159435687864e-01 6.537359275930815228e-01 -1.958889541940692924e-01 -1.072553790691310738e-01 5.946627725624272776e-01 -2.720941979720161719e-01 -1.471048837961587419e-01 5.056916112053225776e-01 1.089224716308420660e-01 3.556995574959116446e-01 7.562161718188650447e-03 -4.734010353370360358e-01 -2.953465122026259215e-01 3.744947536082808281e-01 -2.642932807615146484e-01 -3.310922519434164046e-01 7.288563319251143424e-01 7.908601264330394898e-01 -2.409632630121561481e-01 -2.864067564672247990e-01 -3.441594482108776831e-01 3.904772928748558303e-01 3.235310763151584279e-01 2.790929330267807873e-02 1.819562134994401337e-01 -7.764199379560107750e-02 -1.311499067012119879e-01 1.638250037821848970e-01 -3.680266607860639971e-01 7.779218984454693009e-02 2.287981251524042470e-01 -1.506341892626190948e-02 -5.785806521225003718e-02 7.603702403040500934e-01 3.501082903003042146e-01 1.374831246682861052e-01 -2.309572894993733583e-01 -1.531177181386321473e-01 5.477585289346396102e-01 2.566864041751292236e-01 1.547699763033677511e-01 -5.865706505000820720e-03 6.865466862435623541e-02 -1.277675390193427629e-01 2.331268377939095804e-01 1.931577899024204126e-01 -4.236085614244623071e-02 5.851482501442206718e-01 4.315983647512587895e-01 -7.037730874395915770e-03 -5.350782787981306354e-01 -8.782397052357319156e-01 7.364646289837526449e-01 8.815893967259100239e-02 -6.879336703983764123e-02 -4.434662904739505307e-01 1.656905010024911640e-01 -1.957035483055426239e-01 -5.281643277177990869e-01 5.327715247498753248e-01 -4.208177982915816129e-01 4.757510611988141624e-02 -1.329445296635811402e-01 3.090344253380014616e-01 -1.144542065055935837e-01 -5.178221344853713992e-01 1.714561683185043817e-02 -1.835531295269487440e-01 -9.495470790989235521e-01 6.437244850478276992e-02 3.600627786728166635e-01 -2.532955945127437491e-01 3.350660681396011031e-01 2.403809788920030777e-01 6.055110615816797770e-01 5.242373795334102082e-01 6.275236848916035948e-01 -1.167559787432622898e+00 4.389896424183254431e-01 3.298585269661740149e-01 3.638130378084834804e-02 -1.208771003091412138e-01 -2.589038885861837391e-01 -4.205425818155983375e-01 2.926065411973103325e-01 1.411270175670076565e-01 -3.657446408316916697e-01 6.690352372859525998e-01 -4.521705990341058357e-01 -5.754111215741184449e-01 -5.089255829480907600e-01 2.960094741123837081e-01 7.195198691559805404e-01 7.741970121620415923e-02 -4.538664087149091864e-01 3.325664983318359774e-02 -1.234722755770410185e-01 -5.308222833832108023e-01 -3.880052929498189335e-02 1.842995464863465827e-01 1.188067439306050854e-02 -6.400538586502048100e-01 -3.252044924627369715e-01 -2.008491002533830116e-01 4.534525131421601046e-02 3.396174298082992316e-01 -7.765269781192686294e-01 6.369383972772306723e-01 4.017085677744021421e-02 1.363339346105716943e-01 2.029780903889633892e-01 -6.976963795584326111e-02 -3.495772347847329042e-01 -4.550400731624806849e-02 1.685639245104461614e-01 2.230382395694095743e-01 4.502665606449818281e-01 2.171692018359514531e-01 4.739510700885761763e-01 -6.862349016995079598e-01 3.594879432675987529e-01 3.134425729223849211e-01 -3.375430043720147322e-01 -4.948143436290539099e-01 -1.665728092919651349e-01 5.200671959942867462e-01 -4.153415379947325570e-01 8.442313779416953101e-02 -1.200629855893056291e-01 7.810048855527917944e-01 4.158796460568316145e-02 -4.843805505891615737e-01 -5.235087681687380229e-02 2.647018539586883379e-01 -2.869102592597780887e-01 -5.846196675529963249e-01 2.187244865961105178e-01 5.686188885023416573e-01 -5.939672042883015896e-02 -8.204510835348012288e-01 -9.737609125187676740e-02 -9.611227745432061598e-01 -9.519491393260276491e-02 -9.652795230624090506e-01 -1.297847578762805487e-01 6.920469347809815597e-01 2.088496089355198204e-01 8.970899593513275150e-01 -1.910950455402396497e-01 -4.339706757024242023e-01 -3.636383891569524573e-01 4.717356151818737908e-01 6.827835758911322828e-02 5.734751542727601313e-03 -2.808109247983309187e-01 -5.039323320060207223e-01 -5.072083565065916844e-01 -2.354319274176020493e-01 1.475979042887939630e-01 8.762484951103936826e-02 -3.419339292097544059e-01 5.030606161957067446e-01 2.259828900407183927e-01 -5.649097171695920405e-01 -1.883072674094097079e-02 3.962154206867726236e-01 4.674744127089445339e-02 -9.849175154541744970e-01 1.284911338178542084e-01 -3.353812856163383427e-01 -4.586329797718941698e-02 -1.192943792426499838e+00 -2.134666715082850913e-02 -4.894175607220570268e-02 -9.296364564062263858e-01 3.344425555214529666e-01 1.733126585651109941e-01 -3.886662856696839752e-01 -3.941923550504779494e-01 -3.232350885226835113e-01 3.537739946851001238e-01 2.852860831755345550e-01 2.831651034824061997e-01 -2.645298157433755848e-01 3.438689129643626718e-01 1.221166092039876680e-02 1.933705965199091215e-01 2.615937330508787961e-01 -3.452565737075101726e-01 2.047536229644019157e-01 7.176488694393210466e-01 3.417274034108594427e-01 5.885455068368793397e-01 -7.049064022819654385e-01 6.241513555363991106e-01 -5.124945005475622928e-01 7.479995101980906058e-03 2.341231769814248187e-01 7.268091228339539356e-01 -6.391971332042544196e-01 6.632272555057032726e-01 3.280305716147372541e-01 9.862849460938798440e-01 -5.337669195113959875e-01 1.754757174495684413e-01 -2.379421932525239702e-01 -1.125582511900954374e-01 -6.178450579125294162e-01 -3.873225512142080412e-02 -1.649424595881865130e-01 -4.396526683584591755e-01 -2.667292525817749338e-01 -5.104998031628308480e-02 -1.226875543170129895e-02 -5.395922737613315784e-02 -2.596951995662060142e-01 3.669308759158737554e-02 5.635179001475671967e-01 -1.242614964787874983e-02 3.687148344452663776e-03 -7.266535236268595321e-01 -4.662720237914629307e-01 -6.210673506432804469e-01 -2.508942712566495370e-01 5.084620924124144681e-01 1.384176553788026877e-02 5.392645142696066429e-01 1.187473450240984080e-02 -9.716354669927232957e-01 -8.551712333680582256e-01 2.597504365573927720e-01 -1.405338181468020475e-01 4.410381399202253361e-01 6.190717334587437781e-01 -7.957493601605403200e-02 4.813206612593864397e-01 8.569439608704344791e-02 5.277340957609318872e-01 6.268221945897912706e-01 -4.266216093038694979e-01 -5.721790943715893141e-01 1.764844523016614181e-02 -3.618930648174898956e-01 -4.497220414384956455e-01 -6.617626777884323408e-01 -3.156798672582719067e-01 1.419642253495741746e-01 3.875718944707397529e-01 2.696514487416239447e-01 -2.852144297689653829e-01 6.600254765675976631e-02 1.249250400332342498e-01 1.892876814485257575e-01 -7.941663567900861809e-01 -5.589722435515388499e-01 2.636121413777546552e-02 -4.072954281951850219e-02 1.844298026581869809e-01 2.259646233195779508e-01 -1.310020369373688098e-01 -3.843459428548230000e-02 -7.893727463541145850e-01 -4.915663981683172645e-01 4.039479037821171459e-01 -4.369545299035699215e-01 -9.395397568507105612e-01 -4.754808005013754224e-01 -1.598049282886107036e-01 3.428276351269735622e-01 5.638161557664035650e-02 -1.934650941863876386e-02 -3.716146337139633604e-01 3.011609456858954648e-01 8.291689811148032774e-02 -1.890911992496198957e-01 4.169248676682993371e-01 5.450316581397042226e-01 -9.713124728928854146e-02 -3.501980092595301935e-02 -5.304103017262701281e-01 3.192002656333008392e-01 8.561547461804088766e-01 -3.914345201522212991e-01 9.304809578842189455e-02 3.678042102492578569e-01 3.404392445768492093e-02 -3.322639803130851277e-01 1.190442251598051726e-01 6.552683806212850071e-01 6.433139658608789946e-02 1.907336151857663420e-01 -5.727720057983960444e-01 5.045896485261054387e-01 -3.754966744155896485e-01 -1.593163868261352478e-01 -1.167005963590597439e-01 -5.960266268127496492e-01 -2.558302800961028134e-01 3.855496533785786328e-02 2.971202135111110088e-01 3.449149683956461709e-01 -9.297131746038643507e-02 -1.266013700834500988e-01 -2.117547960407913932e-01 -7.306905163935488445e-02 -3.258490945339942990e-01 -2.090959678083108564e-01 -3.934553994081721462e-01 3.295576685078629442e-01 6.816915530786593624e-01 6.950350250337071489e-02 4.049756377189617229e-01 -2.698901331000078674e-01 7.431173636827906881e-01 3.422968334136358703e-01 9.891954347809596149e-01 3.426396395992316601e-01 1.400420400166939999e-02 3.186675381152933584e-01 -2.137918208804175449e-02 -2.041226596907522728e-01 2.967206995350495438e-02 -3.670960185472970649e-01 1.042706859648198647e-01 5.414666022915788635e-02 1.775208444352602000e-01 -4.314456185275253874e-01 6.000226881176969895e-01 -4.818145043798882088e-01 -1.826337173851689255e-01 1.301335173819417601e-01 5.157027549015222867e-01 1.225912033188656519e-01 3.846985633634978363e-01 4.732912797516353742e-01 1.407523990465930075e-01 -2.739249572280200717e-01 -7.982501851481831334e-01 -1.109675050749761249e+00 4.462630230361736561e-01 1.921487864830414075e-02 -3.432059809487899016e-01 4.043726781806311066e-01 1.940704155524670266e-02 5.192414189051888090e-02 9.159754776626212458e-02 -1.746035884912958483e-02 9.192683533477345736e-02 -2.966790783137236986e-01 -8.754424041583135363e-01 4.829634227558379095e-02 5.336343210729987963e-01 6.893027205271991600e-03 -2.267953082754372296e-01 6.322125240795309353e-02 2.616398025387341453e-01 -5.607743815969180590e-01 8.331772162017682393e-02 -3.882081612369500112e-01 -5.441969854147808983e-01 -2.513132690506563738e-01 -4.178146752621611504e-02 5.492460161367728189e-01 -3.529903041780527162e-01 -6.360938957735466914e-01 -1.996936714497650825e-02 -8.394264779519548803e-02 9.980664824497244014e-01 3.157526063875239902e-02 6.799379619470324876e-01 -2.174853004480997720e-02 -2.730313691675808063e-01 -7.195751476968089699e-01 -1.398799023202230429e-01 -4.922090542746141439e-01 2.540974764583516787e-01 4.650231259809031181e-01 6.857368895524355856e-02 3.952099267516708814e-01 1.945004741690501693e-01 6.647351700099229932e-01 -1.880277732200344720e-01 8.261984137524098770e-01 -5.023486479402609201e-02 -7.603748705704534150e-02 -7.497145694050134646e-01 3.849053083190824842e-01 1.917493452855781322e-01 1.767794067338271657e-01 -4.127089923388331805e-01 1.505096588046960782e-01 -6.372664949559850855e-01 3.656038074779326963e-01 5.553047893364636556e-01 3.084056020131600850e-01 -7.392896891502099832e-01 -7.862480837566292458e-01 5.472784389810422256e-01 2.654189154665007599e-01 -6.858501247143251600e-01 -1.327761853027336625e-01 -1.935493718912739136e-01 -6.052676808883924453e-01 5.848546466755966122e-01 2.892377969136898375e-01 6.865340115506392005e-01 -9.738868829330807886e-01 -3.123465675708753664e-01 -1.009646221816933587e-01 5.572105196151063700e-01 -2.286406673170060244e-01 5.334989205371276633e-01 6.043815236426822723e-01 -7.631913843783652007e-01 2.719791225540817980e-01 3.304497145558600857e-01 3.026525435365706174e-01 8.878282697502264120e-02 -5.041760999919865649e-02 -2.330815913224248137e-01 -4.590783864305343354e-01 -1.371321564288540407e-01 -3.125044362538981213e-01 2.393783552462711572e-01 -6.155574143033074597e-01 -7.646364839141422953e-01 2.706587024770397143e-01 -1.124208855689895897e-01 8.313437489704243732e-02 7.383258219113161269e-01 -6.876661616978562153e-01 -7.757864074797130027e-02 4.079585631966810982e-02 9.622677493141150729e-01 -4.100673512002184218e-02 -1.620075700134052110e-01 -7.700602899060804418e-01 -3.706077077185099267e-01 -6.400994844740475198e-01 -3.002242267965783973e-01 1.546987502169508977e-01 -5.474086638291778550e-01 -2.902392301625172366e-01 -1.966898102550575511e-01 2.834074371410682039e-02 -3.087422485218350166e-01 -8.477884966581167303e-01 -1.922647316554233765e-02 -5.396922756406904442e-01 -2.355684627580990620e-01 -1.469670178755994483e+00 -2.819263337117565160e-01 -9.074098200002515824e-02 -6.236964669647296899e-01 9.930440607942413456e-01 -1.609652452403373679e-01 -8.422243056746785139e-02 3.210070219339782038e-02 -2.525156585205032278e-01 3.341866695173033586e-01 2.197455483281808009e-01 -3.074446914319672874e-01 -1.653484946378690756e-01 4.029219500473201210e-01 -5.829595490062475793e-01 1.042300069671456608e+00 2.739115077591038894e-01 3.781179536575304811e-01 7.584790084947778954e-01 4.674280872149749744e-01 1.847547234598004851e-01 -2.204039342651372968e-01 7.221104247613295835e-01 4.130948414213713726e-01 4.354367350899910338e-01 5.411189538430213330e-01 6.324079335705228289e-01 1.447247864841865184e-01 1.554198067430966890e-01 -4.647585856050208686e-01 1.356983729182722698e+00 -7.448841051631536203e-01 3.296911967691007472e-01 2.605497630110461052e-02 3.898333326610570193e-01 -1.139878757191175630e-02 -1.611783841292641073e-01 -5.085234098672257730e-01 3.532317345723418045e-01 6.306491182219147174e-01 -4.667638319762490440e-01 -8.124127215517062961e-01 2.089018855262891328e-01 -5.872665186040008922e-02 -4.851649399017187725e-01 -6.602443954089203260e-01 4.910766479031788978e-01 -3.831100738584371224e-02 -6.719937516916308917e-01 -8.955840692766147138e-01 -9.032573187098862366e-01 -2.079425639435314999e-01 -3.438890277328020550e-01 -2.534093589811378111e-01 -3.441085843980107306e-01 -5.377447403155902195e-02 -1.361426512168890102e-01 -6.444531101021226949e-01 -1.087342046031374992e-01 3.122702256919839825e-01 -1.866769601892815655e-01 3.262753883516169573e-01 1.034830074288165119e-01 1.689317132956955347e-01 2.534217465708309969e-01 -1.081035382847291559e-01 -1.373409538896865900e-01 3.681494519384574948e-01 1.066944865958679323e+00 5.986565876857737056e-02 -9.137887059203616547e-01 5.853785831893807551e-03 5.137712908698300884e-01 3.628616399572869022e-02 7.832536304430454122e-01 4.483876702407698644e-01 5.625847307022761867e-02 -5.884527166231354744e-01 -8.126713706750242627e-01 -3.203161204538975682e-01 -3.629546262804191348e-01 -1.917468136963085823e-01 1.294071752219619065e-01 -1.388717512624254025e-01 4.414264994920364393e-01 1.424249415569399102e-01 -1.189084829064589677e+00 -2.788356350479743728e-01 1.484808414256555131e-01 5.224160903249039922e-01 5.684364128132211036e-01 2.741528379024457673e-01 6.215906151232543086e-01 -3.235203033107177939e-01 -2.588792952971635253e-01 3.086740347628245257e-02 -7.793785509861159699e-01 5.055596258532957243e-01 -1.353924863415836843e-01 -2.747315632983066136e-02 -1.114376110593400387e-01 -2.388310863891730529e-01 -6.708076567122698286e-01 -3.951531298798930392e-01 5.916896477671597099e-01 2.195582322001085884e-01 -1.326300920654089888e-01 -2.929024607559398974e-01 1.371378982576887673e-01 -4.179388294143706606e-01 1.397620322695009853e-01 -7.546442706306749626e-02 -2.069305329570405028e-01 2.897505429466691318e-01 1.709881039121790014e-01 -2.846988917470665709e-02 -2.216942656612755358e-01 5.007104388081397989e-02 -9.158177542810018446e-02 -5.531529375015530325e-01 5.118175613976059246e-01 -2.150030958905768397e-01 4.378287301374187424e-01 1.948083201225266417e-02 9.845536160611054743e-01 5.850571577875515183e-01 -9.263318963053565613e-02 1.007325239452756815e-01 1.914136772172054732e-02 -8.424996587326662179e-02 1.878590104871611377e-01 -2.669307254917490102e-01 -1.515165446941625360e-01 5.477445970170941036e-01 2.416733394989191985e-01 -4.215156474080311022e-01 1.025992691087975084e+00 -2.137592965439206460e-01 2.127444799898745853e-01 4.583137330452977803e-02 6.561954828182985366e-01 -2.615294952699105946e-01 -3.352602907692874279e-01 2.125505873001377055e-01 -1.254302654175765697e-01 1.291568776916156291e-01 5.816244288578058530e-01 2.786755150815647397e-01 1.721267247276727502e-02 4.945786007070396839e-01 -6.418801444455422001e-01 -2.320864688316336411e-01 -7.268055374261039869e-01 5.091787230663305519e-02 4.894368500654592280e-01 -7.260474363166545542e-02 7.990679810915722880e-01 -8.953359722987824787e-01 -3.925065994094735777e-01 -1.712579950884852154e-01 -3.911553228182628184e-01 3.862951741060535182e-01 2.317322423581005264e-01 9.127784132477592127e-01 9.714770330038792201e-01 3.207330405802805151e-01 1.478246747298277708e-01 2.352788704450648472e-01 -2.811821355551898383e-01 2.999632440258002131e-01 -2.995436863951055906e-01 -1.414195304022594080e-01 4.808069075264102821e-02 -2.715993685603748653e-01 -1.844153981207394544e-01 -9.001680933124907025e-01 4.502957098231117339e-01 1.945481109892543692e-01 4.431213758869677610e-01 2.002282192454942211e-01 -2.684204825378350145e-02 -6.146809370386236981e-01 -8.148560581485372878e-02 3.851402889175257159e-03 6.815398539507191433e-01 4.930258572113965232e-01 -6.600414509853834710e-01 2.803132878563675823e-02 -1.422900302210820533e-01 -8.317789096596751586e-01 -1.316166035392767747e-02 3.664627573702235463e-01 3.262838974504946310e-01 -4.169443055601402826e-01 -2.532218139521932310e-01 3.967768733893479310e-02 -4.475348014903914873e-01 -2.453294599747361526e-01 3.309688368553004301e-01 7.371408923249881395e-01 2.804416880412414770e-01 3.493998846046272866e-01 -2.762386403503284682e-01 -3.435485365405456237e-01 -8.884650065813172459e-02 1.323202792737571409e-01 2.269569908879469911e-01 1.473700211560251550e-01 3.512622756814964831e-01 -2.780476980619039917e-01 1.298688156255235759e-01 6.744210106281967043e-02 -8.374450199965466357e-01 1.142566934899604147e+00 -4.389917757840994805e-01 5.118268531154717138e-01 6.136904720191896923e-01 -1.533178003629314945e-01 3.673733365557402264e-01 -4.076263414373901273e-02 3.023988686772460244e-01 -5.893422933412190146e-04 -3.604893710445017385e-01 5.247080269957370424e-01 -4.918450034832987927e-01 -1.431486168727540836e-02 -2.834537827250424927e-02 3.091105266324215006e-01 3.286024422322416649e-01 -3.244095485794837308e-01 3.554719997995867131e-01 3.964199405769930351e-01 7.886341876113311944e-03 -3.769307825616750596e-01 -5.653177122452140990e-01 -4.188896063307603196e-02 6.446397197824248471e-01 -8.064339943687658108e-02 -4.516026207047647012e-01 -3.286811671238471511e-01 2.151250177627529181e-01 6.104645205571654007e-03 -5.415932942089886071e-01 5.267063273311466121e-02 -6.602238166043230549e-01 -2.224573350077511114e-01 3.895978514881518612e-02 -5.520693820261495244e-01 4.441096083329763161e-02 1.146318811593314946e+00 -9.813651414163381270e-01 6.197748528298990811e-01 6.380285876388036570e-02 -1.533785397839664555e-01 5.615043875205065760e-01 5.687568606400583704e-01 3.747822659307522564e-01 2.731404234842593759e-02 -1.422700236520262340e-01 -5.892761795723175933e-01 1.584147927189019089e-01 -2.458642250171527988e-01 1.245188262176063265e+00 -1.899171564094626341e-01 4.952389368722339147e-01 -2.160500051132042132e-01 1.161529621932684969e-01 -4.696008816012361975e-01 -3.865969051880474017e-01 6.482094717714642629e-01 -9.977825764915727869e-02 -1.618369676060872897e-01 -2.428869392570972285e-01 1.051931312479544578e-01 3.585510947959479888e-01 -4.589091355632515801e-01 -4.047021817538966615e-01 2.641781765503545820e-01 1.525151071690304672e-02 -3.049157997401667486e-01 3.403100020249945346e-02 -5.936706634668499349e-01 2.275535868438357812e-01 -7.106466854572152103e-01 -3.348813444565356123e-01 -3.588012434833751652e-01 3.184796149943061039e-01 2.618342240331643644e-01 1.900455923609440656e-01 -2.592842152762683261e-01 4.855783335132152767e-01 3.314852485014364025e-01 3.698925152361409729e-01 -2.077912658825552261e-01 1.367348357427536631e-01 -4.593003709714401500e-02 -1.160698719419602343e+00 -3.391140243133553556e-01 -5.322401972590575792e-01 6.355420627887533591e-01 -7.285224612314065984e-02 -7.184129454728127584e-02 -1.968360429534396494e-02 4.432172500262785975e-01 1.849050213499458806e-01 -5.365579553396068180e-01 -2.025337797633940465e-02 -9.865300678657670796e-02 -7.301795214509535503e-01 5.384344243496759219e-01 7.823690502292165450e-01 -2.720567122498278589e-01 -7.923531118915794202e-01 4.755772709951808785e-01 -6.128427348778749950e-01 -3.509510602619084207e-01 -2.025091134143467905e-02 8.878564983435971447e-02 -7.522991497211165557e-01 -2.333965305860797590e-01 9.020627666635926134e-02 5.159313553974346211e-01 3.137281003309777550e-02 1.397189767312550235e-01 5.269761551127736254e-01 8.178884137374460572e-02 -8.998925272945149101e-02 1.023398855361904003e+00 1.616481572324625637e-01 -1.267061809804125527e+00 -7.177687089129553000e-01 4.630180371150000029e-01 5.452678129849290040e-02 -2.117514075241700156e-01 1.324249689515286377e-01 3.326264689556921450e-01 9.190561187124025866e-02 -6.948564441249107659e-01 -1.622554426267000527e-01 1.274546451908998845e-01 -7.742332715986430802e-01 9.371975230596777395e-01 5.003849662899063633e-01 2.892505526886541764e-02 -7.439713287892494309e-01 -2.040134686488978555e-01 8.084219251899309455e-01 -3.076435582283236214e-01 6.713550065959400515e-02 1.388249640918371774e+00 -1.277483505409251485e-01 -1.125404606961376980e-01 6.314028957882903415e-01 -3.593212275764299801e-01 -5.662414432405853404e-01 -2.224622832566156561e-01 5.793401826866079185e-01 5.392327943343164787e-01 -2.635545936643349241e-01 -4.103413319089023459e-02 2.627806098010395108e-01 1.332994867247852717e-02 -1.341212509669607866e-01 2.172358350015517192e-02 -4.554200925754574025e-01 2.444137427464972145e-02 -1.015195303503306640e-01 3.972067852475079097e-01 4.881178686717439485e-01 -8.687803976926039562e-02 -2.197444501561333918e-01 1.995250511330711185e-01 3.132997078828582693e-01 -7.801725643398636778e-02 1.961867920353029537e-01 3.631076576077604031e-03 -3.173573035165799250e-01 3.729936754512102604e-01 7.752518573924926937e-01 -9.146451877992785029e-01 3.793850709652379916e-02 -5.342504761246880812e-02 6.991500874229338025e-02 5.107220762120340263e-02 9.240905921102759990e-01 -4.292342887140120355e-01 -6.739478383492063240e-02 -4.874188170189104885e-01 -1.725418819194180775e-01 2.962527659541915326e-01 -1.136349609724845861e-01 1.700573890188720461e-01 3.085498662987137125e-02 -1.505979472652630921e-02 5.319047937225754863e-01 -7.499706249766321942e-02 -2.006896247844928149e-01 -1.426029265765130505e-01 -3.510616507132159614e-02 5.276160307247963477e-01 -1.158429386125497673e-01 2.852262671624332113e-01 2.004789231573024522e-01 3.788755554386162294e-01 2.827730073402004995e-01 2.892865134612054301e-01 -6.256543234822909971e-01 1.940154673654490708e-02 6.738190515395235843e-03 4.234127207674823756e-01 -3.916136830125579449e-01 -8.205962483304146682e-02 -4.294010413830648409e-01 2.713696503216790901e-01 1.028433711895054836e-02 -4.033660712958244132e-01 -1.547809867411923668e-01 6.358894729134739743e-02 1.022034973912121780e-01 -4.673747844468734147e-01 -4.009357028758514518e-01 -4.173564361728357430e-01 -1.598842177643687856e-01 -3.018264505350411464e-01 1.687779635909032461e-01 6.978730880273451009e-02 -9.648250978698714730e-01 3.369657496141431618e-01 1.139348782844056829e-01 -3.179962920833004913e-01 -4.576820135095522879e-01 1.435456607705342391e-01 -4.092406326993902610e-01 1.153611089534319484e-01 -9.987664628811003531e-02 -2.020431615885262822e-01 8.944458431276378074e-02 7.988005757216798397e-01 -1.611230696324330858e-01 -7.168578600145718571e-01 5.718466348525796938e-01 -4.345986880657288776e-01 -9.260661875084898187e-02 -7.366734673522589150e-01 -1.252227685690124326e-01 3.623921287645440192e-01 2.144836351749657144e-01 -5.171250563387010286e-03 -3.244713857006766011e-02 -4.091075639792324248e-01 1.908598913493524674e-01 2.588648514419021884e-01 -3.484397452921214611e-01 -1.350672643853388644e-01 -3.501376146855944005e-01 -1.090620562164751561e+00 -5.914142130105621842e-01 1.297816806196042394e-01 3.191880264480198015e-01 5.979265938303041095e-01 -1.069160337656901473e-02 -4.116714483439793959e-01 1.438505644721044252e-01 8.388824816141497998e-01 -9.659993330176870341e-01 -6.142419197773869577e-01 1.590194231826766724e-01 -1.583359354608520897e-01 5.241822423741235859e-01 -8.722896315371866938e-02 3.690901764655563078e-01 -1.416750487837326877e-01 7.178785234527060855e-01 1.034910899887575342e+00 -4.696646318132763342e-01 2.697052163906454303e-01 5.621117331507637094e-02 3.863488870810493497e-02 -2.335852427631039951e-01 4.773231805314465670e-01 -9.207346300265427039e-03 -5.557325674538155652e-02 4.547741173414281968e-01 3.262021912331605072e-02 -1.322129934163531750e-01 -5.215632437878635619e-01 -7.235885268414101734e-01 -6.186665434013983722e-01 1.966665735936775627e-01 -5.969139819412089265e-02 -3.509662464568298890e-01 -7.872839498399328839e-01 -4.986773178639157256e-01 2.010469430111324896e-01 3.328742019453846956e-01 -7.258436704446885601e-02 1.807442230811731887e-01 -4.660851201641946773e-02 2.938419023312734968e-01 -8.100909457794471802e-01 -8.745751616527041028e-01 1.920156619212275151e-01 -2.519207352716062998e-02 -3.563888971519194038e-01 -6.052799286152550362e-01 -3.847277738851473949e-01 -3.266829567476237650e-01 -9.553180152124644831e-02 9.177959070987435908e-01 6.936622541457732050e-01 -6.526755868532329030e-01 1.026977080072365989e-01 3.994782453382084153e-01 1.792750938475176914e-01 3.406665499981857415e-01 -4.539419317434122969e-01 7.019522584199150428e-02 5.928632916161507005e-01 1.627520053654805676e-01 3.669382536216542756e-01 2.416759141795050969e-01 -4.083030648247384931e-01 -4.818451809926256879e-01 5.414004080163051791e-01 -7.570514438283601488e-02 -2.859463525409752793e-01 1.713943829105435135e-01 5.611256905911393700e-01 -6.553742360460548810e-02 -5.096012972847606404e-02 1.444963133102762365e-01 2.946713069045479028e-01 -5.041305251692403955e-01 4.057186538830748201e-01 4.094839342434770657e-01 -4.510317093783015596e-01 1.522717450475170042e-01 3.051457853070372872e-01 -1.960589753844787023e-02 -7.704089754742654561e-01 -1.548093739391712131e-01 -3.871279498399551877e-01 -3.851328164041766255e-01 5.677424317155144173e-01 5.014123766976203989e-01 4.702941844990529141e-01 -2.134416898015772668e-01 6.140739524952412709e-02 -3.305059261845992857e-01 1.928568785769042837e-01 -7.425673373899921437e-01 2.866977484288270039e-01 -4.695413618327376470e-01 3.181273714243217365e-01 -4.070773793221750189e-03 -4.615564862180025242e-03 2.721635462999849042e-01 -1.974801178160372761e-01 1.046717781896038674e-01 1.184915400800700541e-01 -2.900886215740776652e-01 -1.958477358971701110e-02 -2.096414428208220049e-01 5.398744606018875958e-01 4.789523266273624236e-01 7.031997858586448436e-01 3.274028881812733882e-01 -5.150969567854013498e-01 -4.704747829882810484e-02 2.367412334089833981e-01 3.365811722357697211e-01 -1.461886743242258035e-01 1.275096367670214281e-01 1.056900193887289896e-01 1.652734766343227565e-02 -9.585174761885104089e-02 -9.602506402041896538e-02 -1.367496550517570408e-01 4.168243034691244686e-01 3.427419393684198214e-03 2.807575909808289749e-01 2.977703177180091379e-02 2.090454391891846675e-01 8.690194204635637298e-02 -2.896708802007139094e-01 -5.716260368058276864e-01 -3.233847733063988650e-01 9.118796198715228840e-01 2.582230528051205898e-01 1.802519873826621544e-01 -1.793313429496461442e-01 1.644661987802116809e-01 -7.235454715578015783e-01 2.692061523404172263e-01 1.698079492821664288e-02 1.765986171935916837e-01 -5.547026948123914281e-01 4.890994658322984634e-01 5.543372716550751811e-01 -1.271655416405892969e-01 1.248052095929736843e-01 8.661974897670511597e-02 1.938230045396140411e-01 1.464410659067328091e-01 2.918656941785702785e-01 -8.240807933855254230e-02 1.638901261643181395e-01 -2.349563091561037154e-01 7.809973790605319044e-01 -6.811487819715708603e-02 -2.587341463503707306e-01 -8.878009912847158180e-02 1.953579200374581937e-01 5.354428416644485544e-01 7.799475818825716278e-01 6.433418150308062300e-02 7.795556094950714110e-01 2.447819485638088322e-01 3.150908257588495021e-01 -7.726238833583717325e-01 1.821479073970500018e-01 -2.297154222538967117e-01 2.476504729191469911e-01 5.236710070507231141e-01 -3.402337524519322698e-01 -2.198738659547482543e-01 7.366038026523860083e-01 3.994702409218749972e-01 5.898423463087467677e-01 -5.321146920505069877e-01 4.528514880975405554e-01 1.574211381447186420e-01 3.077142708798770721e-01 6.021766501344130162e-01 -5.446680817717808321e-01 7.791980611407411939e-02 3.435289647892472709e-01 -3.137696774202392014e-01 -1.113834033010544788e-01 4.516011943254802929e-01 -5.271896899988903762e-01 -9.445628645568845405e-01 2.302408284383134496e-01 -4.912554828746680258e-01 2.058808648711404343e-01 3.312134079064353309e-01 -5.709629836593974606e-01 -6.307202084703572575e-02 6.259951838394300916e-01 -3.411776064098758221e-01 -5.927151451315339561e-03 -1.031503650073693767e-01 1.031146794883465390e+00 6.066639949688535927e-01 -5.711378146895892405e-01 3.909977063011609855e-01 -6.685863173366609624e-01 -1.055714109066084039e-01 3.283609014685999472e-02 -3.320386278008272685e-01 -2.775666668187222741e-01 4.502967590375289153e-01 -8.286045529623582429e-01 -7.154605366991326765e-01 9.020577702464223357e-02 5.278497095398794192e-01 -5.907925585527428192e-01 4.974218033966369412e-01 -2.708603698309485219e-01 -2.886414221003345479e-02 -6.258478119847652454e-01 4.356265912197702095e-01 -1.599456275764309932e-01 -1.670665417098144423e-01 9.467337534819521283e-04 -1.160955160314593587e-01 1.999035524288214349e-01 4.106959055663579328e-01 -7.077597881625098397e-01 -3.947999885335271020e-01 -1.650055871595413337e-01 7.937647778265831677e-01 -6.945051522781157949e-02 3.117205702547511392e-01 -4.665693373568620406e-02 1.119667515744807856e-01 -4.274936640230021512e-01 -8.411436422920756661e-02 -1.717094057254747773e-03 -3.123016728870004477e-01 -1.000098264959981692e-01 1.422478442608414093e-02 1.483977180857690426e-01 3.971134503334771138e-01 -2.172287698934239619e-01 -9.709243692136709791e-02 4.519766464913374526e-01 1.130376793896906151e-01 -4.587662373214985989e-02 2.041307818850761902e-01 2.767048476916725841e-01 8.246550166919530689e-02 1.840573806610296126e-01 -7.057584171940306517e-02 -3.716300218098216729e-02 -1.799396584154014378e-01 -5.509199874328243318e-01 -5.439871534845319712e-01 3.837851346639646333e-01 -3.194123584446326714e-01 -1.070896110563903658e-01 3.215420608035645667e-01 -7.810346325515828969e-01 -6.229652870257882391e-01 -5.448966514933911709e-01 6.752012331990712157e-01 3.309512468138284258e-01 4.683604399641707050e-01 4.193735849105553748e-01 4.159937883052185481e-01 -2.852856555605768896e-01 -3.047878732967749249e-01 -4.839341820125868665e-01 1.286141107697918451e-01 4.238224761797250439e-02 -2.834574903044989047e-01 -4.821053646367702283e-01 3.596665163561122563e-02 -2.628746051692673058e-01 2.719758245708949196e-01 -2.731977658841233114e-01 4.566594456058472029e-01 5.585265177090330546e-01 -1.625177523673017599e-01 6.977442820505557197e-01 -5.128121103857279373e-01 2.156009440584651937e-01 6.466426455181668864e-02 -1.950079949307596122e-02 -2.099266612683506339e-01 -4.445789928254149925e-02 1.279037226642542324e-01 -1.111591395053415088e-01 -7.714011541859919774e-01 1.396992785780564739e-01 -5.582557718160634230e-02 -9.775930324553280468e-03 -5.221433935238147805e-01 1.151218266448483379e-01 -6.470952960102085982e-02 -6.769995203523710980e-01 4.028293339404711570e-01 5.761731601527116942e-01 3.662714387527438720e-01 -2.775878763129092652e-01 2.838073654471041651e-01 3.975927099330303638e-01 -5.843697292555242173e-01 -2.726768409270182159e-01 -5.494752775481056561e-01 2.334373569786098446e-01 2.656490118603139772e-01 3.483742039843918531e-02 2.730509614201285795e-01 -1.463474416018344382e-01 -1.450294107990997283e-01 5.873884377895386422e-01 -9.437724303648720170e-02 4.700515966042684846e-01 3.689455563801029014e-01 7.218860091009945412e-01 -1.851561002259169975e-01 5.844311327974132525e-02 4.063323444521670935e-01 -4.312633274771224268e-01 -5.819446521315406740e-01 -3.335347408385033741e-02 -2.367523086998823689e-01 1.443627997377819883e-01 -1.607958911158113569e-01 3.704437844168363414e-01 -3.186003862285906041e-01 4.520514931621147370e-01 2.546814591207427134e-02 -1.996723393685558845e-01 -9.502365240003400604e-02 4.560977482889450041e-01 5.017213103140267805e-01 3.429172542171419202e-01 5.192422222998341885e-01 1.690013264473511079e-01 -7.552111271221234601e-02 3.619646137284638909e-01 4.969121656678915921e-01 8.423202858429075512e-02 2.662522019655012562e-01 1.373026436278929341e-01 1.646584635888813097e-01 -9.280031807721046411e-01 -2.379540613959308104e-01 3.490810561026461700e-01 4.928588517967858601e-02 5.265920211639580906e-01 -3.010680612262701117e-01 -1.152307746569738722e-01 -8.339210837987745539e-02 1.867448588044323954e-01 -3.326843237619853122e-01 7.348251376279680835e-01 -8.688937020801922040e-02 -3.842063617688430965e-01 -1.225257573143404971e-01 -2.520923156161535006e-02 -1.962730101803629168e-01 1.003083289892419128e+00 -1.489045801297574356e-01 3.484369350700557422e-01 -2.215014022636071361e-02 -8.312742403818026982e-02 -1.944739245615943746e-02 9.298112551149648186e-02 -2.102376872952066988e-01 -6.142178225773623490e-01 -6.318254814687515042e-01 2.283115342214789567e-01 6.771465578598626633e-01 -6.870429453356531324e-01 -8.470549516076332497e-02 1.631772096421066631e-01 1.520225410252697695e-01 1.108447713184182587e-01 1.990918913659383283e-01 2.338933640405897185e-01 -8.910364585780656821e-01 -5.482913069707702203e-01 2.659466405970374314e-01 -4.992299907360585598e-01 -3.448554258749372825e-01 1.319806083574552591e-01 3.295456167590056218e-01 -3.647063338497674723e-01 -1.276296474907684164e+00 -2.616605579818629401e-01 2.810727100438641934e-01 1.687440349050438326e-01 -4.465073726830316447e-01 6.412087345841340283e-03 -2.206204752240139566e-01 -3.390883200307404088e-01 9.287685363747678891e-02 5.854545403101595324e-01 -5.803187228691340793e-02 5.200392644954847654e-01 4.640931004457156117e-01 -5.108616103766052685e-01 1.022713002614925593e-01 -2.827906825250230405e-01 -2.441071823089467976e-02 -3.096415323759234561e-01 -3.231239563802302817e-01 1.207362608397686721e+00 9.119812801527004131e-01 -3.189446754043793741e-01 -1.102494714384030655e-01 5.835986032533556633e-01 4.554172827829814363e-01 1.149963062145902049e+00 -1.385982849734262723e-01 -2.673938748188814385e-01 -2.726728881922023118e-01 -5.042648271508963775e-01 -5.417844377673328715e-01 -3.488265665127517345e-01 -5.216744383146723063e-01 8.778773544022328013e-02 -7.686280123812491150e-01 -4.187491046388331362e-01 -7.006296310871883426e-01 -4.666682674825569088e-01 -1.123092540610959977e+00 -4.889171270084388121e-01 5.814968128044617490e-02 1.110058718443767203e-02 -4.249733585265852431e-01 -4.563993888382952280e-01 2.467354781025150046e-01 -2.166912373787979462e-01 4.101114766785124988e-01 9.646919247975814793e-01 1.935864013559304153e-01 6.498147454110453358e-02 1.683739089603673578e-01 -1.857542302425974623e-01 -3.958461715071366904e-01 1.535363891820626936e-01 -8.778829048531872070e-02 5.929682317224047039e-02 1.275760099824265192e-01 -4.086841304285614429e-01 2.604799214276603755e-02 -1.983009750230015356e-01 5.629094147977155016e-01 -8.271824453510323583e-02 3.271808942764073413e-01 -1.298371346553646166e-01 -2.452596164936164114e-01 -7.376430427083497943e-01 3.434302173226407295e-01 1.076626840376495864e-01 6.436962816997079395e-01 -1.922552127937309646e-02 -3.660432194033885200e-01 -6.613482984672265363e-01 1.428037992300408010e-01 -3.025172876597463367e-01 -3.964264392039258400e-01 -8.527532849503761669e-01 1.544121528414845179e-01 -1.233719985658554702e-01 -4.417681570073966890e-01 1.318636901205954282e-01 -1.768829007238177653e-01 2.151415054222108048e-01 -1.982401695032979805e-01 6.482657979211745580e-01 5.974004343417349538e-01 -2.184065870715949098e-01 -1.336243020769632417e-01 6.120970472299982479e-01 9.899189686727606630e-02 3.276046155757148665e-02 -3.190012571069771319e-01 -1.595846965515562363e-02 2.472135028585625838e-02 2.516242895774222221e-01 -5.175652305322506891e-02 -1.475327549048725262e-01 -5.614032805285964350e-02 6.666904397742609012e-01 2.728727879086928487e-01 -2.150770679303621591e-01 -2.737159321524517130e-01 4.695970125918074722e-01 -1.041817371095963771e-02 8.138587706541694500e-01 6.658035668629931625e-02 -1.545098844981489528e-01 -3.885775502956800853e-02 4.518274385413718064e-01 -4.065469412490652079e-02 -9.987121960993519121e-01 -3.869630102055511833e-01 -1.880889711203589665e-01 -4.011451328940086603e-01 1.066497036544172411e-01 -1.521262357819957445e-01 7.716286997048432683e-02 -4.850420757386034176e-01 -4.529014311603172804e-01 5.500156706295483700e-02 4.934003689715632524e-01 4.153607997072174540e-01 -4.472262509947338982e-01 -2.104186624061566979e-01 -4.859947597879304970e-02 2.155474804849643322e-01 -4.135768858189631803e-01 -3.069129220998443874e-01 -8.443533914808258600e-02 -2.423723727855372212e-01 2.605174964500834300e-01 -2.987783868314078939e-01 -4.251871373448791736e-01 4.125246263267484670e-01 2.902873503505515873e-01 -3.607088989819259295e-01 -2.837628695428626516e-02 3.581164956589178577e-02 6.049651930801568100e-02 2.210165239701288586e-01 -5.088474165177382380e-01 -4.891173638646510446e-01 -1.052005621554299442e-01 -2.607480370572919925e-01 1.156209535301370994e-01 -5.038555915642571603e-02 1.805343300695127218e-01 3.326890581005539360e-01 -5.876555106351263325e-01 6.381961064618998369e-01 -6.696867690836884324e-02 -7.704441740588197085e-02 -4.784991073453683796e-01 3.420745864813091175e-01 4.389004708755229328e-02 -4.221490166286728241e-01 1.344274160095988158e-01 -2.487132236916323735e-01 -6.059018151428724464e-01 -5.224324026204698601e-01 -7.380162815350260752e-01 -2.301310615696332551e-01 1.566204925556201055e-01 1.988815047564332639e-01 -1.035730331952557925e-01 1.314125251304633646e-01 -4.106304576112954074e-01 -6.291529240114368537e-02 3.386192397536348375e-01 -1.177517907819167209e-01 -3.081376526548603931e-02 -3.196166504190175450e-01 -8.750579595031306168e-02 2.742413635543829442e-01 2.957882910809100374e-01 -2.919518448023752377e-01 3.254897639172110724e-01 -1.622094299101545789e-01 4.594291734399190696e-01 4.842871213379751349e-02 -3.580902603736674794e-01 -6.357372426693201906e-01 -2.617015725438738283e-01 6.037726370467549897e-01 -2.303958806023819472e-01 -2.548502649282257185e-02 -1.596909608595554197e-01 -5.088097846292517490e-01 -3.248437134408914684e-01 -6.092851039201995639e-02 -3.594106567784023376e-01 -3.763048424247116275e-01 -2.892991497022313618e-01 4.750244488358852379e-01 -5.298209422275046432e-01 7.463788636876995952e-02 2.388770661663569550e-01 5.624536623283112741e-02 2.452595786144952661e-01 -3.046398971272186174e-01 1.113853368392502263e-01 -2.615089754747112472e-01 -3.353059098784484382e-01 -1.612003215755541674e-01 8.826655599762487370e-01 -8.662499916321578231e-02 -1.153592336315479167e-01 -1.295381937769778391e-01 -2.898447337375748556e-01 2.614486857118706112e-02 2.071104529956639406e-01 -1.228621842067980502e-01 -2.973043425716446198e-01 -8.903961182807702546e-01 -1.364749124674410619e-01 4.211933537674438788e-01 4.417831355754133216e-01 6.448837871398112043e-01 3.777821031157453935e-01 -8.236833612316338260e-02 2.234421559223629949e-01 1.715475974931938152e-01 -3.650162959013081299e-02 5.730316575738917395e-01 -2.254103900755317080e-01 -8.617692021256577739e-01 -6.147643743408799377e-01 -6.097949149957566650e-01 -5.573222586783461718e-01 