7.230532810277245925e-01 -5.478008992905460811e-02 5.208963945803863904e-01 8.094477038174589800e-02 5.176117103548012466e-01 -2.221503414707471369e-01 -3.896436991283272347e-04 2.121786040858394118e-01 -6.097559333848427965e-01 2.860279704958239577e-01 -2.112622327063526650e-01 8.234822455634752125e-02 2.175682497297904416e-01 -5.100206665089682123e-02 -1.048806707863590010e-01 -4.468653854378040191e-01 -5.349102683619348930e-01 -1.185683033590806956e-01 -1.586059699667477507e-01 -6.034033790788719681e-02 2.931202989245584312e-01 1.094363914873597021e-01 8.142840966228976907e-01 1.505602813069360779e-01 -1.025736645810728931e-01 -1.430845843823099761e-01 1.268797895400866071e-01 -3.997372667896728071e-01 -5.565421705529718377e-01 1.000510698373016982e+00 2.764886372111292068e-01 6.030836522265307920e-02 -1.056311121436761535e-01 2.438480638399997957e-01 3.431021676671655585e-01 3.837791331406191220e-01 8.553784154256216521e-01 7.249711877510436331e-01 1.367803739736135060e-01 5.420695468900065678e-02 4.665785005674946140e-01 4.687679892782232183e-01 7.521142112467782415e-02 1.830470070652969738e-01 2.358584343504307179e-01 4.268093828023965530e-01 6.577993142897727852e-01 3.399845106897853575e-01 1.648477451776617086e-01 4.635365654670481339e-01 2.229790884744980439e-01 6.165670348280927193e-01 4.795830580512979724e-01 8.059732255515724697e-01 -4.041202926697198272e-01 5.050069622938277991e-01 2.234833843532771647e-01 4.317548882128814380e-01 5.970906169084224668e-01 -1.299174722936222437e-01 -3.986894720561300759e-02 -1.331637180061409353e-01 -2.859078149821301928e-01 3.070625426298189894e-02 1.453259175705015616e-01 3.546808035698374995e-01 8.367038338615274962e-03 4.572455387916818381e-01 -2.540596379541682492e-01 -3.930017781075418465e-02 -1.739830618259639028e-01 2.131160884773359437e-02 1.350150538548093304e-01 -2.181238132723772594e-01 1.701713475000543041e-01 2.566849778758191827e-02 -4.289758177778082993e-01 1.928201563637195123e-02 -2.664602030288072410e-01 -6.361022073031744051e-02 -2.805015823434570121e-01 -1.847059777347355713e-01 6.529735268075886889e-01 -1.317884226251210822e-01 4.425363748789284402e-01 -5.938662329968642795e-02 -4.208971728440906723e-01 -2.957325978177344217e-01 -5.449066727254576331e-02 -6.362002446496294317e-01 -1.742617994386545452e-02 5.811555791047552377e-01 1.098421036281001795e-01 3.526803122627078513e-01 6.890766532825497170e-02 2.033062435666204981e-01 -1.207205999404796781e-01 -2.486331672438590046e-01 2.373058521062311743e-01 -3.111149772684668746e-01 -4.739551439892317197e-01 2.289474183786566475e-01 1.442075944578955805e-02 6.335886948866159551e-01 3.352685611066952981e-02 1.298843853159605821e-01 4.101881188377175767e-03 2.392300069120871508e-01 3.368911657429885520e-01 -9.370690666100363331e-02 3.627552615513958689e-01 -6.242701094588414268e-01 2.926921913563010000e-02 -3.548235427398079705e-02 3.719031348641044787e-01 4.730341344779901425e-01 -3.199862143583452889e-01 -5.608063260850153497e-01 3.166227731569148940e-01 -1.451648567656578237e-01 5.570584391467419128e-01 8.579253625194992461e-01 -4.551502427390881067e-01 -2.911001742703109851e-01 5.364356360939538382e-01 2.030201463281014126e-02 2.789026746580613447e-01 5.308979390989960745e-01 1.233154378359431480e-01 -1.276975704396263733e-01 5.867779579825798120e-01 6.420295673883057441e-01 3.589723563245623278e-02 3.941222539779979384e-01 5.128060335677139259e-01 1.320516925226339067e-01 -1.155554815153809062e-01 -1.072874127508613579e-01 1.686936902647070413e-01 -1.716571687605170371e-01 7.059587379240775395e-02 -7.031214766217587231e-01 -4.272193924291828315e-01 -2.606826823678693450e-01 2.742425789297042171e-01 -2.214790097168673200e-01 2.778833266558570769e-01 -5.255528228292388748e-01 -4.463164423652858370e-01 2.567714158810574521e-01 -3.313762900904149850e-02 3.076677476825186996e-01 -9.891595839372047116e-02 -2.599968192148376378e-01 -2.729054593779294338e-02 1.409520966426965616e-01 1.008927036436080282e-01 3.119789540020412866e-01 3.091188698827471715e-01 3.759968114863417310e-01 -2.465768675597272697e-01 2.497743771504843391e-01 -9.582039813000134965e-01 6.358156504934381337e-01 2.600248516266366883e-01 -1.548584354074308278e-01 5.659698124426406490e-02 -1.275863027210491774e-01 -2.940782537374426187e-01 -3.342858960331006601e-01 2.652328862501083240e-01 9.157189981661007297e-03 2.498077063568178990e-01 -3.546457167233182384e-01 -3.882494293316315348e-01 -6.559871996587483822e-02 4.234608846236173063e-01 -1.029722380773961110e-01 -6.470245752585539467e-01 1.471134036280963564e-01 -1.336201365005950936e-01 -5.890575274116199161e-02 -1.610656062653677001e-01 6.755453496494710601e-03 -4.578951202189202596e-01 -1.559057985760650689e-01 5.150134443479203669e-03 -2.800882917908057990e-01 2.741778396101692272e-01 -1.698619705296386950e-01 -4.100842608635445474e-01 -2.180466459862909767e-01 -4.034131958931950757e-01 -3.879238051473847260e-01 -2.299047269916970060e-01 3.165307994230330269e-01 -1.688283805374479404e-02 8.756308957935829418e-02 6.561561473621960183e-02 1.808425630370633919e-01 1.581528756426713034e-02 3.274441268054394116e-02 -1.357183234549149287e-03 5.699016127068063930e-01 -2.596380133913684871e-02 6.572393003504849174e-02 3.768991237677413869e-02 -6.797940203411277915e-01 2.016266632228782274e-01 8.273283323928629085e-02 -5.502314847995458044e-03 3.925856695536109053e-02 -6.205402262272885494e-01 -2.385718962985957370e-01 -5.072848676990261430e-01 4.788460337745090167e-01 -1.382232900190326907e-01 3.469467077788321863e-01 2.275205523950248332e-01 4.360556931664078539e-01 -5.431612412143319579e-01 1.141783623458261787e-01 2.131878190714992793e-01 4.208854277335102867e-02 2.988262349799762352e-01 -1.219506637549669509e-01 -4.836611520544962239e-01 8.432589228900470510e-03 2.789184159382931405e-01 1.675741233323927437e-01 8.041412347878142131e-02 1.291464663514571287e-01 3.527301028113283277e-02 6.817427647838203431e-02 1.701378512394672304e-01 2.028698475009918234e-01 4.081327948519092308e-01 -2.000864507610477516e-01 -6.756554484472698796e-02 -1.255951622594702055e-01 1.082113322734715860e-01 -7.419643356222607733e-02 8.026990680175645210e-01 -3.412602919278352742e-02 2.844707187759855718e-02 -1.368832479227108656e-01 -1.968727972030589468e-01 7.297218860462320045e-01 1.059722655976462341e-01 5.466349855724916829e-01 1.397798851089677996e-01 -6.634114363303364806e-03 -2.927296237055557748e-01 3.640949098031888154e-01 1.072150057076730473e-01 -5.571531535053011464e-01 -1.978146577457905730e-01 1.291315853908217848e-01 4.249686043255297696e-02 -1.163089801146389574e-01 -2.471434090438096032e-02 3.774472650882422231e-01 3.134344005301373248e-01 1.564015482199306306e-01 -2.257835282852612424e-01 3.061021793294298188e-02 -6.730016616319131617e-02 9.050798587242116222e-02 1.860440339660684173e-01 1.628614026663174341e-01 -1.486391918745565699e-01 6.555476346034476431e-02 -5.240435299395848068e-01 -2.429523829366951326e-01 -5.478291852856586042e-01 -1.576572163412286176e-01 -1.557853327395953280e-01 -8.269303515691711626e-02 2.299684259966489341e-01 3.855218967490439130e-01 1.157649000127162764e-01 4.804938063691957528e-01 -3.978616759043215878e-01 3.595439966268444421e-01 1.576979144607752181e-01 5.032900521035736929e-01 1.725103787793622334e-01 -1.527037034567045592e-02 -4.980333251275135820e-01 -8.309728340607359931e-02 -1.360491082299865040e-01 -3.904722243821786426e-02 -2.375825392420574944e-01 -2.834890411979966718e-01 -2.905113155303704064e-01 -2.924419375616746364e-01 2.005303042984153961e-01 -1.841100659104566717e-01 1.849812229868869895e-01 7.003833090204457379e-02 4.222370895186958184e-01 -4.087832436712028894e-01 -1.521047385257844053e-01 4.692291747769164467e-02 -8.067853075471771718e-02 1.457417630109931472e-01 -9.027678054967307186e-02 2.225348327919262903e-01 1.773867866519203418e-01 -3.333121667175383274e-01 1.808479476110097239e-01 -2.401917232408556646e-01 1.910740932331874975e-01 1.621289805935419437e-01 -2.312852391633966886e-01 2.838763709162163418e-02 -1.000604747486862761e-01 -2.204503721684054340e-01 5.456348479498321913e-01 1.670596590234226658e-02 8.784788544923269674e-03 1.602662904845041925e-01 -8.513803820334259198e-02 2.437197630915599322e-01 -5.238343301238901351e-01 1.098773670801875268e-01 1.528500717998937386e-01 -5.797815048393368809e-01 -1.732205616624599431e-01 4.777037950696935709e-02 2.346174808894724989e-02 -9.925165609021127655e-02 2.082558210765412809e-01 2.232065130749479598e-01 -4.420452109813913927e-02 -1.689527902064293374e-01 4.566512795248180434e-01 -3.618856173127034115e-01 -4.614147801281789918e-01 -2.602973505910306882e-03 -9.377886311915381579e-02 -2.308102038152353708e-01 -4.121361902750051986e-01 -6.155377328983454438e-02 -2.790944268621891600e-01 1.163058724742581929e-01 3.984045955559570862e-01 -3.930104482971478186e-01 -2.057638138260458119e-02 2.226779051245629804e-01 2.099963766127554421e-01 1.326895366846774227e-01 -3.177006998825970263e-01 -4.707789863010726217e-01 4.289622328780662297e-01 9.639720492127372420e-02 3.889689313272686744e-01 9.559980329490784523e-02 -1.906629161406464268e-01 3.940994444965517096e-01 2.355752986597492715e-01 2.834838359013561182e-02 3.126709153123829327e-02 -2.799413774269478572e-01 9.342388022434575112e-02 4.538807834200495051e-01 3.836529068884479976e-01 -1.986239795713600279e-02 1.993220313642264652e-01 4.190915651355084925e-01 -1.636555086286975713e-01 4.098714054915005289e-01 4.913908255451448492e-01 1.105928463428350050e-01 -5.600431377745715977e-01 -1.801785793259892132e-01 2.128450076130988800e-01 -8.777264786216387726e-02 -2.519285011033815455e-02 -2.284597473967398540e-01 5.120263155328959662e-03 2.335135427412706188e-01 -2.920039115170871558e-01 -6.447269191820073631e-02 -1.572616775101259023e-01 4.692048498564145298e-01 -1.033400241696429134e-01 3.717979470299631606e-01 5.161828247652641699e-02 3.827504320271876703e-01 3.897042447712126267e-01 3.286958090852429293e-01 1.038498785685748466e-01 -1.653845077880320702e-01 1.707264864333064291e-01 2.058156256302574039e-01 -1.850385044742265117e-01 -2.462942972831589639e-01 -1.475565644990692662e-02 -2.791983414162746979e-01 -3.812667111076422644e-01 5.950425217664254696e-01 1.533913730528072006e-01 -2.215858047647479012e-01 1.636866452495304436e-01 -1.724509019848604330e-01 2.688226379668689492e-01 7.854516954725822009e-01 1.356145069367608591e-01 -2.836110031542949939e-01 1.312268386150613197e-01 -1.490226405151356404e-01 2.625504011711328745e-01 4.739721181622197910e-01 -2.350460554654098533e-01 5.935478396778590821e-02 -5.097613900061911396e-01 -5.910004266409618623e-01 -9.139868891003986862e-02 3.000604660244430288e-01 3.214874342921559824e-01 -2.878773593573168421e-01 1.397859510578046971e-01 2.631638101471504565e-01 1.616933595310116045e-01 -3.814376441663570039e-01 2.660473940423834782e-01 -3.837203880327827443e-02 -4.711391059933185410e-01 2.310073901411003050e-01 2.217816827018827541e-01 4.873631218035334722e-01 -5.170345799270911202e-01 -1.523635608684668352e-01 9.947264512929339386e-02 -3.032821872685503295e-01 -5.750988702168383787e-02 6.452316523097729739e-01 3.540160247521230708e-01 3.766852748045689259e-01 4.972052014877816756e-02 3.846487749919321741e-01 2.912910549756991263e-01 -7.599098171166589893e-03 2.773157798688292638e-02 2.131190780073593735e-02 -2.897490541412169329e-01 9.215641040810611251e-02 -2.516190580680711109e-01 2.753332140496981273e-01 -5.775860111033183086e-01 -1.675965852637184283e-01 3.457829440197822402e-02 -7.209974889617794258e-02 3.642922712587969847e-01 5.714853499010502658e-01 4.360975570829980774e-01 -8.331793842871548783e-02 1.049485632133949908e-01 -9.293018584669426874e-01 -1.863635481937544192e-01 4.056693061232344855e-01 9.031355134030742970e-01 2.417461038090426839e-01 4.231456314557747733e-01 6.917785952396729998e-01 -5.634908231383364274e-01 -2.238637838646338474e-01 -2.772529181044987301e-02 -8.683587437885652294e-02 -4.027475430494124042e-01 -3.222898730908070886e-01 1.669623920095785752e-01 8.734867109592112655e-01 5.066561996139858914e-01 7.662822142281260351e-01 1.904859886750696549e-02 7.204352410540055818e-01 -1.213774947031843882e-01 8.089863231967504564e-01 -3.315292670025950239e-02 1.888734236517833620e-01 2.661575320372354669e-01 1.140710711408585987e-01 2.514996203662060448e-01 -2.977867017611368627e-01 1.412750312219545334e-01 2.362608275540303837e-01 3.025093026932519913e-01 -3.299424335281835874e-01 -5.326964640015232622e-01 -2.510633089660370687e-01 -2.237947176658539594e-01 6.544389019798249052e-01 5.191439053186694963e-01 -2.627459471706573013e-01 -4.027759128053320925e-01 -1.415381141943234389e-01 6.492149867152243736e-01 8.922997528494792663e-01 4.857784210914023459e-01 3.935327701392007937e-01 -6.519974594538692214e-01 -1.926622186453961494e-01 2.522996440954751174e-01 -4.827309201953078333e-01 1.478901704772709602e-01 -2.326653916646734821e-01 -1.026865577389089873e-01 8.730064316766861232e-02 3.426778417975041569e-01 4.838874363700977274e-03 4.475851751323592920e-01 1.194460742378607110e+00 -7.964873602485834647e-01 -2.411708988066300213e-02 2.330380604271390377e-01 -1.445285015905989623e-01 7.946143017153217691e-01 2.215714495828774999e-01 -4.918827178443292009e-02 -1.690190688163585031e-01 -1.041891138185715437e+00 -2.633170078373489043e-01 -6.472735716967212838e-01 -6.804539003283766041e-01 6.981090103457640583e-02 -1.569286791803136127e-01 5.967957875244218613e-01 1.887489228736139724e-01 5.487070868369053889e-01 1.137040516964423348e-01 -5.033466422757072456e-01 -1.047439575993749233e-01 -3.221581576666666114e-01 5.250149700169387534e-01 2.372096042946105765e-01 2.216071066765319397e-01 -3.534036595415032678e-01 2.831560534564762643e-01 1.539934951721081413e-01 5.572811830463714894e-02 -1.693984470421329991e-01 3.613501719946879964e-01 -2.752795927179936264e-01 2.055999048492447023e-01 3.436773308335739907e-01 -2.136987387990995357e-01 -4.578753222784905375e-01 4.608840144963579494e-02 1.076984970476679987e-01 4.340590464962204575e-01 3.138542302508143256e-01 2.532763572390664408e-01 -3.003925150334114114e-01 3.288767304810918252e-02 -3.909715181707801301e-02 -2.523294655544930376e-01 -4.170184059697560897e-01 1.323577007823892593e-01 4.118598379536893006e-01 -3.103266288185877464e-01 6.248028746404201694e-01 -3.080297246741293127e-01 -5.275605801217234658e-01 -1.073758930555266666e-01 1.270909169415693485e-01 -1.715162400978168245e-01 -1.543937207353807406e-01 -2.453394484487404770e-01 4.166405985622937957e-01 -2.491573008785671617e-01 7.195705701783626507e-02 -7.298902585056855630e-01 1.252032104023103054e-01 -2.316638952059029422e-01 9.142377273551167693e-01 3.143979013694214730e-01 -3.695420377830781478e-01 -9.341041614255480852e-01 -2.206205760165802499e-01 8.181040296533975686e-02 5.951563191073448028e-02 -1.851631817376034328e-01 1.072286151277247919e-02 1.994825920175667677e-01 2.756243258141372054e-01 -7.104896635085614087e-02 2.927695182014317665e-01 -3.704451769387837046e-01 5.103970947680080278e-02 1.583813887996938508e-01 -3.187988762491336114e-01 2.630742121781634579e-01 2.825336244405520780e-01 4.084468270726904215e-01 1.453769902627102262e-01 4.096733403330358181e-01 4.769273480910354301e-01 4.617130813758650587e-02 -8.350933051641377947e-02 -2.070476986475542625e-01 -6.565186121510781236e-02 -3.750098044049807733e-01 3.280871373385024076e-02 -2.458729401247226609e-01 1.567709017985903812e-03 3.071061653190940710e-01 -1.595431672658795541e-01 -6.586209334188938835e-02 -5.987696880121631260e-01 -5.822761472719145681e-01 -2.755657665941266266e-02 -5.571070962246403857e-01 5.493730430409224375e-02 -3.582690325357568706e-01 -3.980158961427145980e-01 5.922119207842007071e-01 5.084006286043175615e-01 3.661470342356808461e-01 -2.251254659124157231e-01 1.376029904500756518e-01 -3.638502068539201106e-01 7.545964277820808030e-01 -2.474015810908367086e-01 -1.675015153769228715e-01 1.011411660084436809e-01 -1.561865604284995157e-01 -1.330293924925462536e-02 -2.222355255636610238e-01 4.793648493477823541e-02 -4.942095901789685941e-01 3.155775984628468867e-01 1.928416859546611128e-01 6.152243825058124616e-01 3.250591956664115045e-01 -4.015316380531888663e-01 -5.485553977718038432e-01 2.033391087647620221e-01 -7.204061059692082880e-01 -3.613022370699555119e-01 -2.801259798871311157e-01 -1.263012607527022324e-01 8.691295369348973621e-01 -9.421097886464663285e-02 -2.371029451563183288e-01 -8.537144124863295103e-01 -3.731340871475439802e-01 2.664143170297474938e-01 1.000882213381029784e+00 -5.443739116842584158e-01 3.082700875301213062e-01 -7.630295004877919451e-01 -2.646502487064443798e-01 -1.270945937912089374e-01 -3.466796726490504743e-01 2.515069051581507176e-01 -9.898068848738701686e-02 -4.211231278869183581e-01 3.151195868391920563e-01 1.853012982038241552e-01 -2.848284665892117720e-02 4.547838104068595566e-01 2.166158191952147205e-01 2.328208510888222366e-02 1.099179922925840186e-01 7.054187285962266740e-01 2.928055519784070193e-01 5.337443969380811781e-01 5.325558435151116210e-02 4.359244580945522696e-01 -1.944109300625521120e-01 -4.883914206668311664e-01 3.212697540149345860e-02 5.590980302010200437e-02 -6.034383665560552612e-02 2.323942539072009206e-01 -5.647382154983824343e-01 -5.786709083606211834e-01 -1.682103808403595177e-02 1.800431241437081692e-02 -2.662218903441921358e-01 -2.176371189312775456e-01 -5.706906240376072303e-02 4.080268973741563859e-02 -4.040571437879877936e-01 -1.060153442740066954e+00 -4.788707569187661273e-02 -3.729639976379185984e-01 -4.659562205978942107e-01 8.013482518869966542e-01 2.981086226588980925e-01 1.074166006428151909e-01 -2.940801500687532655e-01 -1.926926790960536151e-01 1.802527675654198580e-01 1.826765161341609989e-01 1.899050097371829948e-01 -5.784843913660828729e-01 2.363321082019939623e-01 -2.173769723223598349e-01 -4.279884083269129558e-02 1.898509987128239873e-01 3.647708270248971596e-01 2.643061510340721787e-01 2.438285521795546251e-01 -4.724021221876472110e-01 -3.441789088640526129e-01 -7.147389076745839231e-01 -1.065883861287441892e-01 -1.040206468230931575e-02 -3.876010923570858968e-01 -8.255006626376313328e-01 -9.697636414617454292e-01 -3.211103280365548707e-01 -6.428277036788149212e-01 2.166139712082642069e-02 2.539312664751899526e-02 -4.821858256194875292e-01 8.122863279447005425e-02 -1.317241559126173522e-01 -1.922569929019677104e-01 2.673021515179802021e-01 -6.685535995888793881e-01 2.666069357788386561e-04 -6.272046829887284458e-01 5.981125373634335052e-01 3.615976653549188291e-01 -1.379138930939391161e-01 7.481128633904408909e-02 -2.386613944377745378e-01 -1.529506348034079255e-01 8.893628770732951716e-02 1.412576641318560589e-01 7.923662481925149159e-02 -3.164025252002062444e-02 -3.397563321008830184e-01 -1.254038425232928133e-01 9.455550016263775115e-02 -2.413538364698424588e-01 3.013628786730712661e-01 1.116116423284732595e-01 6.495911437840888591e-02 1.885591555313355927e-01 1.566373868475786635e-01 3.151333472554849746e-01 4.812246664562493947e-01 -2.506106754549615179e-01 -1.245853615276121262e-01 -3.732669388061677068e-04 1.199131053288341187e-01 -6.832849228553410370e-01 3.864486557684992940e-01 -2.037832124603775052e-01 -6.065139934922789688e-01 -7.120471336837513876e-01 3.407624737596333109e-01 2.381788776620791803e-01 -1.820289700158780888e-01 3.257025996616378927e-01 1.744380647748512703e-01 8.023746774556075323e-01 3.434028653512196105e-01 1.485900706126163651e-01 2.625409027002930107e-01 -1.828170525319076090e-01 -1.058847918872578703e-01 2.610315962891640584e-01 7.626068760947214697e-02 -1.206843866397776244e-01 6.298841440745681641e-01 -4.218188609386786525e-01 -1.709591216747633965e-02 -1.897562335563533209e-01 -5.823989298751985205e-02 3.751154021217846246e-01 2.704202786919344126e-01 4.363775106201115972e-01 8.180133259744620799e-01 2.757188497568224816e-01 1.075867339731374078e-01 -1.870928718099497123e-01 6.478164091624671883e-02 -8.430555142853124462e-02 -3.838554059527352624e-01 3.483159793308749502e-02 3.551695376464041876e-01 1.053185698368470646e-01 2.655383778687144258e-01 -3.293006028779477123e-01 5.627335842361342877e-01 2.209910407353986028e-01 1.437462976383232782e-01 4.332874878478109593e-01 7.234811350744423386e-01 7.272698490898225065e-01 -8.171716233578945054e-01 -2.004009692170575507e-01 -1.622547684975682303e-01 1.617693491494364977e-01 2.234681093773239202e-01 -4.189337600077427254e-02 -1.919300670676473142e-01 -2.149077402536801740e-01 8.995168290726469895e-02 1.488122206582185858e-01 2.211843847451405998e-01 1.420653312307235683e-01 -4.712674007838332790e-01 7.679642164634115087e-02 2.206316795007374765e-01 4.754167810399237415e-01 -1.123616986351118202e-01 -3.798663050500674654e-01 -7.614244773195123495e-01 1.783100962744977591e-01 -6.397564740300230035e-01 9.440149750301647658e-02 1.462660633305121749e-01 3.064941568966993435e-01 8.497502744905671701e-02 3.765721187640770351e-01 5.162032754452405836e-01 1.220233996055804793e-01 2.857702325288105083e-01 -7.623384337215821649e-02 3.671185147623842182e-01 4.544976621622840995e-01 2.760250332413897167e-01 4.560259730413138840e-02 3.058125627953326431e-01 4.668836477897488901e-01 -6.004645617814797776e-01 -7.898440213808836929e-02 -5.036025286062147943e-01 1.465502058455394052e-01 -2.661211829205064813e-02 6.417928034087860834e-02 1.567680039380973667e-01 2.780420462790317293e-01 -3.257190096177526306e-01 1.459918006053684270e-02 -2.975183839765576099e-01 1.969317154514675650e-01 5.769595375411052940e-01 -3.346748153850034324e-01 -2.609590354122464165e-02 -1.392922679550254519e-02 -5.991194340966074505e-02 -5.835912701458595420e-01 5.816633889869986529e-01 2.718522133300795840e-01 -4.638576929819983041e-01 2.982384502827430395e-01 1.134801579907614849e-02 4.767369965318664082e-01 3.229864034760097091e-01 -2.120980576646824822e-01 5.577426159746752266e-01 6.648305893939235878e-01 1.653251803986774682e-01 5.783620711896515776e-02 -4.412374648588439641e-01 -2.038846852214362126e-01 -5.395276766590143547e-01 -8.642255515624845674e-02 -2.550376738580313329e-01 -5.976358722076580143e-01 -4.972742470013764016e-01 8.121663266058926078e-03 -4.743233795783374229e-01 -3.363818406571962294e-01 -3.009506542666577356e-01 2.111801372192246007e-01 3.846878696983576651e-01 4.132954644370601810e-02 -6.426960883244219325e-01 9.329534377147989666e-02 6.387670967320388526e-02 2.247959847925177501e-01 -2.088821203666070270e-01 -5.146066176111639967e-01 -1.702440256056581003e-01 1.288700240887398485e-01 -3.395704848626385775e-01 8.543020857842290039e-02 -1.410145649309064719e-01 -1.120799429796811436e-02 -2.476360283296278608e-01 -3.146939638902980785e-01 -2.038561734920910085e-01 -3.157405946427132570e-01 -1.375596157270308761e-01 -2.659408504124735062e-01 5.799918962439123415e-01 -2.304994974731524315e-01 1.703592218927630353e-01 2.623795306439236086e-01 7.169182659180463324e-02 -3.840866764971877512e-01 -4.828734790979293257e-01 -2.683863232661805043e-01 3.658837690125941178e-01 6.214659906298496822e-02 -9.214415064730574478e-02 -1.150587453097137586e-01 -6.478732734293084494e-01 -2.089704522056710922e-01 -2.768698094366557338e-01 -3.417008000598080186e-01 2.021061853193782676e-01 4.857351995532253053e-01 4.741082650892314843e-01 -3.110651227138430674e-01 -3.612045024103262003e-01 -3.633635322862941996e-01 4.699395623367847580e-02 -7.357136220594358011e-01 -4.631003079234491393e-02 3.024707781766142745e-01 -1.294895928149296382e-01 -3.480295779534993139e-01 -3.489688351445692227e-01 2.337901424491192759e-01 -4.269581152564096982e-01 -2.434701647337650099e-01 -5.504115384430170455e-01 6.587756571315904752e-01 8.860472260200451255e-02 -8.730711708414847783e-01 -4.744453891519821997e-01 2.708839929187495041e-02 5.054653966904013584e-01 2.573970261792825065e-01 -1.918725782171286712e-02 -3.190469796608990105e-01 -3.435551529032797036e-01 -1.080740900553229661e-01 1.490909440675998454e-01 -2.591799436310803784e-01 -2.747902896039071674e-01 9.189657200515549684e-02 5.056637698990965601e-01 -8.222835073901339428e-03 2.474114199221232047e-01 5.423629082260018608e-01 2.275237327429107115e-01 1.413146072725853242e-01 -1.920069941377957612e-01 -5.038121952395921976e-01 2.002854142371720547e-01 -6.980470043915897316e-01 -2.220346556320986486e-01 1.877165774643985707e-01 -1.937989171042235059e-01 -2.182678417793518511e-01 -4.842466013176705553e-01 -5.979056281834748132e-01 -1.183021038877352538e-03 -1.783147857773726419e-01 2.168948678933635410e-02 -2.720903698175545365e-03 -3.439664670417463821e-01 6.013185242090964833e-01 1.406838850275617669e-01 -2.731906757523834828e-01 -2.621872714547953120e-01 6.343835325066683462e-01 9.890481188760710252e-01 -3.624707855441929860e-01 2.576857648996259686e-01 1.220318521884573015e-01 -3.297777724709454739e-01 3.584618540686160260e-01 4.232270677188025854e-01 -3.473103961858759470e-01 4.142072847046370243e-01 9.262385869498987456e-02 5.281162044144161599e-02 5.766764963090420526e-01 -2.206939777456117247e-01 -1.194808015662339323e-01 -3.673230837803331816e-01 -2.561833960751077124e-02 -5.769405235813436505e-02 -2.365237641970195093e-01 -6.759347128833218532e-01 -4.451888645394622493e-03 -3.461026061010393229e-01 -3.234454887497503761e-02 -2.065081376915549050e-01 -5.722503706500767784e-01 -4.166165556538698467e-01 1.077368043743150428e-01 2.174728200106355591e-01 -1.012293071463356148e-01 5.925726878358279076e-02 -1.665043138549360952e-02 -1.625892223799191849e-01 -8.459846818790912881e-02 -1.454469511083744393e-01 -4.087124131334868848e-01 -4.899990491393467207e-01 -1.485559084068169555e-01 -3.391255467602900531e-01 8.071879320491402721e-02 2.119011918708593456e-01 2.219203755101099573e-01 -1.771296334970011432e-01 4.816799549075787001e-01 -2.975790872121840680e-01 -7.404507920400489607e-02 -1.995994010861031620e-01 -2.267313173080661159e-01 -2.124744943183113147e-02 -1.415027065511998139e-01 1.718510112560364955e-01 7.090840596989742561e-01 -2.414671418979277562e-01 3.063330164451270043e-01 5.331968369004643771e-01 -7.687268960239415083e-01 -2.162465552487299048e-01 -2.629708132930701492e-01 4.177516819290564842e-01 -4.358990316076132854e-01 -2.640719449806472330e-01 4.790831618723966345e-01 3.940822849370197167e-02 -6.962171145564024499e-01 -7.758785397250130833e-01 -8.134828543421661617e-01 2.334208799857550864e-01 -1.477712490177087723e-01 -3.382411458912554236e-01 -3.331335071469302966e-01 -4.602879713239534931e-01 -3.014211574200747479e-01 -1.588487033531146841e-01 -2.360244294566319068e-01 2.104115898955630781e-01 9.354643491912922881e-02 1.405815074395367903e-01 -1.372762007271638440e-01 6.761133000134411652e-01 6.888746583758696695e-02 -8.412721933460647495e-04 -7.771259914029331195e-02 2.219795759091643395e-01 5.304572767179165371e-01 -1.063784253475899971e-01 2.171994060810612526e-01 2.533479551037500777e-01 -2.067115010108250550e-01 -6.557101977006568605e-02 7.783949242801286861e-01 2.944988766021148230e-01 -1.152645203526228151e-01 -1.585115852811020548e-02 -5.200835368541022463e-01 1.062011962327181980e+00 -1.730527958386358645e-01 2.031028282346460656e-01 -1.586052463693809200e-01 6.972903641058007806e-02 -4.813021303272216334e-02 -2.448110175015446033e-01 -2.334134397436374297e-01 4.485797407297555939e-01 -3.913574820550924649e-02 3.437613281343881444e-01 -4.250454806383702766e-01 -4.149185445730685373e-01 1.791777458881270435e-01 -1.060063170491066797e+00 1.337610851559577763e-01 -5.576109902855079514e-02 4.886350366225876707e-01 9.405160270916652909e-02 -2.393509127306376327e-01 5.355267158344839684e-01 5.505641290784814984e-02 -4.211284126425470647e-02 -2.125369080151990331e-01 6.899295413325415849e-01 -2.258425250525576966e-01 -4.120081976001541829e-02 2.968159670007999851e-01 -4.622572499907338095e-01 8.798345808539256852e-02 -5.209227663764053329e-01 -9.037465536645768183e-02 -2.728966461948331701e-01 -2.767012666795045858e-02 1.008263220237733959e-01 2.341225285623528274e-01 2.671044040147735332e-01 2.657163376812250455e-01 2.798990657432367524e-01 8.245938832180035871e-02 -5.651698421666277727e-02 1.402644425843109499e-01 -2.337775671900016450e-02 -5.575188024274813775e-02 3.270019549700816097e-01 -6.368440937566374194e-01 7.159501186336268974e-01 -8.709975499321983561e-01 -1.727913293576614218e-01 2.759846000645397868e-01 -9.493266459326055173e-02 1.376294880534836007e-01 -6.078587209289456617e-01 2.434984999685344542e-01 -6.190880333513934519e-02 2.660341856763134838e-01 3.283817207858296117e-01 3.002089015488451640e-01 3.802863203053871710e-01 -7.836641246736053557e-01 -3.449851326249003813e-01 -4.471883277233898446e-02 -5.260867667867646230e-02 -9.523304698861645434e-01 1.055992820698484352e-01 7.804844833110764768e-02 2.175687500191968160e-01 3.570303696229706336e-01 -5.346048574821634647e-01 -4.499530903213642685e-01 -1.054499240876133198e-01 2.405929815905882008e-01 1.749462499283664096e-01 -2.114438991070413942e-01 4.810616621059315423e-01 -6.459569480183485757e-02 1.277219768116984733e-01 1.129741162196736121e-01 3.244566713054652385e-01 7.458061103637070310e-01 1.516260808050153008e-01 -3.098223998466139925e-02 -7.263962335067447595e-02 5.579429256711506691e-01 -8.840130558979500952e-01 -7.300908886975394640e-01 -9.287422570183878623e-01 1.370638422838961479e-01 -2.202029039101988887e-03 3.927042532576638552e-03 -3.891656218683627877e-01 -7.493139215215131876e-02 -1.607738370710601605e-01 7.961679831284100839e-01 -3.373935401122203359e-01 -2.491309700420934470e-01 -3.073332796324805827e-01 2.394597276426940480e-01 1.906218506736573615e-01 2.435837015762497282e-02 6.066411109023834847e-01 -9.407787774843390238e-01 -4.683312293162715800e-01 3.041435459014211681e-02 -3.106855580227193547e-01 -3.894311098524260162e-01 -9.998212418058050055e-02 1.425203069604716877e-01 -3.677870198739538465e-01 -2.332256158815124436e-01 -6.169358211408140225e-01 6.076012213228873526e-02 1.180392535513784091e+00 -1.542080184444420410e-01 4.660672865896102746e-01 -1.386174917996042810e-01 1.635349860245975395e-01 -3.544011272848190952e-01 -5.214546800706223451e-01 3.353720706385100447e-01 -1.503938141888867541e+00 -7.638047745640434982e-01 -4.082791029544041717e-02 -2.217982151694247450e-01 -1.342961579288497465e-01 -5.611772752970121125e-01 4.299620338245002671e-02 1.466423137156185885e-01 8.452957786908800175e-01 2.035703061212306153e-01 -2.994806561334393824e-01 -3.176360133639204442e-01 -3.531275512718716203e-01 1.972411754202572920e-01 -3.909460020944816733e-02 2.480814489008416890e-01 -9.498869048374929125e-02 -2.488661284376977867e-01 -5.542979746236551541e-01 5.125265079838439153e-01 6.412444516118391558e-02 2.162743961788266833e-01 -3.580280502918176677e-01 1.907249168639609804e-01 -1.783612595851646332e-01 -1.840183289919895548e-01 7.312587015583644767e-01 -2.920227565614315623e-01 4.318497218421415429e-01 5.212914986614707730e-02 -1.179463867060556170e-01 5.681093599316372478e-01 4.234482116137516239e-01 1.998755468750509912e-01 -2.518617614174817887e-01 -2.975062952735237354e-01 -9.650017785070180709e-01 -1.168867799914856537e-01 -1.160228342071125129e-01 -8.963119063599753189e-02 -6.510562782894672995e-02 -1.092851094580481325e-01 -7.756123417594814606e-01 -6.810107348142145911e-01 -5.954850791205423127e-02 -2.708558646210021403e-01 4.771717578276744032e-01 -3.821229130081608694e-01 2.084123775836804471e-01 1.954393474612498363e-02 9.419801524099358225e-01 4.655318957906442456e-01 -1.154497594163160848e-02 3.254625015113297160e-01 5.771974865496499740e-01 -5.928082270047261432e-02 -3.409541660911950545e-01 -5.527621265347968348e-03 -1.652063348579781987e-01 7.227151911878412771e-02 -3.820388372692996581e-01 -6.421577954203943062e-01 3.923863169269914582e-03 -2.433908780566622909e-01 3.750822205519567798e-01 1.611916788773207487e-01 2.380558135798228198e-03 -3.044407141649842566e-02 -4.642555145101644881e-02 -8.999982454696847656e-01 2.812573926838557448e-01 3.558820054291556012e-01 1.182874767117879922e-01 -1.719383732933282144e-02 1.865773914953584856e-02 -3.852909111054983460e-01 1.411514904475824790e-02 -4.537740399726210017e-01 -4.518266178188897197e-01 -4.253338050814108873e-01 -5.947099100451243014e-01 8.883017745578412061e-01 3.615624431285324736e-01 -3.681360477319263191e-01 -4.030306027067492858e-01 -2.435696371211888422e-01 -8.484579646520004625e-02 -2.205776033135721514e-01 -1.938880541958520332e-01 -1.077094063038739197e-01 -3.928413211596779031e-02 -4.317979761049171583e-01 -5.127457940971066330e-01 -4.898353412121479455e-01 -6.403173705518454550e-01 -3.131668673534142577e-01 7.699642684622184929e-02 2.834180571986367747e-01 1.142394663688713341e-01 -1.096171253127901056e-02 2.113062448984384945e-01 8.465891314420173064e-01 2.722204411744432728e-01 6.259573439844230425e-01 -5.945871033303601338e-01 -3.708484488950743452e-01 9.054596259579882067e-02 -9.926656599568066397e-02 -5.026281392359416289e-01 3.391781505227807747e-01 1.574414759801011088e-01 -5.885447671837524819e-01 -1.030137514127317688e+00 -4.942288773040508509e-01 1.952812732225562564e-01 -3.265781625846879144e-01 2.194997942407516667e-01 1.713028644801176809e-02 1.319380568582829427e-01 -7.651825995382901535e-01 5.339084269154904527e-01 -3.270549236828414474e-01 4.880245445474262200e-01 5.791815189246574125e-01 3.370771790761992182e-01 -3.265923535932424016e-01 -4.753304943906824787e-01 2.580393531135333207e-01 1.407035235565120279e-01 1.700684840814709886e-01 -6.476933575395629195e-01 -6.704882180650596768e-02 1.096182109498494428e-01 -3.352955260805356996e-01 1.836830265810660279e-01 -2.257305032840080383e-01 6.272084718640792422e-01 2.014535995948069647e-01 7.528172539106117167e-01 8.971324092778619474e-02 -1.263304343185608636e-01 3.204016854531048786e-01 1.866155311395366057e-01 -3.499289580240840247e-01 -2.712124836888283319e-01 -5.356417919481026857e-01 -5.483480872314486221e-02 -5.076518270684667877e-01 -7.098587270913618574e-02 -4.632021368860764765e-01 -8.428651353258462264e-02 2.150265083187709869e-01 2.858740080241575221e-01 -2.192866105179983871e-01 1.040469915812062135e-01 1.445114059277868013e-01 -2.341738042453027913e-01 5.958390798993470905e-02 4.739579050517804260e-01 2.023283198625892565e-01 -2.457001379128116725e-01 -1.515853177700310916e-01 3.417470264919366119e-01 1.032973611946844394e-01 4.741953689812831302e-02 -1.810838139694535553e-01 5.062071652355422113e-01 4.302840386933942107e-01 1.121457296350493182e-01 1.112626424070220499e-01 1.077719986350438724e-01 -3.731425005013649931e-02 4.118183518179269198e-01 -1.075208884008395094e+00 4.193331206433263403e-01 -7.177072774386844545e-01 4.098636735687349875e-02 -1.514122594887235274e-01 6.134839287002677444e-02 4.239705488672406708e-01 1.251107580713703982e-01 6.112462007515369056e-01 -1.832167457741539496e-01 2.949994148995435106e-01 -2.850747708000000991e-01 -6.414174471566382874e-01 -4.398886881601282162e-01 -2.120246960227317456e-01 -1.722615246169604264e-01 2.020580496533909420e-01 5.336858088120867427e-02 -1.336262650993390311e-01 -6.538027397570216337e-01 -5.013818012040713867e-01 -1.922441531231173228e-01 -7.078196526838959057e-02 -2.799184622977879747e-02 4.875446371671915968e-01 -4.178370294930149331e-01 2.851043788555517322e-01 -9.867882023761477550e-02 1.822840807194326118e-01 -1.756377687182297254e-01 -5.556182413646540974e-01 -1.089475839037953170e-01 -3.097874587541681324e-01 -1.289204447725499358e-01 4.385143899563039294e-01 -3.047924633954541829e-01 -2.168926856979813966e-01 -5.139586308200991827e-01 -7.975419577000608662e-02 -4.661233953753772252e-01 2.198266728408781456e-01 1.965514300084859889e-01 -2.654857488175018099e-01 3.544330575373376147e-01 2.803102643017925666e-01 5.563686467404199698e-01 -5.240266713192043291e-01 2.257875428176866761e-01 5.585993962615642960e-01 -4.273584609594889561e-02 2.524813639048160141e-01 3.915907041291246116e-01 -3.693028981846420145e-01 3.016589140260674817e-01 -9.027560493072389614e-01 -8.306432301132770091e-01 -2.465187426768660484e-01 1.041624342845983708e+00 7.130377625544859210e-01 -1.832656977340821336e-01 2.687303105485691623e-01 -2.436114373867381000e-01 -1.408658516018159168e-01 -5.542863887315943039e-01 -2.161054519430443133e-01 -4.042411975648808609e-01 -3.389403251490901159e-01 3.262152780912155325e-01 2.919341741762214726e-01 -3.605657532780903729e-02 -2.442188882395592009e-01 1.713490926586585528e-01 2.032288655846601066e-01 6.632543726828629138e-01 -1.996738443063546253e-01 -4.647184832645573915e-01 -3.162724036879035472e-01 1.389328558278276060e-01 3.623085350982200858e-01 -2.730037273333827952e-01 -2.603333948977721302e-01 1.020392318137692822e-01 -9.213730029245195685e-02 -1.308344626042069747e-01 8.451979601757323435e-01 -6.107289611748031866e-02 1.268178865772352226e-01 4.612268049859154506e-01 -1.038175996068686491e-01 1.755129113991410472e-01 -2.421063915126970834e-01 -2.993779666545041684e-01 -1.076851993638844318e-01 7.289400271067688619e-01 -7.992409827911962916e-02 -2.305234983105437230e-01 -1.122074038465215168e-01 -4.093718419041552647e-01 4.693452431653174495e-01 5.079902728767095033e-01 -5.476593348986902310e-01 -1.725783275029281749e-01 -2.486063856710762354e-01 6.646668850979878251e-02 3.464138022904558190e-01 -5.352799536587974361e-01 -3.529659735715728885e-01 -8.291430597920421142e-02 -7.729945902036219341e-01 1.698144766676808470e-01 -5.819457601241291300e-01 1.251501573806747813e-01 8.647672945347095741e-02 -8.114254251446050004e-02 1.525565968060074995e-01 -2.111175817612671868e-01 -3.768317441996492101e-01 -5.417586858481715506e-01 -4.473130498512556397e-01 1.570672461157855415e-01 -7.177020656394657305e-02 -1.804981636831406722e-01 -3.060093698736197076e-01 -2.817180729293953800e-01 -3.799398477271238028e-01 4.711358411702893934e-01 1.520303900336514025e-01 -2.450976356710445336e-01 -1.017656820369729820e+00 1.745616214026323998e-01 -9.751654181630382834e-03 2.935531947707652467e-01 5.881488351500937552e-03 1.929435848788149388e-01 2.579018098635770806e-01 1.557673796276312639e-01 -5.407304250967704951e-01 -5.251799517797220984e-01 1.281801640489462768e-01 2.870887760411382494e-01 4.525912643349206954e-01 6.037525678180301336e-02 -2.867800905455883953e-01 -4.948731575818463013e-01 2.662712612106544509e-03 4.836193386113051274e-01 -3.617918021580834309e-01 -4.309621116075741942e-01 -1.064992489252323260e-01 -1.618471918011243904e-01 6.088025287189370305e-01 7.991846270558411458e-02 -1.606587074960982853e-01 -2.009179912055142070e-01 -1.756810703582782351e-01 5.419480331039763232e-01 5.812241619689910710e-01 -1.043544700528003938e-01 1.701551835728890849e-01 -3.871208384891202114e-01 -2.154898669609160711e-01 2.897369003207901361e-01 2.078385289946985126e-01 -6.213828174784457037e-01 -3.300605096567942875e-01 -7.519806694089355148e-02 -5.452011770779402466e-01 -2.628846509259901154e-01 3.127960666189049665e-01 -1.410012806264515917e-01 -4.611704121866113670e-01 9.232978027792756448e-01 3.194472097903336416e-01 2.986832492689844298e-01 -2.267991674988217576e-01 3.182051418102271323e-01 3.519313847477549273e-01 2.992807126341876511e-01 -5.127163113302456443e-01 -2.356099120945596981e-01 7.704442542921644543e-01 3.496850155329813692e-01 -8.787200239399304280e-01 -5.532142703105334958e-01 -1.582014139786610055e-02 -3.998720157024945876e-01 7.527150132260131965e-01 7.199162371363333583e-03 -5.151180717263374037e-02 -4.213292399486094353e-01 4.886443030267929172e-02 3.822576044424294550e-01 4.735053526818961966e-01 -4.782980323006916779e-01 3.285779213248704034e-01 -3.908696048279327040e-01 -1.627580004413199666e-02 1.542540786960037158e-01 5.274985556563624445e-02 4.738167006946085169e-01 2.352095503190049508e-01 9.485920049054244463e-02 -3.567095264270092603e-01 -3.330949393089123745e-01 2.884943985491150165e-01 -2.666321374345849149e-01 1.694265962045620744e-01 1.347481580322244243e-01 7.615129558003359833e-02 -3.746773040302599500e-01 -1.725438112883394617e-02 9.463355828299863104e-02 4.377412523088474727e-01 1.927856989630805443e-02 -9.682075431801971943e-01 -9.186953877718299910e-02 7.126828126572563038e-01 2.546818075909388912e-01 5.002595459407134515e-02 2.186888243378939112e-01 -8.200069643429787059e-01 -3.633012190130925356e-01 -2.158345176160519907e-01 -1.099796277027164981e+00 -9.582877880465023868e-02 1.867456846329956233e-01 5.790030575917267663e-01 3.920377472313594236e-01 -1.916113619890329189e-02 4.500783119377511632e-01 1.715154887346483081e-02 -5.243277679840622207e-01 1.523290078141092685e-01 3.390223216707360376e-01 2.002472701427591706e-01 4.638333597236817263e-01 9.198160942571904919e-02 3.454716136371533963e-01 -1.659932177088063454e-01 -7.904071639117908887e-01 1.198047430839969674e-01 -6.239596055904964578e-01 5.638533362413542527e-01 -4.246263214240703077e-01 1.984177615497427494e-01 5.916192500434625662e-02 -7.176089396093789097e-02 -2.119448563056450241e-01 5.572957329004105120e-02 -7.906966112920431333e-02 3.303957792788935754e-01 -8.805891983436373027e-02 1.861193680138955101e-02 1.707359080138963758e-01 3.301838690967957013e-01 -3.445625369680440087e-01 -3.644005674866301198e-02 -1.239735073642199287e-01 2.085274362660645420e-01 -1.249526170920153001e-01 -7.852348389072778823e-02 5.671938645388060474e-01 -6.240457782638263173e-02 4.524051305852163640e-01 -3.451964673603911127e-01 -6.821375386802721597e-01 4.183310023739499339e-01 2.086618466836803187e-01 4.117786914062647741e-01 -5.906033145136944107e-01 9.519190000516345451e-01 2.262975339546286491e-01 5.365706416582486371e-01 1.725553843952569999e-01 -5.156893402047324493e-01 -2.741221860058168924e-01 1.372424683354999120e-01 4.391793748593908475e-01 -5.186873122570188899e-02 -8.006387360153527019e-03 -3.081565899040400458e-02 3.120653375759006032e-01 2.385206566893536828e-01 3.071666181269535612e-01 3.817605439718115834e-01 2.523510663739417237e-01 2.570928503852616953e-01 3.836521178645402319e-01 4.839493170416923618e-01 7.914551726203515880e-01 1.828025422508386955e-01 5.416485247157178939e-01 -4.869531670415235824e-01 5.843635986397828219e-01 2.287923671913223017e-02 1.821183348660835970e-03 -3.641008195431410382e-02 3.981741710618468821e-01 -5.359712088568494709e-02 -2.508435469790432082e-01 -8.957258623228345207e-02 5.134451308527426816e-01 7.079345944722535977e-01 7.086269173634155427e-01 -3.924019541613557038e-01 -1.662141887590274925e-01 1.337233421229570285e-01 3.589048429799195361e-01 3.836511786638965860e-02 -3.512500257761418943e-01 -1.059419884500290676e+00 -4.250341606137348349e-01 1.210872956654191895e-01 1.221832576063373865e-01 -1.046471943963995233e-01 2.121418659578286070e-01 -5.601820084092302698e-01 -3.739384516356416555e-01 -5.930638137805108734e-01 1.375112902955931971e-01 2.557912391688565434e-01 -5.671448642399675721e-01 -4.685154120853666782e-01 -6.299430633124680767e-01 -6.629975898750993801e-01 3.731032050047244919e-01 3.641779352887494214e-01 5.589875060818425556e-01 -5.942363910046054576e-01 -6.477540822715645019e-01 -1.006611880785775320e-01 -1.908923981374190670e-01 6.286193528757190174e-01 -8.031886315388365727e-01 -3.043089752162798645e-01 4.659711545506895480e-01 -2.622788152006969020e-01 -2.283587591891089452e-01 -4.441946022651170334e-01 3.280679722883310667e-01 3.576744771712234705e-01 -2.343074821389524998e-01 7.409888813154472675e-01 -3.036558617262755198e-03 2.468156102761175363e-01 -3.643747927908922990e-01 5.245693940085371237e-02 6.057976523063651059e-02 -7.346067166555331207e-01 5.193488438744414681e-01 3.748990581782477016e-01 -2.203903169247159732e-01 -1.969298832495511298e-02 -7.544282608390893152e-01 -7.834885631447956467e-01 -4.590151172673599955e-01 8.251391535397463450e-02 -2.017856720095241307e-01 -7.065469703718024741e-01 3.309088545496666894e-02 9.555003932299720448e-01 5.110910457223337700e-01 7.441875994827792384e-01 1.337206977327497492e-01 -3.457203612388913272e-01 -3.579465248562985202e-01 -1.826646979324370590e-01 -2.446751081912615366e-01 -2.766411342497468104e-02 -2.612035308512888204e-02 3.247725002682613771e-01 1.026405646639956926e+00 -3.860445204701323796e-02 -4.628363762713394447e-01 8.413631782159260164e-02 -6.230505888318762509e-01 1.026488665614322393e+00 1.796778203131469964e-01 2.911671472141499559e-02 4.331254855999053244e-01 1.098041759570434206e-01 3.154211611021520145e-01 -5.573927557012013922e-01 2.442929756690748189e-01 1.545435991667164499e-01 2.290413315096521685e-01 6.367284753230353922e-02 -2.758787536448720212e-01 -1.254281288041930453e-01 4.016017132613150520e-01 4.156412255850899240e-01 4.104334715779682785e-01 1.799230239637110706e-01 -6.289295127534101637e-02 4.836730482907028450e-01 1.888328623152094737e-02 3.129048502330507020e-01 -9.426667398050304209e-03 6.019810491804792330e-01 3.458365074904447556e-01 8.015753091137615971e-02 -1.098636460186756397e-01 -3.117470514988701091e-01 2.388546447995926747e-01 -3.968691723623702372e-01 4.656923102797672076e-01 3.861776792215613763e-01 2.819241395222890634e-01 -7.402408309647774687e-02 -5.394566073542850226e-01 -2.198334165302356369e-01 2.885949028349813483e-01 6.006060681907159360e-01 1.858498911432177880e-01 -6.046340690318566802e-01 -3.123495337532707430e-02 -1.381485574220537860e-01 -9.861419126018733383e-03 1.086423854767149644e+00 4.958812899689128972e-01 3.869521261779260146e-01 -2.541990894895899133e-01 -3.395538108718402781e-01 -4.096177270370428558e-01 -1.061802319213033807e-01 -4.164321969520788369e-01 2.133170048975505106e-01 3.979891364152916000e-01 -1.060957922636629608e-01 1.877671340357501550e-01 2.638672171247103959e-01 5.538162812413736091e-01 1.268331947264817738e-01 7.315016367107948225e-01 -4.544938313365210619e-02 -3.402888389008506542e-01 2.622350658163734027e-01 8.106970703310492077e-01 2.276547490575873134e-01 -2.195763434402456596e-02 3.375391557035302692e-01 -6.404007275933724930e-02 8.728193164679557414e-01 -1.056258630171301623e-02 -6.412595936345791836e-01 -7.447674270026909404e-01 -6.466019299044328816e-02 8.634084703125538551e-02 -3.405724802419623498e-01 -1.941639170877267617e-01 -4.192128092987151278e-01 7.364037026004079112e-02 1.197581659776885410e-01 5.992463047295030210e-01 2.769438255834189566e-01 -3.405195398108007421e-01 5.290184479532199502e-01 2.888814081322778060e-01 -3.768976042903224299e-01 1.187463109196645362e-02 -4.925978720031038982e-01 2.323639057067968319e-02 2.957105175868798841e-01 -3.172048332045541152e-01 -1.574611659556837961e-01 -4.564397321312508304e-01 -1.175292579258727932e-01 1.843799347145176071e-01 4.994236440223488449e-01 6.436994663047305998e-02 1.699355797155090997e-01 -3.368505981513033598e-01 -4.674833727680892670e-01 1.419434343574102475e-01 1.747389342637755416e-01 6.037999126339160805e-01 7.211967282088568298e-01 2.375527996178769807e-01 4.292592745126271730e-02 1.991963277838501301e-01 -1.904251774588134327e-01 -3.711392344786140218e-01 5.494942622128599075e-01 6.188040882570673418e-01 2.615726351658759774e-01 -1.621766493257795483e-01 -3.843510853732804988e-01 1.385330831178112621e-01 8.927994099156192354e-01 2.960876571238060806e-01 -1.761614391811961444e-01 2.306268338583991606e-02 2.088479333401278282e-01 2.061086268356464302e-01 5.322027527988293372e-01 9.202297616550336734e-01 -5.327070646299333911e-02 1.179476303920094393e+00 4.013541755976202663e-01 6.347530048086209575e-01 2.873126851867992548e-01 -5.338387466441523177e-01 -3.216361505424749634e-01 -4.335345101581317695e-01 5.335685237598429831e-01 7.933981208273448438e-01 -1.164540582427870535e-01 -3.944518601869900776e-01 -2.034820497880801549e-01 5.478000572727038664e-01 4.254148275104124854e-01 2.479448964800474164e-01 1.094738678161924356e-01 3.477569535253382527e-01 -3.279649530346059882e-01 -4.357996977684563400e-01 -6.204702359441761628e-01 -3.237173270335728659e-01 -2.051834390900714351e-03 7.077056483616241955e-01 2.695751564397315114e-01 5.879287425249010157e-01 -1.966871617327056454e-01 1.468273066373056990e-01 2.400239413229290630e-01 -9.034343341592074306e-02 3.907768212246336414e-01 2.439968817329432049e-01 -7.214121969463288715e-03 -4.741659348218501546e-01 -1.171569424240882645e-01 1.918205489203523018e-01 1.865292137493950175e-01 9.013680007680295869e-01 4.856940579381124334e-01 -9.622547463079980656e-02 -3.357620210092458479e-01 -2.831676268123767271e-01 -5.477582855566404119e-01 6.093526740785229490e-02 -2.016448845968637493e-01 2.326430077742628472e-02 3.285481268785945142e-03 -4.937727868174178747e-01 -2.913416898507111830e-01 -4.062715791931453824e-01 5.753294381137951108e-01 -2.607765308685175976e-01 -4.692251637706167933e-01 6.140370182969552282e-01 6.329154773741515472e-01 2.985644149880164466e-01 -2.904269094472607393e-01 -1.443551898084152185e-01 -3.160340663044051146e-01 -1.804653813475190494e-02 -6.028828538271950588e-02 -5.012888033170451729e-01 7.294266658838678696e-03 -5.738507375597059479e-01 -3.421181871171671829e-01 7.707660835464876792e-01 4.267684749209659789e-01 -1.983306556616208638e-01 3.014328578497271760e-01 2.209909925632976557e-01 -3.142008996890407468e-01 -4.964472076903606035e-01 -2.524880989359503669e-01 4.430635244454284027e-01 1.485999923494825126e-01 2.371205744770703006e-01 -1.691201042921980924e-01 -4.455831754334322881e-01 1.062591007898925771e-01 -5.766781031852354078e-02 -6.025037276753171245e-01 4.119584497993504790e-01 7.684263241001919320e-02 2.881069271029967904e-01 -2.577244840038909190e-01 -5.283865368501376031e-02 3.518238791877986715e-01 2.399671545423288643e-01 -1.719424559420863197e-01 1.859271125701706662e-01 2.800981753674678942e-01 -8.810412858839709871e-02 2.375348632432053020e-01 2.291814053777674609e-01 3.993738965265448450e-03 3.037473295924857097e-02 9.551425753397278784e-02 -1.214804857717415448e-01 -4.337023254447139875e-01 1.850003654759816984e-01 -5.696905396076720196e-01 -2.031457313924322772e-01 2.753819827036035894e-01 1.167406305898095603e-01 3.065182804909319381e-01 4.954767121244572636e-01 1.310522749868453796e-01 3.681752855281745229e-01 -3.186071674129749010e-01 1.634154369300115095e-01 -2.063918926644715043e-03 -2.941625591249335744e-02 3.242647326380211359e-01 1.437653237633324532e-01 -5.346871872242876522e-01 -1.417929512734495134e-01 -3.100304859939593399e-02 5.621142652872178347e-02 3.515283334020989359e-01 1.321496194720934159e-01 2.111455651023468327e-01 -1.915783501148463630e-01 -3.779019283053434708e-01 4.194571169280235101e-01 1.598794274620328748e-01 6.982983990268132324e-02 -1.294597142882524532e-01 7.341541991033923020e-01 4.946080991043089181e-01 -1.719751311976319141e-01 -8.702011260973656348e-02 -9.457264203508838896e-02 1.913475607286980323e-02 9.658207958280309868e-02 3.345109469772847843e-01 5.166730546906851407e-01 2.380126904539776184e-02 -8.710915331847219889e-01 -1.445645168302626127e-01 -2.040455293922205371e-01 1.572451624651296509e-01 7.814086034737578457e-01 5.043659263670682291e-01 6.139557809548060185e-02 -6.903495869007062469e-01 -4.388483257634412382e-01 -1.588234633097083959e-02 3.432448322404487162e-01 7.753151244611526938e-01 3.260229811269606537e-01 -1.917648612086483018e-01 -9.302588465229212344e-01 4.795333771453712257e-02 5.736100071652949772e-01 1.905810098267294861e-01 7.174850281301492494e-02 -1.404425949750592005e-02 2.299060628033599285e-01 5.372517525031443864e-01 4.438399904169099686e-01 1.013052645798033335e+00 -1.071250370730064405e-01 3.017673958407678797e-02 2.426835628509169396e-01 4.636138751740074837e-01 -3.806033978473593038e-01 7.115254140945929118e-01 -1.155220561257923162e+00 -9.262274927691438453e-02 1.732618816565891298e-02 -4.898628170761723521e-02 4.377032818049181317e-01 -3.448805675621751353e-03 -1.002488443760399250e-01 4.021153480030913996e-01 2.282024196723417830e-01 -2.613921434556222834e-01 -2.341156214681650027e-01 5.323911608334662704e-01 4.589546825348075898e-01 -3.006147154312202585e-01 -2.309426946379247447e-01 -4.497844784163834708e-01 3.101269079623804048e-01 1.145742807891199505e-01 4.580524711630317714e-01 -5.665930902251699042e-01 -7.661578268973313621e-01 1.578249438098675277e-03 1.220398125741964795e-01 -2.895700825784331967e-01 4.320977032229792458e-01 -2.949242284518816632e-04 3.906972566942190639e-01 1.528927538395201402e-01 7.295800185289127437e-01 2.698007862011458369e-01 2.909026405598025278e-01 -1.491345713542754359e-01 1.355951502133242448e+00 5.112589418336588309e-01 1.004652298727544552e-01 1.287333817922073631e-01 -8.025409602392178376e-01 -7.215365111090839001e-01 -3.728600893958171625e-01 -4.146624674290815826e-01 -1.696045634320915707e-01 2.680592111161606561e-01 2.165965162913263964e-01 4.320151093355117378e-01 -9.805745833991326432e-02 6.602700727108479217e-02 1.512213834229705900e-01 2.913205552537500576e-01 5.497019747337253959e-01 -1.255078756612450393e-02 -4.172566657472950302e-01 -3.793702462146879006e-01 7.691483187133438815e-01 5.004923385039325989e-01 2.390352132656425876e-01 -5.061402376562517125e-01 -3.452400756213833688e-01 5.997919274664003098e-01 4.294615022394153714e-01 -8.030495268416241172e-01 -9.920348811855142848e-03 7.938395494534408181e-01 1.711700239917508803e-02 -6.132025831755266720e-01 -2.558867232106691314e-01 6.737967186589381985e-01 6.582202050038732377e-01 4.780134888532597270e-01 6.624310158887292133e-01 8.906114529783637490e-02 -4.126524128180180107e-01 2.634596021779225250e-01 -1.116633571404070935e+00 2.701062946813945764e-01 -1.647991469290950306e-01 5.074211945892468517e-02 -3.858428018033810969e-01 -6.567465745704743896e-02 -1.859428705873968357e-01 1.851332405621554655e-01 -3.601872233691093550e-01 1.754629591005649192e-01 -2.093107748458431505e-01 -3.375642584886042741e-01 3.811257288531168519e-01 3.565565087726361715e-01 -6.606256070982934325e-01 1.485257979973608478e-01 3.921035424436815631e-01 3.439169489349949149e-01 -5.285294106388340740e-01 -3.646542628586209589e-01 -2.128429490218190518e-03 -4.914376759877940870e-01 -5.931667417712250812e-01 -6.655271219430762830e-01 -3.569754252282966167e-01 8.887430442902219396e-02 -1.367968718689354934e-01 -3.725411344572299166e-01 -5.725780230654867742e-01 1.082216228702310712e+00 3.456786288343225433e-01 7.857679894628187833e-01 6.021546331655398543e-01 -4.211440958912242294e-02 -9.997069187628149223e-02 -3.574063194525435860e-01 -5.255230254533523743e-02 4.047928974383431799e-01 -3.591114093787602379e-01 -2.425446304350989402e-01 -2.427490566672323713e-01 -4.774261017877226010e-01 2.194242823792621477e-01 4.346784556629799678e-01 -5.118409444931638907e-02 -1.012703535966937712e-01 -1.438506303748165183e-01 -1.292512229075969687e-01 7.282980222399211556e-02 -7.648767264520862919e-02 2.094001932022985790e-01 3.362354924212352936e-01 5.139282121958433161e-03 2.760585259631280208e-01 1.326946493244150205e-01 -4.882066228466265256e-01 -2.612843263367918278e-01 6.800637797760208381e-01 1.499918764300778584e-01 -1.289168224143244779e-01 -6.254576239408989047e-02 -1.564443559531516481e-01 6.460711039764920338e-01 1.292344352085686987e-01 -6.153469069491870336e-01 2.378234304688395251e-01 -2.796308872056600323e-02 -5.492033991171556551e-01 -9.915167437252739302e-02 -1.505484052646244575e-01 -1.104059714153661914e-01 2.123396764564083050e-01 2.353279393006104114e-01 1.618644889962994604e-01 5.612357181364613368e-01 4.589875871572171584e-01 -5.837789425764853268e-01 5.506643130274397890e-01 3.978675248209690984e-01 5.046365495526780598e-02 4.205476752472160906e-01 1.414030181169850575e+00 6.540146731378271294e-01 1.107618381735338664e+00 1.055784493092720044e+00 2.476707832968694789e-01 -8.700049089319507323e-02 -7.731438623581263769e-01 7.166877009636781759e-01 1.328555920467638485e+00 -1.641322801099591722e-01 -4.006553627044290855e-01 5.554117357213789186e-01 -1.139857689236520588e-01 2.787644629553303055e-01 -1.473257675049749194e-01 -3.358496018118596327e-01 -5.751276828274043407e-02 -5.121857882284642539e-03 -2.401049610180739924e-01 7.042149820522085601e-01 -5.601545218299148338e-02 3.463138745619618875e-01 4.369200108828824036e-01 -5.159513561118128644e-01 8.882772739183416449e-03 3.400040165710363493e-01 3.172360737906607664e-01 -1.044568901506970349e-01 3.281092155999518201e-01 2.471907111688987357e-01 -5.036821078086457515e-01 -9.381873417277998284e-01 4.276173802315020311e-01 -3.895174766232070707e-01 -7.460601442411857187e-01 2.429315922969321195e-01 9.726855919131114359e-01 2.210167051252415193e-01 6.178746442555481666e-01 -2.545548420462991901e-01 9.819854250709161847e-02 -7.604116723903563413e-01 -1.744037174316792893e-01 5.701819403288300725e-01 6.032326637953542292e-01 -8.204397511340350002e-02 -3.192536997455782122e-01 1.076579223543060043e-01 4.766300395830493364e-01 4.880213034245435844e-01 5.564655142670349441e-01 -1.978452382710432500e-01 -3.756159910889129150e-01 -9.444919910011830844e-01 1.505803303938661186e-01 1.540831162123725839e-01 -3.337915540665674086e-01 3.559856762022854948e-01 -2.617844029779779064e-02 -2.293966254837822866e-03 -1.973031264581649735e-01 -9.008085654711424084e-01 -8.755473229778705513e-02 -6.641541900952875332e-01 1.209969448643349738e-01 -6.805263215028742874e-01 -5.386803017203808247e-02 -1.051743174237304457e+00 -4.877285559576536866e-01 7.545123108770670495e-01 3.983094377858602958e-02 6.275547595561614678e-01 4.832821925000881369e-01 6.928553366149601267e-01 1.001554904192807349e+00 1.311408990548203202e-01 8.014057150391197537e-02 -1.535138705499420109e+00 -3.817395848423591476e-01 2.938893411039572579e-01 2.606805468855470931e-01 -7.653268490354976361e-01 -3.624841417507451147e-01 4.010968399258398875e-01 -2.414231183375564194e-01 -4.511982254233194017e-02 4.296893648106063224e-01 6.319777411673263012e-01 4.204255880411671975e-01 -2.897794241396113302e-01 3.430433334767463843e-02 -3.661261389149427642e-02 -7.282534189539506542e-02 -6.619238698310380142e-01 5.080720421662026087e-01 -9.588255996181664909e-01 -1.852441205418700887e-01 -2.464653406344821385e-01 -1.744939537781537153e-01 -2.819103748797054942e-01 -3.630200827618297599e-02 -3.111088651908505698e-01 -7.638968757305109047e-01 -7.573528556490771724e-01 -9.640468248587502620e-02 6.261295381516113201e-01 1.498211262632344887e-01 -4.756300074628969088e-01 -3.493554317187002045e-01 2.143291239960599115e-01 3.294091145609614468e-01 -4.042811834277679761e-01 -4.598157670160929467e-01 -3.005408402907725485e-01 1.187116728257289339e-01 4.525153353221260388e-02 -1.442359133546048944e-01 -3.087835344214550082e-01 -6.297746004960810273e-01 2.692237568109102641e-01 -6.543275622020355842e-01 -2.541131536107316680e-01 6.611128022462360587e-02 9.638384654520457673e-01 5.343144951979011958e-01 -5.412049797983627814e-02 2.466792902017784228e-01 -1.113914203722464052e-01 6.446809673658346340e-02 1.031923852664891617e-01 -1.768442450112783226e-01 -4.213432258645072870e-01 2.060887330022012076e-01 -3.893983418454274002e-03 5.336325598690356831e-01 -4.733458058489163900e-01 -2.300278956353505599e-01 -4.942837208852259717e-02 -5.673816891105198934e-01 -1.020500476739366835e+00 6.659638709547460733e-01 9.081227476881611471e-01 5.938342664426710105e-01 7.068549385358370574e-02 -3.760485584365920175e-01 6.305510309150907933e-02 1.567828288592960362e-01 -2.015413264061392540e-01 6.332579576657237225e-03 5.158712783052632478e-01 5.910077206857722310e-01 3.147629405912276690e-01 5.111073011612073114e-02 6.190388525219781002e-01 -3.515551840187460808e-01 -4.602758212328801335e-01 -1.006321073033133340e+00 4.110985817864112879e-02 1.775605994507828134e-01 6.960577896306632262e-01 8.045861985826038287e-01 9.357193751045416175e-01 5.602092336007780116e-02 -1.587169413910014260e-01 -7.930835790344338276e-01 2.142204427032997904e-01 -3.436162341841326739e-01 -3.713616793043711950e-01 -4.254862265156868495e-01 3.175901849244637254e-01 1.392656768524470345e-01 3.009425639818608111e-01 -1.141742001222680047e-01 -1.033669419912797288e-01 -3.380994793453226954e-01 -1.205489553725806795e+00 -7.886283143947601243e-03 7.006125442785100521e-01 1.405437676828015681e+00 5.336235298450904274e-01 3.672378120540284452e-01 3.627499911957102197e-01 4.407104905756447644e-01 -1.365348439168514172e-01 -7.270490418077971695e-01 1.665621097785679669e-02 -2.055311838621347309e-01 1.222216187653133446e-01 2.587037258668714590e-01 9.415954526935289559e-01 4.257339041693332660e-01 -3.352377585220430722e-01 -6.421631443852320320e-01 -3.977794368152738902e-01 -8.623460009152091044e-02 6.775836575810395557e-01 6.414898242460331801e-01 6.843016417545971786e-01 2.727476222044162291e-01 2.198622911852551182e-02 1.799524751847697557e-01 -1.502961458238008252e-01 -6.399015058834814917e-01 1.510019750348938761e-01 5.799601553375287599e-01 4.471632224977827863e-01 2.055659588185835551e-01 1.246050591467297575e-01 -3.698428871491316050e-01 -4.089207804581183603e-01 -2.381122094298106784e-01 -2.789408998580717239e-02 -2.069666712920657792e-02 7.593607704914565604e-01 8.281510287762054723e-02 -1.373242082658352459e-01 3.110167092282521972e-01 5.688948328462126725e-01 1.501444822578367755e-01 2.195897321227585353e-01 5.743609641232845231e-01 5.575059740087978666e-01 4.553338061047341179e-01 3.775348635388620644e-01 3.832061504983544364e-01 7.309930024704552887e-02 1.402702581831244411e-01 -6.747326980107060113e-01 -3.130398226829337882e-01 -9.264152254063542924e-02 -7.738324822526339020e-01 5.133416062164927185e-01 5.624177823725295955e-01 8.327226194994868935e-01 5.438446705745085819e-01 1.625913703599755344e-01 1.220765914377811984e-01 2.567052145058653645e-01 -9.043176250680048378e-01 -6.784074445883957472e-01 4.329320396735676924e-01 -1.642856603823368844e-01 3.401467851572274048e-01 -1.352964648337858129e-02 -4.092630972318113125e-01 -5.163003425982921613e-01 7.603818709628519523e-02 -4.976275247092081799e-01 -9.649343885665908130e-03 1.192622762039484252e+00 3.938583303339358577e-01 -2.063737971393932169e-02 -9.758965921749768180e-02 -1.225136377757345650e-02 4.396212119235096139e-01 5.997228574137557500e-01 -4.914713410063775156e-01 -2.884457745056956401e-02 -1.952991154002839125e-01 5.351560331869976705e-01 4.620105045711379588e-01 -2.437326851321937327e-01 3.816211501565349162e-01 -1.333206032273793161e-02 -1.437617694545774705e-01 -1.058245704084318783e-01 9.015060389311213562e-01 6.640078758915344270e-01 6.002393502885189358e-01 -1.520910069974557854e-01 -6.079588847112792765e-02 4.400543473809533923e-01 4.488188999114862132e-01 3.519629930465515422e-01 -1.091289878348404574e-01 -2.078809548794550710e-01 3.847860410631311068e-02 -8.317643324640254521e-02 8.601526091909264538e-02 -5.231506618065112635e-02 2.192597751356680225e-01 3.604800718130101722e-01 -2.880100683035449749e-01 -8.794527712744286685e-01 -8.389595593977647869e-01 5.238745596576374064e-01 2.286409444890606935e-01 5.547635554559968707e-01 2.247288990228481220e-02 -4.892667839795548923e-02 1.662306209071917340e-01 -1.577440240718488984e-02 -1.685724257866680620e-01 -3.661747722297400420e-01 -1.093983087942969612e-01 -2.050325030514269786e-01 -1.307906759643282790e-01 9.869282965032723232e-02 -3.426031490757709963e-01 5.066831216887829337e-02 -6.054477139506253547e-01 -6.149182342516997801e-01 2.732501270742607735e-01 4.146573622417435989e-01 3.368473240568832239e-01 5.914044584509929869e-01 9.511548150019352166e-01 3.972560791588997664e-01 4.357385506659977592e-01 6.388921610236893978e-01 -7.916085127614127526e-01 7.650334334083566667e-02 5.761441255951731399e-01 4.878633398652319764e-02 -2.807764828308545457e-01 -3.230563788082389531e-01 -2.812264549324731133e-01 6.425396748019318593e-01 2.297610635604199324e-03 -7.336828000201441879e-01 4.561039005130286261e-01 -2.632282786695966381e-01 -4.373303410312248674e-01 -6.473170774374084058e-01 5.576418834809974134e-01 9.496668635517789836e-01 7.663944335736281310e-01 -1.741541330596663717e-01 -2.205760257331692287e-01 -7.558136398859308658e-01 -2.896490969532359849e-01 2.011576550999586155e-01 2.179278421397934651e-01 9.453242494876060165e-02 -4.307789648700488527e-01 2.869238677304125629e-02 -8.968771106586911346e-01 -2.532355416547117377e-01 1.845708937495690316e-01 -8.075620566711060322e-01 4.427737552260160858e-01 3.513880171080638881e-01 5.341193342256939092e-01 7.840676475222267960e-01 3.312014095970173821e-01 -5.777326867874479910e-02 4.364405558509519556e-02 -3.587744594557151778e-01 1.390725137255260646e-01 4.776949637228321555e-01 1.532686766534825107e-01 1.472318664104348140e-01 -4.364715199076598107e-01 -7.994496306375221961e-02 6.629271156700664025e-02 -5.182643863952471897e-01 -4.413832142461253660e-01 -2.722453439303668121e-01 3.573763126804120893e-01 -1.351692663273834083e-01 -1.505194434157825500e-01 -1.089465441694243697e-01 8.106706203683782253e-01 1.015285622539664895e-01 -8.521880724303820820e-01 -4.699295199979001691e-01 -5.147956282023248287e-01 -1.108015395589318164e+00 -9.789095404478186102e-02 4.125577884018242214e-01 6.450228500180631153e-02 -1.591917647773039013e-01 -1.073312457717135571e+00 -3.956714607278069562e-01 -7.711156518427094708e-01 -4.895236728484064770e-01 -3.153359859062852544e-01 1.386158490561123779e-01 6.522089248897495750e-01 5.066812093583366039e-01 1.036753645206982766e+00 3.711171752641139188e-01 -3.402372516048532414e-01 -8.769111130026456813e-01 6.124401467172313485e-01 -6.394916591075078260e-02 7.818078051283638974e-01 -2.990833874146824889e-01 -9.131232102705737486e-01 -7.948581539023200637e-01 -2.551473426754080065e-01 6.749177529168878809e-02 -4.330453239718283220e-01 1.805507118159110636e-01 -4.888713925802172788e-01 7.658879860109714388e-02 -5.201720834914845826e-01 5.371994253370506595e-02 4.459720632892923420e-01 2.159631198449495637e-01 -8.615261274795275037e-01 -3.491536626659301201e-01 -7.321327872630735145e-01 -3.880736794730603734e-01 -1.045258411547927757e+00 2.364234067859348198e-01 1.885013197730125989e-01 -9.854764831181948015e-01 -5.949980257474604128e-01 8.322793619442432622e-02 -9.778069331911850570e-01 -8.200969785787204369e-02 -3.179851317284193013e-01 3.330330190233630749e-01 4.322221426122667687e-01 6.505497236040920228e-01 6.061886654754810033e-01 2.807318391723781503e-01 -7.204334015582476436e-01 -4.798403601361348608e-02 -1.349854514227755986e-01 -7.925389587602322400e-03 2.355989689769419637e-01 2.752778997056382071e-01 -2.643530553512093983e-01 4.467624746165138050e-01 -1.156967171402083938e+00 3.858235419625846152e-01 -7.080970833959945310e-01 -1.759907233838029772e-01 6.231662802643681554e-01 1.682138111464655805e-01 -4.418623199779420641e-01 7.156537983799033942e-01 4.200506783587309445e-01 9.402758185493490517e-01 -5.936579970624608071e-01 -2.335384963585816487e-01 -6.793028647981375068e-01 -3.864376913593334795e-01 -5.039510345086233717e-02 1.247867467277861964e-01 -1.527418110268927709e-01 -2.701054006110164551e-01 -8.398270284120278317e-01 -2.790010351321232096e-01 -4.956931157473212779e-01 1.296617627242789561e-01 -3.312210885249862735e-01 -7.856945622695331657e-03 -1.039490454364516980e-01 3.870973916712517893e-01 4.316794920447552530e-01 -2.779554111313924381e-01 -9.285513409653419759e-01 -1.187214286899596294e+00 -2.605472168462608443e-02 1.421716909256987710e-02 2.369161019372845456e-01 3.531326612889041927e-01 5.374489745767488946e-01 -9.918552413670869150e-01 -1.233091462389318105e+00 1.569457957751576316e-01 -5.613334695135402397e-01 1.010332300274418449e+00 8.832166781056559612e-01 7.044672964885435595e-01 3.167220463289361354e-01 3.317309850754574657e-02 6.325609186899741054e-01 5.766242944284369898e-01 -1.381235767835107486e+00 -4.514783320881654016e-01 -3.050404924522621131e-01 -1.513764781057079511e-01 -5.079533874526482862e-01 -6.527609932593493314e-01 -4.160662461729012218e-01 -1.197690017150957048e-01 -9.304465091949819244e-02 3.130184160771700141e-01 1.552227520164500482e-02 1.049108280331291360e-01 1.691220624844071152e-01 2.872759915980583889e-01 -9.648925226942788314e-01 -5.731731870723866251e-01 3.062981978370522551e-01 4.833057865903548356e-01 -1.901863296767583979e-03 3.378605186035145425e-02 9.067946300309301377e-02 -2.994036647196889334e-01 -8.053369487161345930e-01 3.711382881900366359e-01 6.805060781895373445e-01 -3.500049555595268758e-01 -6.247965407391129489e-01 -5.027369492901073711e-01 7.580250560006884797e-02 1.016764607234550644e+00 3.367173690584700507e-01 7.245160934723039459e-01 5.481983804710391373e-03 1.357501942753474022e-01 3.550109493974922259e-01 -2.162332949386223391e-01 3.289198608421485814e-01 1.180362125407756618e-01 1.477966519555461156e-01 -2.361805191393867576e-01 -1.880542598890920514e-01 8.145548873341541540e-01 2.573808347706250665e-01 -4.518707037815135052e-01 1.923103194184279038e-02 6.386038689340359786e-01 8.429947139654509012e-04 -2.651956523638883678e-01 -1.291820825138361439e-01 6.141097856548071166e-01 -1.949122084819861767e-01 5.416382477808792673e-02 -3.696324075348979554e-01 -5.198146386114606277e-02 -2.757813238734161954e-01 6.730946734102101481e-02 2.267061854447659230e-01 -5.883174475633515255e-02 -2.045429832981256746e-01 -5.880248038435266500e-02 3.024304899966864246e-01 2.865594854980005879e-01 1.627114169921118625e-01 -2.103356946180484632e-01 -2.774194948080249135e-01 -1.880624417589739084e-01 -1.802809312684587051e-01 2.072089643513360183e-02 -1.006400206601573144e-01 3.539249277427885532e-01 5.243340078819445083e-01 2.277482445469569405e-01 -2.572149447858124716e-01 -8.103380208412562791e-01 -1.448213460776646630e-02 3.054861623113726554e-01 8.864819260551860536e-01 8.104785286721059023e-01 4.854830484753239195e-01 9.423339475977610125e-01 4.801228967283794891e-01 -3.435700013641305173e-01 -1.794033537681214985e-01 -3.120066567829987703e-01 -2.101705177418878856e-01 -3.942767243069698613e-01 -1.744045872586110213e-01 2.303278644427423083e-01 6.185753892463803361e-01 4.824626073535686482e-02 -4.601418759456199492e-02 6.027551609996757431e-01 4.621959875210899793e-01 2.856264562601506518e-01 7.938135189786350576e-01 2.296290778454735393e-01 -3.633370035728562542e-01 -6.733459885689672964e-02 -1.233486722293607452e+00 -9.515316343594795168e-01 2.821316555398318826e-01 6.977726916129579904e-02 -3.272760065949522623e-01 8.928910603289774706e-02 2.943505819534744661e-01 3.929403707700722115e-01 4.860311581581117091e-02 9.147648263967114168e-01 1.497000577222502293e-01 -8.008258333673404783e-01 -5.853516269376465297e-01 4.388273660128631098e-02 4.514459757448646693e-01 -3.393285861621391786e-01 -1.949381144016171519e-01 4.360739186755121510e-01 2.034856448990602640e-01 -4.894514409177631586e-01 2.697183455755892689e-01 -3.086744696613272776e-01 -7.240515811305526794e-01 -9.285715480411215195e-01 1.673579417842899209e-01 2.844486464659606861e-01 -5.188486899576146838e-01 -5.331829742422867779e-01 -2.134699598209600646e-01 -2.590425730239934166e-01 7.172602132323656621e-01 3.227585981583778740e-01 5.048000507129946079e-01 -3.627096565327075917e-01 -7.282222815250537495e-01 -3.050803981481440275e-01 -7.427695593572944954e-01 -1.397900582823612403e+00 6.955467399474271062e-01 6.526074460173292291e-01 3.734340857419027326e-01 2.586628276596988907e-01 2.915464247419823907e-01 1.376196158497244859e-01 -3.770325572226471134e-01 6.914728545035867535e-01 1.817252370177774023e-01 -6.604211323617565910e-01 -5.587709930201103514e-01 1.075045197768590300e-03 1.378863211827341569e-02 -6.725157123261139847e-02 2.148587435041833249e-01 2.006778049341961107e-02 -7.264585228990707577e-01 -7.087133158276753830e-02 9.388511846903926372e-01 2.233997346674515827e-01 -9.335269159656490734e-01 -1.149003467056137984e+00 3.717938965494217429e-01 -3.260845197807124007e-01 -1.030635488562800628e+00 -4.124630646997727301e-01 -1.229272782262217645e-01 -1.225721871571426647e+00 3.772986507696671904e-02 4.665459916503822413e-01 7.907482816047051166e-01 -5.263763307103366262e-01 -7.271140008003308397e-01 -1.757085673851439822e-01 4.087756995269927196e-01 -1.061154166065821913e+00 1.146422685057769897e+00 5.021151629178425280e-01 -1.633383089373653119e-01 -3.002981236035987683e-02 1.260339517523001995e-01 8.943562507967407760e-02 6.559012512761760484e-04 1.009547546567147513e+00 3.263158315270374699e-01 -2.563294817439297768e-01 -4.142985766953682925e-01 -6.017929299168378598e-01 8.334573687305148193e-02 -6.772805085407551662e-01 -9.766608610317666361e-01 1.871803857915373681e-01 -3.598615369572111811e-01 -8.120399420486387188e-01 1.391401425495666588e+00 -2.377794707362073379e-01 1.572957374591600066e-01 -5.068268392741812761e-02 7.379123176272660567e-01 -2.367667096106817748e-01 -4.780897240983305596e-01 -1.173483575434711268e+00 -2.244402280879969069e-01 -4.014073150071176266e-01 4.024718775291523110e-01 3.798093171031871051e-01 2.925178762241009700e-01 -3.944574058815371043e-01 -3.997788516780653723e-01 1.341415864537120750e-01 -5.306987135854703830e-01 -8.578907160120270436e-01 3.996528784685084330e-03 -4.576167117842443455e-01 -5.398779759238424569e-01 -4.584861821950209082e-01 -5.336840139420493401e-01 -4.335503111436810331e-01 -3.461598964169698700e-01 1.246705624419994995e+00 2.265797292234371096e-01 -4.876631325482634338e-01 3.683435903495079211e-01 -7.461270626641727244e-01 -2.633005354870581183e-01 3.630759190305328232e-01 -1.040123094427166522e-01 2.457495912096599108e-02 4.627920393604755683e-02 -9.804027968651294334e-01 7.724698272406270716e-01 3.472709333532559839e-01 1.983500524945624732e-01 5.805233174610981983e-01 6.754993234968457161e-01 -1.508263270835389358e-01 -2.765175154964252258e-01 7.389064682998442990e-01 4.767276358924911195e-01 4.132348091347029517e-01 8.956312533638185469e-01 7.247120604887586914e-01 4.448546942289900996e-01 -1.402849750513434079e-01 -4.129524234147736172e-01 4.164317718275242219e-01 -9.464720920685349981e-01 3.290262101220821078e-01 -1.675463759493390492e-01 -1.298923281478956693e-01 -5.677377603867472811e-02 -3.572063020791300669e-01 -6.381107323923920216e-01 4.087566694813174473e-01 3.175822358298218684e-01 4.620663517508128981e-01 -6.387765711189741236e-01 -1.385700107778007339e-01 -1.754279029560401326e-01 -6.512905291519619499e-01 -9.342758996430381435e-01 2.246204950850557575e-02 -2.239885899008629278e-01 -1.162168189132963381e+00 -1.004447741709577624e+00 -1.202592996164364880e+00 -8.308184107016004794e-02 1.716779363082161225e-01 4.787354044611802362e-01 -1.076233245405279343e-01 1.353674165429032406e-01 -3.296144834499526999e-01 -6.454664110368988350e-01 9.644644482381990735e-02 -4.880138932344942060e-02 -4.071081636065789766e-01 8.318350228829467508e-01 -8.545994763419489937e-02 1.474420295709071016e-01 1.001795452250096863e-01 2.710710251733993922e-02 -7.021321181144819512e-01 -1.479881813636955146e-01 1.067441484777580385e+00 -5.420444705129264656e-02 -9.695237541770134193e-01 -1.488400746697278176e-01 2.561020930772618387e-01 4.494348598685177221e-01 7.005098775019971136e-01 4.791434157275607508e-01 3.587969665311828704e-01 1.142372395646521210e-01 -3.479834129666050102e-01 -2.498862963852012398e-01 -1.022800141927547202e+00 -1.389688402659057520e-01 1.376099521178248131e-01 -1.789098035558674138e-01 7.666394593924319434e-02 -2.797728350614134968e-02 -9.047300050790404446e-01 -3.351489664653988232e-01 1.631331727505838658e-01 7.599113879661650861e-01 1.076323437579960851e+00 4.775309485545406463e-01 4.939144748043423627e-01 4.776990267543859692e-01 -5.122987272938910319e-01 2.327865995545322364e-02 -2.351948930606977128e-01 7.144384494586298873e-01 1.300616566645909356e-01 -5.195509104482552015e-02 -1.458933656038504667e-01 -2.954242723918051872e-01 -8.643549324003833023e-01 -4.250058257179411547e-01 6.824130657183378190e-01 -1.068973114629840765e-01 -2.718278812005759937e-01 5.070308943128176010e-02 2.059597687751479056e-01 -2.182280408801815993e-02 2.853370691734877784e-01 1.827468221781685387e-01 6.502476097090586528e-03 4.152674684182781073e-01 2.716063495376100281e-03 -5.315412229273348554e-01 -2.752154720994913761e-01 7.782076148743601041e-02 2.144589370483044113e-02 -1.438460631084106239e-02 8.314031972857011121e-02 -4.510969717915330190e-01 3.032215347003692774e-01 -4.565251235798234997e-01 6.771986986513333084e-01 9.429668262294584880e-01 5.887134747729302342e-01 3.788436282889529050e-01 3.778008129157713335e-01 2.329897623110148974e-01 2.801497807298853893e-01 -3.552825949811334594e-01 -1.347382034595358616e-02 4.202854746459145918e-01 4.407934174100765906e-02 -3.983614772133186044e-01 3.728915860390503156e-01 2.910178790913945379e-01 -1.649483491545807590e-01 -3.912925063793926683e-01 3.760259025474377848e-01 -1.578517599426387807e-01 -3.400555098020790479e-01 2.610641062108348120e-01 1.127019178123996462e-01 1.617901819888118431e-01 3.988373973607401979e-01 -1.050185733781590774e-01 2.261769066451358723e-01 2.952828775397708938e-01 -7.335515798574407942e-01 -1.921083177186728441e-01 -7.310027457891270508e-01 -4.219909014429449323e-01 3.387622683913272814e-01 2.032979875246358203e-01 4.840208280580430844e-01 -1.070895827842164305e+00 -9.372208188019108821e-01 -2.761788576610172408e-01 -2.387790185464411796e-01 8.167525596256053344e-01 3.061090836101990620e-01 9.497523070223971020e-01 8.182198791561193785e-01 3.105591752342831691e-01 -1.261908294848541057e-01 -1.154497618914591406e-01 -2.366211009845508029e-01 8.572468756608143947e-02 3.693857782845330617e-02 2.350363421157268262e-01 -3.087509222281602517e-01 -4.954204481716354413e-01 -8.945950857230344777e-02 -1.111169635691138691e+00 2.180834856529714760e-01 6.325444779324501665e-01 1.255318811873855911e-01 2.303289604085847209e-01 -1.092396469295371375e-01 -2.420607514715209518e-01 -6.362741883983391578e-02 -6.388883911452312644e-03 4.809046293113427017e-01 2.194222005200776315e-01 -3.395419822639926255e-01 -2.544423756751582610e-01 -2.152873476742672432e-01 -3.936566810138746875e-01 1.307881585881897901e-01 4.940903595434749107e-01 7.258914122384533263e-01 -6.418226860876128370e-01 -1.384011343377393732e-01 6.262694900222411099e-02 -5.972267073166732665e-01 -3.751521254668925276e-01 5.912475511396609873e-01 7.265641017563568838e-01 4.448749827943207502e-01 6.402874606355770659e-01 -4.878726262636845501e-01 -2.991114028737780206e-01 -2.443380290726453186e-01 -2.770307125282969740e-01 4.862014542701101338e-02 6.592062478877793730e-01 -8.306630678603192652e-02 -4.670788036921071917e-01 3.106213952630490494e-01 -1.353724957944390794e-01 -5.219175798642216035e-01 8.566718395244473649e-01 -3.162711285730506194e-01 -2.365298548561904635e-01 -9.049852752111579857e-02 -1.250025534310140740e-01 1.169218765745178995e-01 -1.241904065286601744e-01 -1.412227672071401097e-01 -5.101837698377227337e-01 4.700227019169459508e-01 1.039624883052164134e-01 -4.434645818496530945e-01 -1.767518811672527668e-01 3.409955303538954596e-01 9.683338536718647527e-01 9.003928135774417196e-01 -8.829577869214259023e-01 5.673306225303607064e-01 6.798918930403063943e-01 -5.937032163667967932e-01 -3.697459090082718114e-01 3.191391571523363724e-01 3.978045013693328191e-01 7.158739572842650611e-01 -1.341431684109686828e-01 -2.487669055125865392e-01 -9.512362942022597467e-01 -5.977518249251967397e-01 -4.989371597180111001e-02 -1.509372633570122135e-01 2.000047044183400624e-01 -6.466174377458735467e-01 -3.728449838336599376e-01 4.053022194815422696e-02 -4.820120581286942429e-01 5.915507306491297329e-02 1.154746255425902257e+00 -6.176411844212474911e-01 9.791013731792971853e-02 -1.527594107759097097e-01 1.185923150307788276e-01 2.708481698885197853e-01 7.989092213800897957e-01 4.839725731381152030e-01 -6.009710852094730660e-01 2.205440170203740169e-01 -3.082324794968470116e-01 -8.921883990035253675e-02 -4.322635420442024756e-01 1.025525183612489011e+00 2.058343311708756285e-01 4.894765329994358871e-01 -2.011935354085962468e-01 2.475171216386284068e-01 -7.962321861250752641e-02 -2.184595773804652932e-02 4.114661805110343962e-01 1.856898695267772126e-01 8.193167338863961702e-02 3.152238965765627454e-01 2.251838579809861962e-01 6.906917236455283327e-01 -8.704358360895543267e-01 -9.269798055419424809e-01 2.895525850187036232e-01 -4.390340447979185212e-01 -2.386061237739552920e-01 1.523527693724809340e-01 -3.729942156030884304e-01 -2.618146082962332852e-02 -8.267548651510069346e-01 4.798132540524440159e-01 -3.998525776906573792e-02 6.304944629953154744e-02 -3.064048963665920167e-01 -2.288979609935087589e-01 -5.548187198584045854e-01 7.427093043929935412e-01 5.389315464508775966e-01 6.995643632795127687e-01 -7.965430050452873001e-01 2.789941281901394676e-01 -1.845281965471707308e-01 -1.133150690326719889e+00 -1.607752875630316935e-01 4.810839761151190774e-02 1.974598192965211496e-01 -1.637890763367506608e-01 -5.525894211119145583e-01 -1.858939474072143772e-01 2.457065466846041456e-03 2.345748318101087693e-01 -5.595244216451413788e-01 4.057358418897057395e-01 -4.229380749246990367e-01 -5.392213954180298252e-01 5.187969852997537101e-01 1.633429976810806927e+00 -1.002890834868806813e+00 -1.200071017694349429e+00 1.180609969627868683e+00 -4.213795812087953729e-01 -8.661591067402074628e-02 2.380345431447339621e-01 1.393904002156839406e-01 -6.965450194769852166e-01 -6.971169747624230695e-01 6.506381465790741503e-01 7.433701045828069454e-01 -3.023314911147679251e-01 -1.443617448860435096e-02 1.899012125393707562e-01 -4.083162510620304553e-01 -4.224039657558629757e-01 6.795511981617144981e-01 1.155288406206245039e-01 -1.396533553442937059e+00 -6.513186144911065067e-01 1.753161537785835888e-01 1.772008585037384565e-01 -1.961669853161596977e-01 6.651109637568241029e-01 5.783922850276616012e-01 3.381280154276057881e-01 -7.258800616746085010e-01 -3.644836515792711923e-02 -2.251292654149340267e-01 -4.243071655649854335e-01 7.031832903318676609e-01 9.684777994690301206e-01 -2.424255311554092962e-01 -7.107351127434303750e-01 2.860498240809170589e-01 1.072799712846598696e+00 -2.226829751241941879e-01 1.569412151847947995e-02 6.089905531028513286e-01 -3.706063857038714437e-01 -4.345152004793088052e-01 1.260518830336863072e+00 -1.248588289338040981e-02 -4.608249925751997655e-01 -4.990280084289220319e-01 5.272059142492777628e-01 9.036874370374385901e-01 -1.600519920654396369e-02 2.009147533941112451e-01 4.969662073204286767e-01 3.064745915661988285e-01 6.522058524246782119e-02 -1.484376777085371912e-01 -7.113094549415304169e-01 -1.725411849617836391e-01 -1.540284434241260270e-01 1.554493615044649224e-01 4.981207862113434803e-02 -1.145692452459454030e-01 5.283954997369411100e-01 7.161891032451781491e-01 6.046898758480815372e-01 4.229174990150559865e-01 9.400192514349285655e-02 -2.354645840629014109e-01 1.091978976024546161e-01 9.297692355708186973e-01 8.820736408338794021e-01 -7.624393688778700051e-01 -3.435346070230410054e-01 -9.054920098637164738e-02 2.813834577099095235e-01 1.695508480768474213e-01 7.067440674084419783e-01 -2.448249506460104807e-01 -2.407548653295868146e-01 -4.555127995736898416e-01 -3.802105853885783815e-01 2.697857064394844628e-01 -2.383334758538477316e-01 -1.524788229870815449e-02 -3.461883251274103235e-01 4.477538487733889044e-02 3.120855040677504855e-01 7.631792164162908010e-02 5.623271771195240132e-02 1.650403453794143660e-01 -1.420485690692349090e-01 3.240422994479217333e-01 1.948714325938063208e-01 2.187544951879208666e-01 5.634536496977778919e-01 7.218132034776895134e-01 4.186347630643560969e-01 8.277464097714766211e-01 -1.452814529045233227e-01 5.018791645173418248e-01 5.914077802589805533e-01 1.422184855122246294e-01 -1.077158928050119258e+00 3.218180104555490861e-01 -4.791007408084636543e-01 3.100063512569133442e-02 -7.280444363207178027e-02 -1.556347109295115952e-02 4.316483353880633533e-01 1.525402529561235010e-01 -3.123212041575184617e-01 -4.604890951617870432e-01 -2.311216142439095345e-01 -2.473379053620197443e-01 1.616015477655439320e-02 4.484185031667580618e-02 1.600639072863517531e-01 -3.603274105804761818e-01 -1.166896236250522412e+00 -2.475282553311562717e-01 -3.794117005915466634e-01 -9.735345751614753462e-01 -3.174583276905583173e-01 -2.350465030960715851e-01 -3.548372217183888289e-01 1.050961957306475320e-01 -5.673376073928474428e-01 9.566614648526253206e-02 8.573771720437023403e-01 6.644272725221683773e-01 -8.341237339479289359e-01 -1.130624407470255249e-01 4.797026944457103426e-01 4.037869761902876387e-01 -3.314745621771302275e-01 -9.152717291361263108e-01 -3.760249631676267079e-02 1.346824655818603389e-01 -1.327537454030188468e-01 7.733113245077469222e-02 -4.605082291493685365e-02 -5.426301434050485595e-01 -6.159671516331696739e-02 2.337532039136362427e-01 1.058806211915767487e-01 -3.237975863045456926e-01 -1.638643081411062852e+00 -1.132734811608119285e+00 -1.041771794715974808e+00 4.138391371887641390e-01 -2.956812786027283868e-02 2.041432929251084383e-01 -1.206429002051897237e-01 -7.599950001752636686e-01 -3.747580808727414281e-01 -3.944722535514896128e-02 -8.163674718151910925e-01 -1.227089863621102644e-01 6.283770552986259750e-01 -1.828299486765057602e-01 -4.375507671680832211e-01 3.919245616458101877e-01 1.294892897716279911e-01 -1.857006492568488987e-01 1.084502373613089432e+00 2.245408081319513194e+00 -7.077391666114405400e-01 1.638680192677600261e-02 -1.682597393984034684e-01 3.394115988228117442e-01 -4.154334889333343717e-01 8.608791768862371629e-01 5.813411775060731701e-01 1.248584336093985087e-01 1.975644085653478210e-01 -2.820637414193337134e-01 -3.902641863782775333e-01 -1.052415898519482029e+00 -9.284629653390585879e-01 5.965475805507283735e-03 3.058964048732969454e-01 -7.139516394137911393e-01 -3.200329940608457324e-01 -1.127162268243919074e+00 -5.837765201216742472e-01 7.276783793719862059e-01 9.455766013322658425e-02 -7.510872174020129244e-02 1.370051432108492229e-01 -8.823030133079014237e-02 5.412067817696224470e-01 -8.614002469469160816e-01 -1.248089866881967325e+00 9.355738099758331705e-01 -1.479224287950118288e-01 -3.697813934819027537e-01 -4.121409498875894251e-01 -1.091648223657138289e-01 -4.625881281082262486e-01 -1.841950186747939033e-01 1.490719644075567674e+00 1.139792138850330927e+00 -6.906821594562791988e-01 -1.921050155822145999e-01 1.682253174640087889e-01 6.195425847113667644e-02 -1.598854734250355902e-01 2.585603021516829150e-02 2.782414587456349953e-01 8.795068282573976770e-01 2.140198580506822990e-01 7.388616587263484581e-01 5.377807283425191098e-01 -7.452256777571181212e-01 -3.968334836664272336e-01 1.278093628334877052e-01 -4.079183937008760280e-02 -5.038349744107168959e-01 5.450576364242027960e-01 8.391924552405666260e-01 4.267495936539277279e-01 6.113867589041276362e-01 4.907012411646331507e-01 3.826787618585979489e-01 1.456017670976373080e-01 3.336747318615793101e-01 3.824999184831556209e-01 -3.654452680935209030e-01 2.466278661732800026e-01 3.299256339891545320e-01 -4.674668081451070489e-01 -2.539524649554888436e-01 3.088013762945319984e-02 1.708202967170097397e-01 -2.005803564096684533e-01 6.001229886018535353e-01 8.181243715536142824e-01 3.007984280090247875e-01 1.968431618804615257e-01 -2.639208678452870452e-02 -5.246216746184994006e-01 1.603137311303350632e-01 -4.306719295100734923e-01 3.599756517267860834e-01 -1.747943882074710353e-01 7.323034760198269266e-01 -1.076923391872253860e-01 -1.718611218802515786e-02 2.279925444582678040e-01 1.001573033698532345e-01 2.386535717844332771e-01 5.521334165680531932e-03 9.610869324667488389e-02 3.146719457214993132e-01 1.773591645356869528e-01 1.174429021008512458e-01 3.815599262867477304e-01 7.539758803457730085e-01 1.566677156432597917e-01 -5.589084763714474713e-01 -4.851921153816873833e-02 2.773699777884081064e-01 6.023064047634456575e-01 -8.440845179398731579e-02 2.587134634539071665e-01 -1.537024569535257179e-01 -4.337867983380195858e-01 -2.272363794401298376e-01 -9.934927277846547500e-02 1.405657486986748306e-01 3.726427271163059718e-01 -1.608602408761160979e-02 8.001411750638605103e-01 2.567308099621820050e-01 6.692694085694195216e-02 -1.104638885185975777e-01 -6.122324577820967839e-01 -4.647401267678068493e-01 8.786580160612117441e-02 7.620590999214996719e-01 1.057711082522987955e-01 1.565289905712489715e-01 -2.194794965732036751e-01 4.296537068123536772e-03 -1.281207421000982172e-01 -3.600221162849869816e-01 -4.591892248917332497e-01 3.675942011129998965e-01 -9.976347436695935933e-01 -3.165686415873687487e-01 1.087515337781784774e-01 5.373323119853639085e-01 2.505796305440456395e-01 5.589670640623984887e-01 3.923722142910057720e-02 2.537684370563165759e-01 1.120188711249021363e-01 1.266080823584837256e-01 4.132400292327207958e-01 -3.307863315993413433e-01 3.004020018994725261e-01 5.114110488442701330e-01 -3.063317268985221165e-01 2.127315628080185261e-01 6.235259906112476935e-01 5.808891792018733291e-01 3.651881619501718967e-01 3.887631675985164792e-01 1.020023027247191960e+00 4.694507274131085039e-01 4.108664571169827751e-01 -4.604118405781165158e-01 -3.686851944721806218e-01 -1.397320436324733239e-01 1.537685190228856580e-01 2.421487493286071102e-01 -3.228272142934660582e-01 -3.928339860554407315e-01 4.495753710200438569e-01 -1.933103336575905939e-01 6.379055305409508936e-01 -1.089325791206242483e-01 3.981424858726513305e-01 9.688646156219704597e-02 8.515365928557067088e-02 5.815189752967884207e-01 -1.723173923102923888e-01 -6.354938143624995484e-02 4.499721331697983939e-01 1.795363648225796194e-01 4.243501306539240736e-01 3.993609495281699173e-01 -4.440532175940060666e-01 -9.555835298059041083e-01 5.043705389465957117e-02 -2.086488560721614649e-01 6.016766633000145692e-01 2.299458636711604886e-01 -4.816342593836622776e-01 5.317261230209172629e-01 3.713638018025168797e-01 2.307815469901684513e-01 -1.023730894014887316e-01 2.142805069606328328e-01 9.910628071805424044e-01 6.216971439454728188e-01 -2.690441059672768476e-01 4.449156159443266589e-01 -4.089864243358811158e-01 -2.038619352452201161e-01 2.258621960364342596e-01 -4.698794467510997858e-03 3.391753365084893002e-01 -4.849748845403744624e-01 -6.154109569211264619e-01 -7.387011216239259825e-01 3.730310678389550660e-01 5.368809647246592931e-01 -1.041387100049939868e-01 2.109026582290617902e-01 4.534577021320492646e-02 8.290860269532954185e-02 -6.396808246599441361e-01 -2.903921474311935147e-01 -6.070899514129048102e-02 1.811612656761130702e-01 7.468049008078064821e-02 2.985158411705078896e-01 -3.479090202646855506e-02 -8.380256213346308491e-03 -5.353588845049142009e-01 -3.096433224320723210e-01 9.244277516204078837e-02 8.151934085979803957e-01 7.293546015410819205e-02 2.976201787408691568e-01 -1.166254595526330790e-01 1.843618900368124425e-01 -3.123622478739303543e-01 -5.921840573442376243e-01 5.446087245707689067e-02 -5.319615026701567384e-01 -5.165232870425856548e-01 1.062627431254449389e-01 4.900973502445571950e-01 -3.950233015049966351e-02 3.176018140731510370e-02 4.782180363076659058e-01 8.886803492437397312e-01 -2.862968117421159364e-02 -3.511162531597963876e-02 -9.641689730590070895e-02 -1.384643291975855006e-01 -6.702895519171823968e-02 2.036957621134495855e-01 4.317147834794917149e-01 3.039037065025571027e-01 -2.448355507878519355e-01 -9.321526766414911513e-01 -5.070106692772006207e-01 4.555223668875953980e-01 -1.594557544025507478e-01 -1.568534855583005039e-01 5.614583655805254203e-01 -2.769637637662831220e-01 -4.615753415385319136e-01 -2.309654460599984693e-01 1.125722454790097249e+00 9.652818935820767221e-01 9.951873864940806724e-01 4.718288773748750553e-01 -6.859901011697580597e-02 -1.152186122672928942e-01 -2.240497314292990150e-01 -8.705805613730968062e-01 -6.286641625736569816e-01 5.679573149753585071e-01 -1.026512428157729528e-01 -4.909070599442382776e-01 2.592508650108794055e-01 2.056176023334073677e-01 -2.989621159299159503e-01 8.077878973065141799e-02 2.464301924051996440e-01 2.773580624319789689e-01 8.968383175107850873e-04 -3.137991768576193358e-02 7.293888030900440300e-02 -3.239540128605839509e-01 -2.295991654984929353e-01 2.003794375584661558e-01 2.975804065697521539e-01 -1.793916389242788609e-03 1.995101237466984645e-01 2.576358575983104804e-01 -9.860511180451110302e-01 -5.949937886926008612e-02 -2.150354263524594522e-01 1.088175414452187545e-01 -6.795236909125431692e-03 3.620504771999603216e-02 -3.677723216553069330e-01 -2.056426449837941983e-01 2.711734310900343892e-01 4.022088819741931887e-01 1.096542562192605041e+00 7.952333759502622224e-02 5.904617897744719041e-02 2.493060371990408197e-01 -2.304491385897531053e-01 -3.704619418591265645e-01 -5.420278668081940365e-01 6.826746573078151803e-01 3.811289575918443973e-01 1.979356079162470639e-01 2.747127160019512404e-01 -2.333143543347023230e-01 -3.319075797252544757e-01 8.578515906019468229e-01 1.297657357707311665e-01 8.077312821390001396e-01 1.149937218663660943e+00 2.658994011168296367e-01 -3.645218737632425210e-01 -2.142162134976586252e-01 6.280848306408769455e-01 1.087016130542343556e-01 -6.455702619253661512e-01 -1.950221401519246223e-01 -4.166128423951855758e-02 3.746584921412055014e-01 5.083852587374625420e-01 4.282931542295458360e-01 4.044663505443711893e-01 4.729510331276144952e-01 4.636311956887030905e-01 8.163182583447710361e-02 -1.682806209823315136e-01 5.054117846070346198e-01 9.966179596771557181e-02 1.093138309446969547e+00 7.939767801496306898e-01 2.180748316695838851e-01 -5.941907028051133244e-01 2.825977303625534787e-01 6.818734715030863591e-02 1.138988808869322578e-01 9.791461334924199400e-02 5.219884179797874557e-01 5.844294024872203480e-02 -4.830823066873896066e-01 -2.435405607858992794e-01 4.697197678308562829e-01 -2.332209120111234657e-01 -4.821997816481320975e-01 -1.964075988296646591e-01 -1.339769897408896737e-01 -4.356380799496283041e-02 3.451670197334543722e-01 6.313872553034501067e-02 5.761178369150194989e-01 -2.661308722651715281e-02 -5.931614480502597764e-02 -2.945584344374516453e-02 -7.349277966206035906e-02 1.713329842053721852e-01 1.005421431353186401e+00 -8.723340951418839806e-02 1.316218871562963022e+00 4.201872240410529646e-01 3.956033598424965603e-01 1.812134982848818271e-02 -1.062255949097252183e-01 -3.446884528437371142e-01 -5.141071626812797613e-01 -7.892268272693050424e-01 1.455562486206966044e+00 1.331007722384107028e+00 -6.436670219349841515e-01 1.257479044561890004e-02 2.470944082813079923e-01 -3.555893089056777479e-01 -1.247218227670751495e-01 5.726276412611897015e-01 5.116654597395129400e-01 -1.012861730873841237e+00 -1.055721830570447883e+00 -1.744724640582024366e-01 -6.266990680787922763e-01 -4.855221670737899231e-01 -1.608176143618666176e-01 2.873387899912914767e-01 -3.631558785679422918e-01 -1.349974412321907513e+00 -8.474601866432864838e-01 4.455800378036499365e-02 -1.279125790065353818e-01 2.797063896685413886e-01 -1.592262935047212002e-01 -8.322339219233498842e-01 -8.198011569767080786e-01 -1.393352215878209677e-01 1.197700797714767784e+00 1.217163616576787954e-01 8.912042679161514824e-01 6.766193901797901145e-01 -4.554182249731828502e-01 -6.007412425334385069e-03 3.641704345186591585e-02 -6.376171118561690943e-02 -6.141455581912644845e-01 -8.932976877661435999e-01 1.834185685857433912e+00 1.886675457723725025e+00 -9.128810615376791171e-01 -3.372390877775416906e-01 3.391063763744343595e-01 -3.870446983329846324e-02 4.335450538119360875e-01 1.568862180092047698e-01 -1.956558794845885407e-01 -3.540715948534289281e-01 -3.888725007947609336e-01 -8.591634339128226827e-01 -1.113515801837241526e+00 -8.195828729768407372e-01 -1.393217518184963200e-01 -3.636255255079242632e-01 -3.687084139879752698e-01 -1.451481114067938893e+00 -1.630747585734474869e+00 -1.385801442685268725e+00 -6.120811023434290510e-01 -4.079873110033330752e-01 4.517716244112449653e-01 -8.712794833021253460e-01 -1.569515525659370470e+00 -6.772067082006255623e-01 -3.784922858073646590e-01 2.813596415453110677e-01 1.035057089590090129e+00 7.525811196006132464e-01 -1.944537274938142324e-01 -6.709010752771912278e-01 -6.347303223565557706e-02 -2.141996722531260555e-01 -4.112150834013238443e-01 -1.963893149017850726e-01 -4.264851390070421022e-01 -2.402316059878093490e-01 2.366475288714673109e-01 1.750932701416335613e-01 -5.933571129031811608e-02 1.580173406636304345e-01 1.849447923830524754e-01 3.565867399506807423e-01 -3.235364156644092160e-01 -6.052032425127298332e-01 -9.037887362400061075e-01 7.061591148740874180e-02 5.968208267199068828e-01 5.320539257989491677e-01 -6.666954466652549871e-02 -2.817830844206168361e-01 -7.252807494793842569e-01 -4.577121578062363638e-01 -4.404240356713644555e-01 -4.922289723013021367e-01 -6.072757148423566509e-01 -1.623813796087010264e-01 -2.408276648992945801e-01 -4.174163693024929844e-01 -5.828179226181021688e-01 -4.804079508354198724e-01 -1.334582407131986448e-01 -6.493535673149611887e-01 4.607065375939548013e-01 2.417684428120934204e-01 1.416716969294322948e-01 -8.927539085079782000e-01 1.589106653030875616e-01 -9.145697832711137398e-03 -1.196977803362761772e-01 -3.750009181953328774e-01 -2.248577451503479541e-01 2.891093488789716615e-01 -1.342451240324153694e-01 1.162699464456071752e-01 -4.110292717179240274e-01 4.888169719514320333e-01 5.829218474176025566e-01 1.758816910697189040e-01 1.325290603791404176e-01 4.007082483415476126e-01 6.404038487801522184e-02 -1.375585080345641253e-01 4.876525419594100463e-01 2.612338098665974440e-01 -3.312708057968422604e-01 -7.739019186931921958e-03 7.020641333867665423e-01 1.026820307891348205e-01 -8.093384099936673515e-01 -3.752967803820738690e-01 -1.960830621081826319e-01 -3.075531788284101009e-01 8.478264373830285416e-02 -7.820663657774941380e-02 1.123934671671042163e-01 -1.838272868744255384e-01 -3.191211695072425636e-01 1.736871835462844571e-01 6.227689922608024009e-01 1.359231130151115075e-01 -4.439803120902794387e-01 -5.924719821445767476e-01 -5.663406733682585514e-01 -4.759823458853288392e-01 -4.045943696811046264e-01 -2.956416263612995921e-01 -6.056738599403518331e-01 -2.459415988540392950e-01 1.475096212664807338e-01 -1.475023665304866782e-01 -8.227318179094824657e-01 -3.923086300788587999e-01 -3.221934753132865148e-01 -4.211573211500332925e-01 3.768746710046671500e-01 4.224098087329401507e-01 2.994342547891852280e-01 -1.416914177060855373e-01 -3.372074335397362010e-01 1.040443488677683381e-01 -6.729557141745775573e-01 -3.373434562388831215e-01 -4.169951226311746639e-01 5.091171244076138080e-01 9.452821274260468642e-02 2.011762966413087050e-01 -5.011888615062245478e-01 -2.377937406187889680e-01 -2.116103122544810700e-01 -5.509576025422771028e-01 -4.895592096670365878e-01 -6.621664441827829206e-02 -5.381389013495959661e-01 3.496018551356655513e-02 7.294512757204596465e-02 -2.820298573146937660e-01 -4.505367750684566297e-01 -3.956354616254952883e-01 -6.299898116845095153e-01 -2.358778178994429542e-01 -4.780981651454073722e-01 3.243198112275637035e-01 -2.396858941684712196e-01 -3.146637723635978268e-01 -2.271109648096304723e-01 -2.574670705979706375e-01 6.775066643211050121e-02 -2.564357950933137675e-01 -3.727934301485822388e-01 -4.925670345588461507e-01 -2.715497739579660896e-01 8.398575841681653609e-01 8.990815169005503260e-02 -3.206064480760424384e-01 4.736302594761845897e-01 1.000738390224133363e-02 -2.527184271605874555e-01 -8.513564275265408932e-02 -3.160802725227815912e-01 -2.707424408739760729e-02 -1.502551469592189048e-01 3.241842019330686275e-01 -4.109613218481358299e-01 -4.608339995588284776e-01 -2.784585435001155074e-01 -5.195968898122269586e-01 -1.857894733510425112e-01 -3.477589603458629552e-01 -4.567119103018370541e-01 -6.647619073547850199e-01 -2.140495597716652321e-01 4.000576959291129442e-01 -5.262289669660616953e-01 -2.915182669600668852e-01 7.844825813079921162e-02 1.602691726802602246e-01 4.573795670378681955e-01 -5.332335733069351047e-01 -1.814108462951551926e-01 -6.210462689333405839e-01 -4.839691884893715379e-01 -1.549150426427294280e-01 5.200456817293437339e-01 -2.604611647379140651e-02 -4.581585671275849592e-01 -3.457656663583274503e-01 -5.485772378024147411e-01 2.983856971248228240e-01 2.366719406930505309e-01 -3.937984977783716145e-01 -2.592620738125713808e-01 -6.324969145425561878e-01 -6.203898472795443819e-01 5.139540089200875794e-01 3.462748462039713648e-01 1.083756324207750116e-01 2.209714757330171475e-01 -2.733763359867776854e-01 1.523810318247320605e-01 1.434865467134445183e-01 8.750636212083358345e-02 4.626552148587108060e-01 -1.486639251365975134e-01 -1.525337687386028040e+00 -5.997802711205608706e-01 -5.958277990205926855e-01 -7.738582225722618890e-01 