7.267847832182479095e-01 -1.296196377420906209e-01 5.680736813722825351e-01 9.075789621948440744e-02 6.755961234171969920e-01 -4.106036278367445336e-01 -1.377353852655300442e-02 1.540264056675680893e-01 -5.650506535170202183e-01 3.009086496277948442e-01 -1.587098125074434263e-01 1.070908095991503772e-01 2.388961021151623787e-01 -2.096739229364158463e-02 -7.079340291814527342e-02 -3.571503065551660527e-01 -6.142565984869104989e-01 5.123952589552668857e-02 -1.660125787548643317e-01 -3.797475805483929018e-02 2.284949394422600699e-01 1.601608443765505374e-01 7.579047703559794735e-01 2.315675195500731809e-01 -3.029870890399512934e-02 -1.741885182284818312e-01 2.180931086290122112e-01 -4.175892985670840440e-01 -4.938781976382614625e-01 1.042445241007853074e+00 2.501306612918641759e-01 1.508267894989557059e-02 -2.650267925839189243e-01 1.969920869989632839e-01 3.659917142115075017e-01 4.002058651165611436e-01 9.998959906867053160e-01 6.699371263701854318e-01 1.358423440935643822e-01 7.315622960658978158e-02 4.900019155090500900e-01 4.922232883068862197e-01 1.062307089351166578e-01 3.306334022084077978e-02 2.035263402308624681e-01 4.191282993828810977e-01 7.747682984396389028e-01 3.985515268049475979e-01 1.903079308558621174e-01 4.203391558023522045e-01 2.193039292619777814e-01 5.733088511639170548e-01 4.420722495863124157e-01 7.542147352330172971e-01 -4.044893701961851940e-01 4.775008129971453630e-01 3.423376141186806887e-01 4.968117376545916342e-01 6.139942936296426401e-01 -1.336090963046528413e-01 -2.469081520811802766e-02 -1.387926125374515929e-01 -2.990020206768260191e-01 4.432555028821651838e-02 2.113379071112453655e-01 3.877060701659402753e-01 3.672710186752612543e-02 4.500089682353323184e-01 -2.460635054407356304e-01 -2.823281375223814921e-02 -1.811595332535000658e-01 2.655208262850219068e-03 2.200000061562381315e-01 -2.676086108036412337e-01 1.504813035901631235e-01 -5.943108872638699913e-03 -4.682447259042339938e-01 1.175985159289216764e-01 -2.192433543658496298e-01 -6.573473905457259681e-02 -2.325097629705792646e-01 -1.608251942929390665e-01 6.519374784370900455e-01 -1.576749688543293004e-01 4.563259119370106087e-01 -1.108040009216570004e-01 -4.834986965760097455e-01 -2.496822248279936540e-01 -2.648833185638988647e-02 -5.995245653257246232e-01 -3.081584870429002893e-02 5.539386342606209546e-01 1.501518945170113306e-01 3.788386420916470820e-01 8.091935463769329984e-02 2.116721072583045427e-01 -4.913578686283681662e-02 -1.431810229628291964e-01 2.575029352250108317e-01 -3.076508938994891307e-01 -4.105736291138169514e-01 3.351755806865887033e-01 4.187915421843673575e-02 5.794777234951730138e-01 -8.031473639882170598e-03 1.645498171658876241e-01 5.396718374218770209e-02 2.757740255659890116e-01 3.129896608133624913e-01 -7.152149449467962161e-02 4.527999510790270410e-01 -5.963664039555287566e-01 4.591398654803678647e-02 1.465982981355460658e-03 3.792813628059096831e-01 4.784901693622041208e-01 -3.816146695172026315e-01 -6.746599214781850984e-01 3.325034259725081487e-01 -1.913009402937988768e-01 5.523242855288668096e-01 8.860710554506505687e-01 -4.613917713000809662e-01 -3.144824597361127738e-01 5.722017763109465971e-01 5.613896801391999453e-02 3.337930186033752356e-01 5.077857627987958367e-01 1.514005536188083312e-01 -7.406160971654858483e-02 5.583978946082055472e-01 5.709842495619713576e-01 4.258164482286062175e-02 3.970550790580267830e-01 5.271065481468373282e-01 1.129905912963944381e-01 -1.084130221612546602e-01 -3.305780171628006081e-02 1.809729687985222879e-01 -1.201522041074702257e-01 7.301308653610218136e-02 -7.018134413088290557e-01 -3.965694966639432550e-01 -2.095686387429090691e-01 2.818338150414297361e-01 -2.689146446768629906e-01 2.830005057909925625e-01 -5.420249530218015366e-01 -4.459184895265471682e-01 2.255043121773091797e-01 -9.285687813529723555e-02 3.648265891841644959e-01 -1.411486549339283636e-01 -3.761660347344527033e-01 4.985661821326549913e-03 1.462145684955611369e-01 1.199967127140308537e-01 3.334840180416783761e-01 2.914659255264773763e-01 4.240875201244195813e-01 -3.230419761773701270e-01 2.188397300314448291e-01 -1.051259392242603896e+00 5.702768136254859899e-01 2.414553704178534488e-01 -1.755961983573046670e-01 4.625987046487753385e-02 -1.201761782797981098e-01 -3.577741030253997478e-01 -4.436721779227754681e-01 3.134195481516927062e-01 -3.252383541864738853e-02 3.201412617920229020e-01 -3.974303323766616436e-01 -3.713094932071800969e-01 -3.873987260238614255e-02 4.595747268929674112e-01 -7.987083175772642651e-02 -5.784707812499688684e-01 2.520116147658556516e-01 -2.123663551090265167e-01 1.598805951781152868e-02 -9.085200869552555181e-02 -2.848746715359417106e-02 -4.318103449932483295e-01 -1.226312901234526548e-01 9.029971987487101989e-03 -3.049661805676821547e-01 2.632970095646917086e-01 -2.203246425349546511e-01 -3.856052970295817395e-01 -3.563772627007157356e-01 -3.546043243211075002e-01 -4.938616135379468308e-01 -2.455540627756233885e-01 2.755168572292851503e-01 1.604352584074621862e-02 6.893812457784702363e-02 8.535104261543768889e-02 1.387228389713081877e-01 1.247317441576732168e-02 6.325481029836661773e-02 1.694075799085911771e-02 5.778433015207584678e-01 3.013725101145829643e-02 1.384002687859497704e-01 7.473439470752706038e-02 -6.611764721357348273e-01 2.402138551270106281e-01 6.374909413199618402e-02 4.123767044876703453e-02 3.759146411766975393e-02 -5.648401969587205640e-01 -2.344863819061854260e-01 -5.474713175372268870e-01 5.064497003034343914e-01 -9.506056555511956108e-02 3.342421423477439646e-01 2.337037514583360509e-01 4.300522162016214844e-01 -6.142845807070935749e-01 1.223631948190393864e-01 2.254087878471267570e-01 1.065934229660529114e-01 3.235457692633550986e-01 -1.695452985974009175e-01 -4.395298176971084159e-01 -2.772836219599296437e-02 3.171697498430022244e-01 2.439474025304640414e-01 3.523343650243786901e-02 2.048938766947445977e-01 -3.472457085938637084e-02 9.402270878160400025e-02 1.966483461887760797e-01 2.154780756558793420e-01 3.651436621096110224e-01 -2.290786464489509566e-01 7.040529299950139264e-02 -2.000871420109412435e-01 1.792247632534119395e-01 -3.214664827085056409e-02 8.467769502908437662e-01 3.837273076094581403e-02 1.043978278387426052e-02 -1.532840746207548011e-01 -2.959742526110600291e-01 5.867081873619214294e-01 9.272429794116865409e-02 4.980622178130379440e-01 1.186535284918323330e-01 -4.506196931318581095e-02 -3.436044940493908628e-01 3.367548170401367114e-01 1.590824531329495806e-01 -6.105395071678885177e-01 -1.679867057955234111e-01 9.898289590907995150e-02 5.151576598253945760e-02 -1.599013867391501365e-01 5.085597458024797290e-02 3.767937546108858782e-01 3.166400671693521685e-01 1.195817669027541830e-01 -2.691688689579661009e-01 -2.507765530907489840e-02 -1.036969752686825591e-01 1.565965226195145665e-01 1.765640802318252378e-01 1.929088201785876810e-01 -1.153931285109222327e-01 2.982694790225595347e-02 -5.095280137464935910e-01 -2.681021895075058059e-01 -4.986149262600931831e-01 -1.185311577235936553e-01 -2.526435544033849845e-01 -7.141257528286414080e-02 2.408759612519791871e-01 3.088973905753750193e-01 1.083160468457213393e-01 4.090304150504150971e-01 -4.108562842968282447e-01 3.132356026798939763e-01 1.514323333440357744e-01 5.513273056794295579e-01 2.586676963126394169e-01 3.225598788050525884e-02 -5.406191997036879915e-01 -4.149721266277224541e-02 -1.245085188245706187e-01 -5.535072130162783238e-02 -1.357492971810043969e-01 -3.399708227545331085e-01 -2.837379336134178698e-01 -3.129899396137696410e-01 2.369066774826372179e-01 -2.265213853181830828e-01 1.182600618896920003e-01 7.541382634520962802e-02 4.604698772810469354e-01 -4.458847448360910848e-01 -1.008760912436719170e-01 4.970980240516417042e-02 -1.131207717647401273e-01 1.533978056114662647e-01 -1.256151125202826790e-01 2.155143638996448452e-01 2.408212328752357967e-01 -2.467571951971917199e-01 2.110791410800698653e-01 -2.241378691904411247e-01 2.141253603200695133e-01 1.601137323876529739e-01 -2.036555739367983953e-01 2.685718985680047265e-03 -6.963892165001468737e-02 -1.193946884678501463e-01 5.564792086542242888e-01 9.016350981950618793e-02 -2.566645679685946452e-02 1.421706999786743197e-01 -3.134809774686520001e-02 2.009901429111801974e-01 -4.980562698865038107e-01 1.967620661546804761e-01 1.391620537076539987e-01 -5.795193658634274492e-01 -1.181549500768244859e-01 2.108832057289542969e-02 4.032985922769058429e-02 -2.657389931486353607e-02 2.733306961035442684e-01 3.062734542362327006e-01 -2.075467241139377153e-02 -2.133432228288673072e-01 4.520537972076008604e-01 -4.072940614816303873e-01 -4.985450079248640032e-01 -3.517044547853283559e-03 -1.071054972779269809e-01 -3.113301467902302444e-01 -4.463045158828633507e-01 -2.155979770386006952e-02 -2.633718939971432804e-01 1.245693844697914610e-01 3.550699639096447369e-01 -3.901544875632789733e-01 -1.979317636337188033e-02 2.432210156538691659e-01 2.691112876179881375e-01 1.212362033647062937e-01 -3.534304407504799128e-01 -3.887469110400382788e-01 3.958374088733677687e-01 1.881413904946728499e-01 3.688335606607431316e-01 9.224401365599863012e-02 -1.971837114591130369e-01 3.529441913470456882e-01 1.828574926224585673e-01 6.465356293504866125e-02 8.399700880699174921e-02 -2.857332336814562557e-01 5.521583736260331221e-02 5.424094670496640846e-01 3.515569853023909341e-01 4.899363334931230995e-02 9.497088876949301428e-02 4.592770730591270167e-01 -2.772683536999058229e-01 4.716631640844381468e-01 5.533821346276962538e-01 1.676784909313631111e-01 -5.061186495224765380e-01 -2.516857506923214638e-01 2.721854071234153238e-01 -1.327198303013009117e-01 -6.243759956772205327e-02 -1.905255047763197152e-01 -8.946510571896332253e-02 2.129751573867728898e-01 -2.792394342049401290e-01 -7.113588466468383220e-02 -1.331923011137478574e-01 3.961121768351840156e-01 -1.302594416653001519e-01 3.600946263073775411e-01 7.220355330106081881e-02 4.698197996943972443e-01 4.405177739824445715e-01 3.684831453683800606e-01 1.517754074380900930e-01 -1.412725327089612293e-01 1.487098735377755110e-01 2.183709357310415766e-01 -9.845706915347839094e-02 -3.377924861926952516e-01 1.962487934365489406e-02 -2.721857502650038008e-01 -3.946219270082270136e-01 5.452019436471108316e-01 2.105620488122909306e-01 -2.262652261461591263e-01 4.368148363387908822e-02 -1.902364180394676141e-01 3.394695470502457346e-01 7.963893488902797912e-01 1.695730196260936129e-01 -3.128997348078971230e-01 1.590221857755541868e-01 -1.760304509228811098e-01 3.211914571638677662e-01 4.847160304648966411e-01 -2.861040612978451025e-01 -4.590519001279360668e-03 -4.935037978411563331e-01 -4.954755976787488247e-01 -7.816502963860205710e-02 3.238618149685135728e-01 2.737362785491629369e-01 -2.168179323856866958e-01 1.129449275521220153e-01 2.127619318280341842e-01 1.613281969177712827e-01 -4.656894169019695218e-01 2.335535233019026269e-01 -1.135160834606350165e-02 -5.051608074964833994e-01 1.854036196476051557e-01 2.315021711865581644e-01 4.835304832330967195e-01 -5.717258260104305378e-01 -9.939735033465450786e-02 1.017763758388990220e-01 -3.543457361533091654e-01 -8.393865600647833214e-02 6.825283359867901911e-01 4.776349485799605277e-01 2.828606040781951880e-01 1.269505477887558909e-01 4.225623539267789885e-01 2.348107071723997685e-01 5.119894809594590507e-02 9.778916069489407281e-02 -4.134374515085686985e-02 -3.536035907564623604e-01 1.443649925543244450e-02 -3.243068343057078362e-01 2.983020810459167116e-01 -6.468422880162307820e-01 -1.903864342579310032e-01 1.486238039209524138e-02 -1.082753840657736943e-01 4.030672555836714577e-01 5.742743105716656693e-01 4.153223134592800014e-01 -5.978787799148937987e-02 3.169865425185091484e-02 -9.177788807056416198e-01 -2.154360831969087953e-01 4.263967587805598813e-01 8.826698375537670449e-01 3.151209374918314543e-01 4.763806851414321142e-01 7.164713002950305887e-01 -5.924393368394272885e-01 -2.047346802661464960e-01 -1.196951256983555673e-01 -1.095461671466658182e-01 -4.001879698378930650e-01 -3.749311360649936198e-01 2.116879546050754457e-01 9.580719048334436216e-01 5.553684556606538480e-01 8.145300315096701826e-01 -2.689476337272506037e-03 7.115593470054740743e-01 -1.674726982876468817e-01 8.423993421706496010e-01 -4.648565821514608065e-02 2.526356460269257864e-01 2.281312470778718571e-01 1.533470441487891356e-01 1.477205789672217939e-01 -3.721569796161514065e-01 1.614993341612361855e-01 1.951305866209460949e-01 2.339892996213038534e-01 -4.166587161184937549e-01 -4.489232916700101050e-01 -1.895592493832989611e-01 -2.445440212149930514e-01 6.693016338354854655e-01 5.166091529106213720e-01 -3.342201717231234048e-01 -4.478615273649538264e-01 -1.371237266066264726e-01 6.655601956324169732e-01 8.753071939046574990e-01 5.280141837280759587e-01 5.095530055070887077e-01 -7.184645348740732462e-01 -2.047126283175117467e-01 3.310523629892587194e-01 -5.244261532284255622e-01 1.997703270673787945e-01 -2.890971980746666614e-01 -1.158735563476825936e-01 1.510654010744334474e-01 4.000404650086875624e-01 1.167130334263922070e-01 5.366418022101119290e-01 1.399086657693602742e+00 -8.201053307281721549e-01 -6.144576916025393937e-02 3.402922111197292376e-01 -2.439311287032606967e-01 7.985852210314321464e-01 2.256552117209599528e-01 -8.424352794123325661e-02 -1.032771396113091045e-01 -8.869838581948367162e-01 -1.605468625219509948e-01 -6.483103543096983001e-01 -6.821476340938233962e-01 -2.326668091982842662e-02 -2.315941321536722219e-01 5.252842237696121463e-01 2.183902675780953484e-01 7.024556668415141703e-01 1.791931067580446180e-01 -4.909477522584002052e-01 -9.899750722975569905e-02 -2.749961297739330068e-01 5.755868220803623814e-01 1.871743087833540597e-01 2.620711906555967530e-01 -3.169173635625058272e-01 2.349755184455632473e-01 1.033197985819476888e-01 8.244976496004192967e-02 -1.375169265779856431e-01 3.583399537560860715e-01 -3.034603088803276005e-01 1.709158888466075499e-01 3.479294096214459175e-01 -2.044862010762165949e-01 -5.357493456049802205e-01 -3.134687460506376672e-02 1.483495739884126974e-01 3.363449965755946347e-01 2.691337487244777060e-01 2.802194258788885395e-01 -3.481531843969595252e-01 1.065624089366966482e-01 -2.826789402132334067e-03 -2.642542701142668871e-01 -3.672275292395935642e-01 1.328527857883533558e-01 4.912539089906303169e-01 -3.242083932962663284e-01 7.317738244328078068e-01 -2.494617600863049955e-01 -5.993322390015467516e-01 -6.914570598115245270e-02 1.591356953755666825e-02 -2.187430385701824576e-01 -1.964630391828628420e-01 -2.246885572687940813e-01 4.507240613100503279e-01 -3.204419098830814661e-01 2.788886551811368270e-03 -7.302307417991469318e-01 1.422593096086536002e-01 -2.632399270145693304e-01 9.893770849940070056e-01 2.824306069978197442e-01 -3.737487726012095335e-01 -9.823371941022446263e-01 -8.262989944522901309e-02 1.128492017737003777e-01 1.352296094506583446e-01 -1.899781336889283245e-01 -3.837518409288038362e-02 2.095607044629280158e-01 2.249600806121974939e-01 -8.318741966342713123e-02 2.509414877679425615e-01 -3.379823503929016981e-01 1.299139724605240589e-02 1.581261693784755951e-01 -3.342365460019587342e-01 2.132604346953115848e-01 3.211993599421835155e-01 3.634203566490603055e-01 5.235502048164149963e-02 3.803949583000892920e-01 5.407723079623512064e-01 -1.802425671829213996e-02 -1.737373942482792755e-01 -8.462251998326728031e-02 -5.271669731267767528e-02 -3.455725438014022322e-01 6.143071789069861482e-02 -1.942440262384870775e-01 8.512334590286409902e-03 3.950809823696746492e-01 -1.393962745342226250e-01 -1.021832319392710492e-01 -6.140690284952622369e-01 -6.535862074564815494e-01 6.109869359400050409e-02 -5.132719836999394269e-01 -7.984191603128325265e-02 -3.756220928390481273e-01 -4.038897395840705951e-01 5.172705159090588145e-01 5.110140245333714137e-01 3.056661554211191345e-01 -2.314029589160982447e-01 6.007375697697053818e-02 -3.888424845559213527e-01 6.809338232391399792e-01 -2.281878295920710398e-01 -1.432273916787804302e-01 1.132375534125996119e-01 -1.216655969512519114e-01 -3.487201921208330641e-02 -2.477863609213121765e-01 6.633453335252817440e-02 -4.613431941753121102e-01 4.242999310736271235e-01 1.750044586300948668e-01 7.377193419211754977e-01 3.408766317395361400e-01 -4.020611486145844182e-01 -5.340315234150405654e-01 2.637545969101217080e-01 -7.674566885113571768e-01 -4.265918916886216605e-01 -2.613668901132215061e-01 -1.846902911959943938e-01 8.614375671732796835e-01 -1.268074734345945309e-01 -2.441653789328495638e-01 -9.416708921202816551e-01 -3.911878054231454627e-01 3.154097678454708120e-01 1.134172250476572996e+00 -5.836140826159490480e-01 2.457880766484087653e-01 -7.732280995769065246e-01 -1.711388636396824203e-01 -4.072827312003719780e-02 -3.131854343162017162e-01 3.006724346741225795e-01 -1.588720989927452920e-01 -3.966947468695525281e-01 2.606831663304511326e-01 1.964083025388765336e-01 -1.421946577531914974e-02 4.236629811751040364e-01 2.783827895277486419e-01 5.549259906030985789e-02 8.127098774801812253e-02 6.862190014208240374e-01 1.666295468924393064e-01 5.409077663042446416e-01 8.227353965362102506e-02 5.395194889815940753e-01 -2.260839499671579989e-01 -5.069479784189065974e-01 1.653642977748857532e-02 -5.914874984088939330e-02 -1.059673685919770431e-01 2.029332847581893362e-01 -5.074179532549768501e-01 -5.226505370955409902e-01 -7.479444808511778731e-02 5.344601509723925781e-02 -2.923361879046939005e-01 -2.464402869350081626e-01 -8.156992794220516152e-02 1.555082978998381382e-01 -3.722423862920342108e-01 -1.119011128599310956e+00 -8.858079716261774150e-02 -3.386272102211559942e-01 -5.706705327810012163e-01 8.049291502582842650e-01 3.182241553533083356e-01 1.428775028879930298e-01 -3.072000774580485039e-01 -2.699656470706425782e-01 2.008450260179175384e-01 1.794417306416720148e-01 1.914549404837687652e-01 -5.797604268549183537e-01 2.538736476288464550e-01 -2.768478815378304092e-01 -9.537647865682394310e-02 2.162761394576153406e-01 3.007802584553059821e-01 1.960269717351283691e-01 2.563515312062404350e-01 -4.839094203347468759e-01 -3.322359229717772866e-01 -7.325517509415309103e-01 -1.738995607417941902e-01 -3.511670904153692957e-02 -4.199208171169253045e-01 -8.444832884251093352e-01 -1.049649965099760385e+00 -3.426913233827383887e-01 -5.408856810204348831e-01 -3.343987787267206635e-02 2.596760908757536276e-02 -6.189269234584220403e-01 4.468859983622541429e-03 -7.380873507744339923e-02 -2.400370752408172714e-01 3.756904310072229358e-01 -7.060465223562994996e-01 -1.575653083027676871e-02 -6.202964841946293495e-01 6.373049369341693415e-01 3.084538514026955447e-01 -1.441436821188177009e-01 9.230120978545458543e-02 -1.833879473532682713e-01 -1.192510624255325308e-01 1.046652991212805028e-01 9.982755865920486804e-02 1.281980218902145363e-01 -2.877660627686133912e-02 -3.899202058465002785e-01 -1.065079442883051612e-02 1.919936928209907134e-01 -1.790049180464665657e-01 2.971815857176978160e-01 1.379838630965597723e-01 7.319081823681741761e-02 2.926497712185198719e-01 1.497418064361685786e-01 3.110588696518313823e-01 5.343425534465251481e-01 -2.016887369221701531e-01 -1.682150836924732329e-01 2.337712197045446402e-02 1.360010742487078317e-01 -6.560757536740726703e-01 3.864768740546029591e-01 -1.571369282049727423e-01 -5.519731895313794157e-01 -6.976143794631227690e-01 2.646108553090217308e-01 2.402160935121656071e-01 -1.439302277183272527e-01 3.873097485604909962e-01 1.402049624331127842e-01 7.463375148159043793e-01 3.269878571173390758e-01 1.123334981782304481e-01 3.233555052850019540e-01 -2.311282466954353854e-01 -1.035777664153812866e-01 3.307541650865797322e-01 1.988129570199046181e-01 -2.309939257928823597e-01 6.011759161331642343e-01 -3.228435764396570540e-01 -5.551754277557757050e-03 -1.950906950029433207e-01 -3.139720568412826714e-03 3.938895424417130364e-01 2.875354395416897524e-01 4.088259708071399490e-01 8.405500853581723275e-01 2.517820125663849939e-01 1.312178061915795224e-01 -1.260361189032098428e-01 1.673242441698039595e-01 -3.342626748097543565e-02 -3.453633144871731675e-01 1.165841201763675450e-01 3.803765854558883164e-01 1.212266094043858433e-01 1.706283712513512740e-01 -3.352721938893828413e-01 5.838775545760968022e-01 1.960530105570459369e-01 1.587823825848340697e-01 3.712978787458310337e-01 6.668158238532067017e-01 7.356025546101998547e-01 -7.657913107338042424e-01 -2.108728878358802350e-01 -1.214251781889129772e-01 1.586893080950647350e-01 2.118955632465817918e-01 -1.248708132282888572e-02 -1.550364711638112514e-01 -2.423396337382473509e-01 2.002640195254933291e-03 1.180134782083488848e-01 2.836403853878616266e-01 1.048021374797547395e-01 -5.117728569726550658e-01 1.211657387873984609e-01 2.206482996771468308e-01 4.933728811267446002e-01 -1.721233401279861075e-01 -4.072218324476665208e-01 -7.825117572531802290e-01 2.022757628079712433e-01 -6.946651994208276060e-01 1.340760612333724011e-01 1.312061959233225827e-01 3.589394450602460540e-01 1.801566557664096291e-01 3.533885063173879959e-01 5.631778073848608956e-01 1.196492613349233458e-01 3.231058383383134669e-01 -8.929938593144441661e-02 3.996678870437022080e-01 4.109236738724865168e-01 2.979157673424645547e-01 1.565118415893762827e-01 3.554130908121787003e-01 4.100553308684845022e-01 -6.242610805169206412e-01 -3.532455975222854178e-02 -5.092579785088189315e-01 8.683723657577144261e-02 -6.944887127677525085e-02 7.594938753036561963e-02 1.413720907834041529e-01 2.371838116539218277e-01 -3.569570782318396973e-01 1.019708608762413538e-01 -3.348442146671882780e-01 1.751047952042832645e-01 5.860470518063319867e-01 -3.833969302223480535e-01 -3.694315677206262000e-02 1.980406304383702104e-02 -8.235207156275703433e-02 -5.965127881566154588e-01 6.493822477766915124e-01 2.413834903101915452e-01 -4.667328263469441851e-01 3.169104861238324355e-01 3.227860935032138279e-02 4.869231844793143749e-01 2.609708393877548382e-01 -2.426564053355139139e-01 6.202426581991953292e-01 6.552688527884852343e-01 1.698273410869467759e-01 1.196010065232502306e-01 -4.210121118207609259e-01 -2.262262027382053731e-01 -5.667132171671536156e-01 -1.713879528374199490e-01 -3.320503985162668315e-01 -5.501552246535109658e-01 -5.560637545319971897e-01 -1.402796530825503075e-02 -5.165860389823699883e-01 -3.269693780706253716e-01 -2.820961421224727483e-01 1.856255182957726735e-01 3.280018459070156989e-01 3.525927146813966073e-02 -6.450360833431619811e-01 5.087137402087698462e-02 1.484909262115341640e-02 2.211155460483879842e-01 -1.424568592547500179e-01 -4.676193344830919529e-01 -1.910843780998927044e-01 7.612418922421576584e-02 -3.287872032039186876e-01 9.883505187213972865e-02 -7.213412508453136140e-02 8.881941534623877255e-02 -2.747937738751429770e-01 -3.018519431644591799e-01 -1.770654209306347093e-01 -2.880431008898107215e-01 -2.401384148446587263e-01 -2.306010890051500006e-01 5.526713296953061905e-01 -2.307218596535352273e-01 2.628423160495900746e-01 2.171324440084132223e-01 5.540295095356572580e-02 -4.337004181323089180e-01 -4.862340549782218635e-01 -3.029223270473898055e-01 3.307933702459572856e-01 4.909158597492555703e-02 -1.406647754348614998e-01 -1.174291701250465975e-01 -6.817675601542000363e-01 -2.516995527727050042e-01 -3.110655776094584657e-01 -3.663855185297431594e-01 1.690628798242983233e-01 4.529897424378450110e-01 4.223799939979665519e-01 -2.806324069032738455e-01 -3.523043822608917797e-01 -3.609533964552455454e-01 7.610660317810293007e-02 -6.752131534507003208e-01 -5.128558274382349208e-02 1.667653374380780040e-01 -1.192410098815910591e-01 -3.334097712400819202e-01 -4.992099799947083416e-01 1.844226576595254796e-01 -4.602817051849938390e-01 -1.944159464375265767e-01 -5.815300057215050389e-01 6.547542424756948032e-01 1.169291465827859561e-01 -9.340985488435341599e-01 -4.893459413628215016e-01 -4.320348060865059070e-02 3.766394491331205296e-01 2.161669195475512673e-01 -5.761527617323775226e-03 -2.824680170600618601e-01 -2.408675815155658928e-01 -1.128943133076499850e-01 2.211464487222233877e-01 -2.985277613443342859e-01 -3.517407718463668731e-01 3.411700353241709643e-02 4.821649888819855567e-01 -3.606283198688146896e-02 2.613135012627502141e-01 5.629659740120955824e-01 2.986539364186157619e-01 1.378574792697103701e-01 -1.712930959334242609e-01 -4.123195788856878208e-01 1.478612156619189821e-01 -7.094974411763668165e-01 -1.768471856580656754e-01 2.266399778468291826e-01 -1.472408187778162514e-01 -2.693826182899556887e-01 -5.777705210769961131e-01 -5.454051715275319845e-01 2.839878547258851277e-02 -1.767586316985983730e-01 1.362981398263139222e-02 -3.280539993500210336e-03 -2.825897848870330131e-01 5.848276016530015164e-01 1.300888673038393673e-01 -2.898469340664931448e-01 -2.831852164755095935e-01 6.405068578605832563e-01 1.011229437349170368e+00 -3.324359027146896461e-01 3.124564068408288153e-01 1.680338620062021282e-01 -2.867489157700607305e-01 3.974749380338195581e-01 4.650174357272421344e-01 -4.044467130753582329e-01 4.061946340075392459e-01 8.781293348268891241e-02 9.057707388802578585e-02 5.680019934481191912e-01 -1.967736765003099408e-01 -1.313379787140565580e-01 -3.500360946216113933e-01 2.970811327825642958e-02 -3.885484923820973352e-02 -4.246546800196830396e-01 -7.663746554778637643e-01 2.154379820489998182e-02 -4.803878237398299667e-01 1.451805190786249755e-02 -2.874284669447501050e-01 -5.560066165235280078e-01 -3.711615194085577940e-01 1.363437309901021910e-01 2.354143584261249866e-01 -1.887870977243833945e-02 -3.482672164991952590e-02 -3.668439551212519800e-02 -1.718044408156572389e-01 -7.540714963900981005e-02 -6.018230080464986170e-02 -4.339340547461097430e-01 -4.928045505815213945e-01 -1.627642850545398534e-01 -4.078628670523287703e-01 2.393573561036847069e-02 3.327873716363181078e-01 1.582365066309755208e-01 -2.486843983450024997e-01 4.260376968598172387e-01 -2.888710524737008178e-01 -6.681728212590783145e-02 -2.254179805850118901e-01 -2.692519164951907018e-01 4.908138080202183173e-02 -1.227358974244058404e-01 5.637719340410737856e-02 6.264202887507714923e-01 -3.040017590169569739e-01 2.995365945768054816e-01 6.123054651018451366e-01 -7.444298911144918707e-01 -2.118904490293251897e-01 -3.444158714326727710e-01 3.478778844292895189e-01 -4.359254540519625354e-01 -3.479352058310264950e-01 5.140407599586848120e-01 5.400297957659246778e-02 -6.858663101540533047e-01 -6.922229563745831982e-01 -8.881896277887204594e-01 3.345073806566180030e-01 -1.703557385717652251e-01 -4.352239366182502067e-01 -2.944331809568223601e-01 -4.728758663739695001e-01 -2.053342932432850043e-01 -2.383177173657484993e-01 -2.045852327759999645e-01 2.248190973603669263e-01 6.129460297254959306e-02 1.479355484966154988e-01 -2.436014899021895774e-01 6.579391915818970649e-01 1.028347141048503721e-01 -6.364859955417271828e-03 -1.052960416449144065e-01 1.585475458750865430e-01 5.128282623248895389e-01 -1.123602573166325447e-01 2.516005768361533890e-01 2.655374449927286329e-01 -1.907910538395119204e-01 -9.422991250116877215e-02 8.296039455436365895e-01 3.818478362596416376e-01 -6.930608734655858971e-02 2.980160487953192536e-02 -5.292590817046655127e-01 1.123367201500967694e+00 -1.135645421715476278e-01 2.134678362857504452e-01 -1.791415313842439072e-01 -7.645669706036740954e-02 -1.237969645808167651e-01 -1.613683210650324051e-01 -2.665283530096848041e-01 4.535367897594653197e-01 -5.811167950653177601e-03 3.705923729832028002e-01 -5.219696637393999028e-01 -4.800883315184206745e-01 2.634597503542389640e-01 -1.197053695400825513e+00 1.712707433115490119e-01 -4.176153812522336028e-02 4.525095341457894271e-01 1.492005573113695804e-01 -2.823978759448261266e-01 5.410934375098006566e-01 1.406056344392139432e-02 2.295910268305123569e-02 -3.142245723408083058e-01 7.124063561438346293e-01 -2.293412746717644335e-01 -9.783036452757806756e-02 2.677324467234038496e-01 -3.810088857569180476e-01 1.163065362802307712e-01 -5.427870266461223281e-01 -2.216648178100670205e-02 -2.875757248498309049e-01 -6.784469661313861921e-02 9.150470713519678889e-02 2.852340531902554099e-01 2.458778216086810187e-01 2.341670584869053884e-01 2.320461318043959276e-01 1.092332116092830097e-01 -1.797895580086107392e-01 1.431763309074672585e-01 -9.008531587221249581e-02 -9.282204189333000122e-02 2.940213124680540191e-01 -7.345482504124399847e-01 6.720936340901976225e-01 -8.929157921537576037e-01 -1.484855908476959974e-01 2.825190292814430126e-01 -8.643295110119894598e-02 1.434359201445188914e-01 -5.681149045732084568e-01 1.839601259612207718e-01 -1.575740358874970215e-01 3.017240855077907846e-01 3.653564989266410157e-01 2.783107542335712670e-01 3.681759831589601073e-01 -8.569449695301618597e-01 -2.299221425945369990e-01 1.171432135455028473e-02 -9.165327652919201540e-02 -9.678536484600497314e-01 1.043653286548310577e-01 8.359677608973663417e-04 2.052175195731613944e-01 2.582717832182102047e-01 -5.900986869256912293e-01 -4.378009733801440651e-01 -1.105283444871808657e-01 2.271157960365538520e-01 1.342242029053798136e-01 -2.416168879834806327e-01 4.305844343679923747e-01 -7.325125853034289425e-02 8.972400308222018561e-02 1.371215044156992025e-01 3.640316749782419592e-01 7.670215604599857073e-01 1.031982609827996195e-01 -7.890141769918963821e-02 -1.447852698540818828e-01 5.103121438628562823e-01 -1.015715421860342138e+00 -7.572239076922995249e-01 -9.124434043315011733e-01 8.812288725318298543e-02 4.220711442611708303e-02 -1.037881717226908640e-02 -3.797441810222308423e-01 -1.245827630577110573e-01 -1.284018951411032561e-01 7.406834493762306515e-01 -3.784698367270855068e-01 -1.822950274326098075e-01 -4.345097897357890759e-01 1.840156548930707014e-01 2.466885655282671230e-01 1.702075505767035313e-02 6.724019279171895569e-01 -1.029155343989264670e+00 -3.866567653079381883e-01 6.187283417145919562e-02 -3.165834669994047057e-01 -4.025919368811252674e-01 -1.215107573634322258e-01 1.781193874199522020e-01 -4.188356337144872876e-01 -2.394269160374154493e-01 -5.839004419151879732e-01 1.181705000691804647e-01 1.156701779037125899e+00 -1.390148621929149231e-01 4.950624611238829686e-01 -1.316915548898243693e-01 2.101714126605050414e-01 -3.271953210541322377e-01 -5.553026500862029424e-01 3.172481082262756380e-01 -1.545509037565437005e+00 -6.867888535668941197e-01 2.237281975406059040e-02 -1.901134255514144722e-01 -8.999747163431680297e-02 -5.199764494444462093e-01 5.163376727132570898e-02 1.236159309422178165e-01 9.718953951715124662e-01 2.174000976008583497e-01 -3.777595336066283394e-01 -2.442155576595975153e-01 -3.301970433693768858e-01 1.653291519737538628e-01 9.372311080655380301e-05 3.331341464332001623e-01 -7.354620471711437180e-02 -2.125679305580085998e-01 -4.816701620037843190e-01 4.761997015858678850e-01 2.358984106772945080e-02 2.360922055708761236e-01 -3.678236304008726809e-01 1.957469678325823581e-01 -8.340413243781477637e-02 -1.635021435944923329e-01 7.075406123230761901e-01 -4.260694802518860125e-01 3.577739448575329440e-01 1.067865863633111756e-01 -2.321354238381226689e-02 4.779813513250157908e-01 4.479296159584841841e-01 2.155414091284719447e-01 -2.416495283697886465e-01 -3.070721848425226330e-01 -9.936209948217207266e-01 -1.837776724901567585e-02 -8.959883587899414303e-02 -3.783126409258003725e-02 -3.204238179707666594e-03 -7.208938458352587286e-02 -8.313166168726801031e-01 -7.297999916493257411e-01 -2.916529168105061812e-02 -2.722626424287309943e-01 5.325462611963716064e-01 -4.147354226613802486e-01 2.615131885606370443e-01 6.306716422679024825e-02 9.924096079801254522e-01 5.342850202118800684e-01 -3.729637913645141023e-02 2.987074733526124404e-01 5.459182921426752877e-01 -3.065090644478455327e-03 -3.229578997453261269e-01 -1.157492816543004115e-02 -1.307871909729355631e-01 8.699613705576013378e-02 -3.444407026353300538e-01 -6.190211303812851451e-01 7.038860334495564142e-02 -2.216933290008663016e-01 4.207145437687678791e-01 2.184782241949446979e-01 -5.184308827022313798e-02 1.144333393799539141e-02 -1.047107866637535245e-01 -8.826587689921443491e-01 3.537733437882898402e-01 2.956552937295703898e-01 8.498498063121774637e-02 7.675615658189791080e-02 1.463303500188060657e-01 -4.695968548893822425e-01 -3.206963807294686830e-02 -5.090485310999988133e-01 -5.172787065530646267e-01 -5.476657615739592977e-01 -5.985918785663441044e-01 9.268509540196676610e-01 3.749842676383398632e-01 -4.285709691912268915e-01 -5.161031937681116455e-01 -2.052683599552634353e-01 -1.908014133516888408e-02 -1.960349356238315632e-01 -1.517481182256520122e-01 -1.354009902834917844e-01 -8.378876659750475117e-03 -4.074588210482477657e-01 -4.789434262959553212e-01 -4.228418244475097842e-01 -5.948823626669923481e-01 -3.126312232799591251e-01 7.365192157366762249e-02 2.555559859954881219e-01 9.207584364313103897e-02 -4.166063441797725198e-02 2.389725612828229317e-01 8.696004190219693841e-01 3.430512806629811839e-01 6.564345455760772774e-01 -6.864792273019529878e-01 -3.162159013247267669e-01 7.669578192770497294e-02 -4.710652764121373709e-02 -4.890150381094689469e-01 2.541989240689104257e-01 2.146286659304151578e-01 -5.088246931894122582e-01 -1.077225530056235003e+00 -4.217889033707645230e-01 1.232965002143225491e-01 -4.281120348085606930e-01 1.380111541604981673e-01 7.632679506838919992e-02 1.422504174724916470e-01 -7.852069522233586785e-01 5.214947290091643817e-01 -2.413762296897559168e-01 4.568661673955767277e-01 5.547382381129485340e-01 3.476701799026238882e-01 -3.302663699347941351e-01 -5.367502212155608188e-01 2.614354827489934197e-01 1.294630372902621784e-01 1.351128467677754907e-01 -6.917976880793266226e-01 -1.638689424527393634e-01 1.578667974616021208e-01 -3.770680922250486677e-01 1.926003409506379938e-01 -1.868621629740084833e-01 6.151301657351478935e-01 1.733148902871295971e-01 8.825843784354205912e-01 1.030844846731600040e-01 -1.114601521884411583e-01 2.641670672340585835e-01 1.630125557799566027e-01 -2.903517990574504548e-01 -2.125216928992918475e-01 -5.646753204451406827e-01 -1.046707198862078109e-01 -4.299752010238341859e-01 -1.465357678776971206e-02 -5.161050324137657075e-01 -9.270015871902113902e-02 1.970452524674946304e-01 1.968870851888416540e-01 -2.014689213907090437e-01 8.444603408618470142e-02 1.591333363216184127e-01 -2.868452150636259246e-01 8.867560250394607158e-02 4.235543194967656966e-01 2.621207001811934334e-01 -2.978794118446459471e-01 -1.167406649754636483e-01 3.816990951963923906e-01 1.704574651555507692e-01 1.136306231468195982e-01 -1.358053844881473848e-01 5.444039600774976950e-01 4.035719487834755204e-01 1.730783528547597816e-01 1.293579033186895155e-01 1.607475763510124445e-01 -8.603148975943329668e-02 4.111741993267898354e-01 -1.082448538938630467e+00 3.233855558411168896e-01 -7.448587084995231811e-01 2.033170901733641692e-02 -1.124522053634104540e-01 3.871761982598823093e-02 5.116252638105047712e-01 1.591006561899810656e-01 6.212808366890397727e-01 -1.744646079502307767e-01 3.672476149298573578e-01 -3.067930255978919551e-01 -5.811249994434232180e-01 -4.035893527661889024e-01 -2.267590921379757929e-01 -1.801029937609342213e-01 1.909598795977862640e-01 4.839634904668164289e-02 -1.119041923051702359e-01 -6.760537076441598403e-01 -4.780815058905593662e-01 -1.957861065234895448e-01 -9.993835419239671669e-02 -3.437862576035160406e-02 5.355988925568268000e-01 -4.099349392429454952e-01 3.759273648516128774e-01 -8.772610220316896801e-02 1.660642933461942694e-01 -2.454888032441369383e-01 -5.629206318039021717e-01 -4.699177254129532216e-02 -3.112291515955696308e-01 -8.274410926520629761e-02 3.620235910547257574e-01 -3.419862430597246927e-01 -2.369379690292317542e-01 -5.184409479566051138e-01 -5.839556503967534978e-02 -4.368361419023212289e-01 2.009290550834564593e-01 1.006395077560248430e-01 -3.366269061708728749e-01 2.735011203998206075e-01 3.460448143080425143e-01 5.877654218619962068e-01 -4.310315031889495052e-01 2.571667791641813472e-01 4.601959579895174013e-01 -1.561766005085382311e-02 2.577610325070269215e-01 2.921172411438262562e-01 -3.632736744476358082e-01 2.811511951439130685e-01 -9.424654506861297465e-01 -8.989859278342114957e-01 -3.082606580280516928e-01 1.038825742547798914e+00 5.945163605648114968e-01 -1.624990950346945628e-01 2.789971254540422052e-01 -1.539800020336248021e-01 -1.429257832694927344e-01 -5.919611673449757250e-01 -2.009527007111628072e-01 -4.310657175307284206e-01 -3.259542985801046067e-01 2.676603997718610128e-01 2.646233634928895073e-01 -1.193143942886737141e-01 -3.041827813390022839e-01 1.085405357112863012e-01 2.043418866677188250e-01 6.711972604497522532e-01 -2.129607537965884922e-01 -3.279906624809114102e-01 -3.752645790768374678e-01 1.908335000974937246e-01 4.284063622628890844e-01 -2.888514146551259265e-01 -2.519711084978283333e-01 1.283904739482555624e-01 -7.889988557529270530e-02 -1.997313135747037227e-01 8.294060155789889643e-01 -6.604994683725312621e-02 7.567039355978075199e-02 5.249229397061835334e-01 4.987015387454431410e-03 1.451278689765472529e-01 -2.479783111818742170e-01 -2.937967184335481541e-01 -9.658586193703970479e-02 6.996086262820888635e-01 -1.194796587235888441e-01 -2.939190680208637052e-01 -5.381768122870529691e-02 -4.002002425661050355e-01 5.623863830557846999e-01 5.045368686742585096e-01 -5.119784140963884456e-01 -1.660300619979268033e-01 -2.341361778573364250e-01 4.999337238252578308e-02 2.547496418319125100e-01 -5.516950703155846236e-01 -4.048230923390782610e-01 -7.387502015300900782e-02 -8.401988787364855771e-01 3.233328340352666364e-01 -6.594728095923539923e-01 9.654998664973508948e-02 8.329313040083169417e-02 -1.914872016807647181e-01 2.622540972618752075e-01 -2.563852415330331036e-01 -3.881531775114622773e-01 -4.965471387390759661e-01 -4.743959573297553689e-01 1.310105043038874983e-01 -1.236217516998317917e-01 -1.948728956880154684e-01 -3.323002141661136055e-01 -2.974552595250746223e-01 -4.435975940104284199e-01 4.475233518717224301e-01 1.810390808332421608e-01 -2.424964089534900336e-01 -9.635170390338088087e-01 2.274097881439235136e-01 5.603495952930345747e-02 2.126752526826975742e-01 -6.905562894011678561e-03 2.521429023541034153e-01 2.508879291487943197e-01 5.507280298962687060e-02 -6.152680481848571414e-01 -5.924978271671557106e-01 2.477435728702981066e-01 3.323823013482414268e-01 3.642535324835722843e-01 3.537932078650360412e-02 -3.020807741338794594e-01 -5.377346213530824759e-01 1.135456001190085912e-01 5.326447765048469840e-01 -3.546052328404855070e-01 -4.964121624353335926e-01 -1.463460931922199171e-01 -1.561274642276565816e-01 6.818438417244293559e-01 5.596983199793398658e-03 -2.015227993252373118e-01 -2.452988255390307626e-01 -2.162129077152337153e-01 5.206263900401669753e-01 6.225746763410040518e-01 -8.929945468185267188e-02 1.599368271123123020e-01 -3.193392557682209754e-01 -2.372029591893028144e-01 3.092475141978927589e-01 2.434782331777181341e-01 -6.573516496557909594e-01 -3.153564455140782097e-01 -1.384261934593165322e-01 -5.779639258496113152e-01 -2.972328857411585812e-01 3.268939375539166026e-01 -1.426488204209676314e-01 -5.393600477508665447e-01 8.882046687452763711e-01 3.246690192875673064e-01 3.381109864725370118e-01 -2.111151883601751489e-01 2.322926886912430877e-01 4.928451459872514318e-01 3.255820401943671505e-01 -4.963120455608027726e-01 -2.472202309920712715e-01 7.211788727006223088e-01 3.904286055247606080e-01 -9.025280495586794904e-01 -5.328557720668346542e-01 -1.322668165558332949e-02 -4.380728113431127668e-01 7.195892110716362033e-01 7.281145590286130023e-03 9.159154184680837543e-03 -3.883677608972134765e-01 1.033565648447027085e-01 3.732289003117152393e-01 5.856114603400196517e-01 -3.884799050688811373e-01 4.180042080516761516e-01 -3.761083872121411265e-01 -2.437910271748614660e-02 1.610134090381094285e-01 1.045635929740706960e-01 5.576086840958961455e-01 3.198767780598119059e-01 4.839271358709726356e-02 -3.015361819194181670e-01 -3.034756274047238911e-01 3.611172566994051980e-01 -2.848842687016990838e-01 2.130486437753366380e-01 1.619688366071569685e-01 -4.138175357226285545e-02 -2.918269775417970391e-01 1.805244950505411478e-02 1.516921358813926590e-01 4.359312120515169697e-01 -4.412387737819668462e-03 -9.925424352978080567e-01 -7.195325058946448749e-02 7.611441788586345014e-01 2.208130954548721825e-01 1.151918453275747739e-01 2.090943317100781851e-01 -9.026832889133693527e-01 -3.694127501333895336e-01 -1.974928618748284515e-01 -1.068192076242278077e+00 -9.254642744211073746e-02 1.772868436520709801e-01 5.415406610632954587e-01 3.739420935566474813e-01 -1.036173287334672677e-01 4.686016332387268890e-01 9.152908125015750754e-03 -5.202998968836474170e-01 1.049086193684679175e-01 3.321386123210729457e-01 1.996352765966595277e-01 4.216291749434465941e-01 6.269860116668869721e-02 3.807104611351028178e-01 -2.388068006532087229e-01 -7.866057659634649868e-01 1.645129534106191116e-01 -6.333905546544296161e-01 6.801459765736831420e-01 -5.104615280616977557e-01 1.802701270837386294e-01 4.962989236861762438e-02 -9.957367489141637218e-02 -2.167575372241056508e-01 8.162852001421209980e-02 -1.422689391852310081e-01 3.640494957299533207e-01 -8.114243658246933499e-02 -4.649129332375141754e-02 1.775290756201812481e-01 3.804322304041859448e-01 -2.721758109870426323e-01 -8.874381671671359439e-02 -1.075376990584804432e-01 2.303473395351557651e-01 -1.341131526970172905e-01 -8.287676424537689102e-02 6.845600357848887763e-01 -1.008594548551712544e-01 4.788655847883347416e-01 -3.695718384821097824e-01 -7.041173682221134600e-01 4.744821724806560503e-01 3.053625790847654398e-01 4.610848690974488351e-01 -5.488869326630325673e-01 9.516907201572947228e-01 2.920129683548917665e-01 5.210821308728958989e-01 1.621807885714206532e-01 -4.791315437975434688e-01 -2.319777860669057223e-01 1.196863908222202816e-01 3.866794013335365654e-01 8.667349077710596178e-03 -2.536383755500150675e-02 1.658572419014936114e-02 3.327860686326070128e-01 3.046456133186402626e-01 3.610950302144827484e-01 4.480981459883668916e-01 2.784209612011493973e-01 2.547689475105777701e-01 4.482464660452671890e-01 5.507079073418912341e-01 6.802636765289974408e-01 2.808144532363253676e-01 6.397392120610068122e-01 -6.167580460680204268e-01 5.738071573316176899e-01 -3.042076207187595013e-02 -6.693858400839466927e-02 -1.363591774292745029e-01 4.033270089517473345e-01 2.046573847044580452e-02 -2.185234428783404959e-01 -5.611025458597485721e-02 5.517369761756065749e-01 7.465036862615861413e-01 7.480730526499203004e-01 -3.863636338206692389e-01 -2.215059103164018217e-01 7.241574496672173455e-02 3.336220606236062758e-01 2.760609492291800447e-03 -3.582097554186668420e-01 -1.009910573116705290e+00 -4.261256947151600416e-01 1.980273719747963346e-01 1.633859788514457068e-01 1.106836881307224352e-02 2.336717611220343049e-01 -5.280468392511070697e-01 -3.317730646838622510e-01 -6.663499697022287060e-01 1.127596404025830029e-01 3.193734944811283949e-01 -6.001768224516325079e-01 -5.144132754324474144e-01 -5.920852638467598572e-01 -7.211356157524551058e-01 3.469511450150228327e-01 3.546821028157881583e-01 5.223196415836726114e-01 -6.431460694373578590e-01 -6.748286237908518448e-01 -2.199987984311166656e-01 -2.541332290054781340e-01 6.461033177822579354e-01 -7.389266597674634118e-01 -2.929482336994337910e-01 4.173539756059100880e-01 -3.062342485736690989e-01 -3.311318582673669075e-01 -4.004518164010514303e-01 3.475279741740440742e-01 3.843813913908451507e-01 -2.045259627167014538e-01 7.535367874651532905e-01 4.608562281966708390e-02 1.926884302222805767e-01 -3.621930047247773898e-01 6.146433881839329094e-02 4.615559880252997210e-02 -6.484714782419768175e-01 5.397567660127020606e-01 4.796322968270250175e-01 -2.452209859323856433e-01 -6.666755858782533184e-02 -7.933873043751358267e-01 -8.250679691448077335e-01 -4.863878104029994431e-01 1.906799266495679268e-01 -2.762799657388979591e-01 -7.371496001340147597e-01 -1.284449455778703675e-02 9.511746298398542354e-01 3.711461244998428000e-01 7.064243785733612668e-01 1.617509265121026552e-01 -3.599521086046907348e-01 -3.280137209389683006e-01 -2.043052630997723162e-01 -2.914622139750099317e-01 -4.562486162364991910e-02 -8.218148937160080214e-02 4.009122212822986420e-01 1.119081649896598751e+00 -1.521794614841934234e-01 -5.518804620427737451e-01 4.351887764513142492e-02 -5.405756958791096967e-01 1.168090717310291238e+00 1.591260569391325652e-01 -5.200488422139389923e-03 4.629066989150258382e-01 9.144589872711181289e-02 3.109150915924786540e-01 -5.330495983868515086e-01 3.370271134758838771e-01 8.686326450336889771e-02 1.359717259037007686e-01 4.964167773083625473e-02 -3.202813470671360130e-01 -1.859523826982067973e-01 3.055900568718241117e-01 3.579761582153029309e-01 3.883320966081227343e-01 1.542403019651309160e-01 -6.927155957876304782e-02 4.803479021005097049e-01 8.877422880965589458e-02 3.322039625102777283e-01 -3.306049215382223655e-02 5.715523058383854549e-01 3.536030103348080100e-01 5.695995538077044257e-02 -1.053894520514926936e-01 -2.741257388837169406e-01 3.300254755266484596e-01 -3.208185044032357824e-01 4.751185345058118181e-01 4.762260689015677118e-01 3.150389415913655844e-01 -1.199042446284434849e-01 -5.047148069518514468e-01 -2.301696569057813113e-01 2.937450742222988409e-01 6.529405488549724357e-01 1.624144971773396895e-01 -6.647114709081782813e-01 -2.469939658388902240e-02 -1.312741286532038698e-01 -2.475214014323701486e-02 1.125499378445754761e+00 5.303569129774367008e-01 4.502456829151572082e-01 -2.068447965555330337e-01 -3.880812035578848351e-01 -5.120369997595647371e-01 -5.458070428006039920e-02 -4.073726723643414926e-01 2.964515955016008286e-01 4.100716194745820387e-01 -9.631441907914492506e-02 1.406692238361795799e-01 1.923213343062182834e-01 5.254710271842204516e-01 5.649517497787449188e-02 6.715903905583568978e-01 -1.440316628033075919e-01 -3.500942919010910925e-01 1.674517737992601008e-01 8.627241980497424301e-01 2.369769242463902192e-01 2.161677305160627713e-02 3.136706064657833748e-01 3.687393379269239546e-02 8.765571674395019608e-01 1.139962939740089137e-01 -6.373096352455047686e-01 -8.209341934860984180e-01 -6.282005676804588989e-02 1.834265529532322081e-01 -3.341753115599006563e-01 -3.538008109206324803e-01 -4.399600279616506238e-01 5.436930916203175368e-03 5.084820190443650051e-02 7.045693220653282962e-01 3.623560106457683339e-01 -3.106107963684684448e-01 4.827090626014190478e-01 2.840351795009176117e-01 -3.844924280302529085e-01 4.207010178140105361e-02 -5.338416507076401141e-01 3.785278588530477384e-02 2.622270616113910324e-01 -2.813313012544094716e-01 -2.171777026640948904e-01 -4.591148784131543481e-01 -9.426620298012915178e-02 2.542043820504191753e-01 5.197457814815580335e-01 1.208625465229736101e-01 1.508080173739977659e-01 -3.446097054614927768e-01 -4.115600294420634908e-01 1.680176900019171859e-01 1.564391825806557001e-01 6.513693184427227223e-01 7.207431343225240150e-01 3.309417825006534253e-01 3.114222713650319219e-02 2.340596125626514812e-01 -2.554889426493737181e-01 -3.754494269695949349e-01 6.185307437995237745e-01 6.100187697949859267e-01 2.399541316104206179e-01 -1.326068605067812489e-01 -4.945018642441637580e-01 1.161805605441129305e-02 9.027256658047279059e-01 3.676863457940723334e-01 -1.302604257435978352e-01 3.916556946019614238e-02 2.465032225703762125e-01 2.182021208880990382e-01 5.332503344759449426e-01 8.007473853225458571e-01 -9.536859916864773301e-02 1.179090223771439128e+00 4.493166662276069645e-01 6.776001359150182202e-01 3.032802388302809349e-01 -4.593424730183458538e-01 -3.001210130566109857e-01 -4.339084428441737917e-01 5.316953548474732116e-01 7.386498993780080680e-01 -1.131142287145061043e-01 -2.867596476068759448e-01 -2.728506178833881024e-01 5.422512692055816430e-01 4.145115878522514508e-01 1.793429002048533005e-01 1.985382796613972267e-01 2.264231270236652382e-01 -2.822609053904468479e-01 -4.279218683535775947e-01 -7.128584707546911092e-01 -3.635687292740442667e-01 -1.783104027179916937e-02 6.225544366806261554e-01 2.070108628924830496e-01 6.350046722837345836e-01 -2.109564424983776665e-01 1.434030074621519268e-01 2.128295450305244252e-01 -1.210136050780819122e-01 4.027174902502587139e-01 1.928017534123795396e-01 -3.471142867263231346e-02 -4.675166102640422872e-01 -2.188099770020451307e-01 1.738516524570715427e-01 1.050702005282595497e-01 8.937251548800305700e-01 4.526807469224337632e-01 -2.858246002424004104e-02 -3.448725669191217702e-01 -3.162747312064164151e-01 -4.971470242978089926e-01 2.231561320382131203e-02 -1.667026631553891469e-01 3.671148026163220668e-02 -6.935126971974556187e-02 -4.405543645236941197e-01 -2.752969614086374639e-01 -4.244904016234318234e-01 4.370379198569824264e-01 -2.908435513481703039e-01 -3.975957873300220990e-01 5.745417761103243093e-01 4.843247678520476995e-01 3.354602574071567367e-01 -2.791854219360845879e-01 -1.531361179312814014e-01 -2.964773299570588327e-01 -3.483171717392863354e-02 -1.395362229800830266e-02 -5.798729915844864635e-01 -8.593139976199062197e-03 -6.013741862891580636e-01 -2.147749257128327427e-01 6.952396777704465958e-01 4.770542545094966780e-01 -2.114262841670236925e-01 3.878083566584809017e-01 2.865443884317114831e-01 -2.093186415674171963e-01 -4.621199503273499820e-01 -3.074914491524451954e-01 4.365900382962662474e-01 1.436807572756476359e-01 1.640303287834440626e-01 -2.018748812965935058e-01 -3.949143178489006867e-01 1.468981065664082819e-01 -6.723273128779200247e-02 -5.737894955559945664e-01 4.971950591297989441e-01 -6.796235488656152297e-03 1.975734562490350232e-01 -2.230187620456108022e-01 3.386811617459969947e-02 4.148178617199630991e-01 1.886844817176648592e-01 -7.744185573734348182e-02 2.043076505445612645e-01 2.212275126416683446e-01 -4.879708103131299296e-02 2.413342239482161311e-01 2.528352810815018281e-01 5.609856335578929966e-03 8.832581400089953294e-02 1.846599628396463355e-01 -1.181768654126279655e-01 -5.042928961963809575e-01 1.748619200332374723e-01 -7.067322098587467405e-01 -1.434645422727991448e-01 2.231437942586594891e-01 1.849755567392892819e-01 3.114545434071435692e-01 5.519990659277753675e-01 1.105911759143024670e-01 4.346453598897039861e-01 -4.121114546087311648e-01 1.394310831423479780e-01 8.215557874932650703e-03 2.667703021931950788e-02 4.085408307681858697e-01 1.648663121039029289e-01 -5.486795649658869900e-01 -2.030246892894219946e-01 9.750886053331983550e-02 1.289776786288541754e-01 4.316677738841009915e-01 8.615005133036814089e-02 1.886899621754000445e-01 -2.014450603343739821e-01 -3.893384160142424055e-01 3.544943368566612629e-01 9.139973671604242900e-02 4.872228387657630277e-02 -3.836912247767447492e-02 7.324648765342656187e-01 4.615682060814471632e-01 -1.292496173539530724e-01 -7.722086600676872359e-02 -4.332809027957944259e-02 4.015563973491829974e-02 1.660554691266736549e-01 2.614292973226552408e-01 5.185276375155145612e-01 4.733881988734002511e-02 -7.773615008863488107e-01 -2.725986188430411933e-02 -1.117446320109560104e-01 1.180377262131776794e-01 7.977409143755996856e-01 5.222215109135726063e-01 -2.058953502551263276e-02 -7.801563060250914505e-01 -4.010085944217656739e-01 -3.606500779943391105e-02 3.828378834824351928e-01 8.109720552983102904e-01 3.804975557137845188e-01 -1.383868747260611209e-01 -1.005409661361953866e+00 2.279351099854403165e-03 5.983970564056394492e-01 2.694146725543687393e-01 1.130498550444388600e-01 -7.622359905763236541e-03 1.805023783460029119e-01 5.022267246485399017e-01 3.906194909773963997e-01 1.091300479572649307e+00 -9.122670480930940295e-02 6.257618987453926473e-02 3.143852552337566553e-01 4.985856005660343482e-01 -3.879240357924598759e-01 7.132759747393050409e-01 -1.155394855391290942e+00 2.051302462287260195e-02 1.073961547725177379e-01 -1.855541458909843455e-01 4.492109570848555888e-01 -1.793057198282710027e-02 -3.758656654792520008e-02 3.568826183483909120e-01 1.994684464405556135e-01 -2.063634835393794165e-01 -2.896221356004458625e-01 5.546562084837092232e-01 5.445480990745711347e-01 -3.445647555633939985e-01 -2.904796930569569224e-01 -4.060672599462835097e-01 2.925237307485124560e-01 1.066566553538437073e-01 4.708791752507135997e-01 -6.414297310781981176e-01 -8.587261701095639799e-01 -1.017210977091500233e-02 6.199527146870009026e-02 -2.436477531242527417e-01 5.386818692644035345e-01 -4.462005904889806973e-02 3.664823921142598140e-01 1.855363047450738212e-01 7.710583753042057342e-01 3.502668183600760599e-01 1.253351984246518780e-01 -1.055377853042968467e-01 1.501403756300971226e+00 5.459352797251660894e-01 1.567950636876486170e-01 1.642142617087201384e-01 -8.222209889759334311e-01 -7.357035476487004955e-01 -3.045394115124255840e-01 -3.984401524607116829e-01 -1.961282131808687323e-01 2.653083084552179116e-01 1.991025209653453365e-01 3.967654766492331175e-01 -1.314497006804890393e-02 8.945449056504996277e-02 1.511469093534174024e-01 3.573246896707020781e-01 4.915289194081969293e-01 1.729779800762450137e-02 -3.886964057588609966e-01 -4.440378328931295360e-01 7.551987177976356991e-01 3.953907997370703087e-01 1.614351359876196046e-01 -5.406758046407156293e-01 -3.699129866821562196e-01 5.508993476881955953e-01 4.178159663346286967e-01 -8.790291906303152603e-01 -1.111719534555628830e-01 7.057450303795015367e-01 -2.635320385563877030e-02 -6.230462327024524072e-01 -3.262817859507132212e-01 7.417065522296170110e-01 7.900276437180737688e-01 4.732913079322658145e-01 7.000313290570232549e-01 -1.151955371086125189e-02 -4.238865040045882715e-01 2.144545729099946174e-01 -1.152962742544460406e+00 2.123600751078363880e-01 -1.299941197551872929e-01 6.651842050032424902e-02 -4.459388081033013873e-01 -8.150089520966513623e-02 -2.071506657689269337e-01 2.113268380096330890e-01 -3.423057648116350493e-01 2.464025494388918935e-01 -2.153203073265578804e-01 -3.683814258870740099e-01 3.879229800338852563e-01 4.652652025146744030e-01 -6.540595691703823267e-01 2.911385159586033639e-02 3.932209958498892322e-01 2.981699374229020427e-01 -5.798555666781890494e-01 -3.719808967895982810e-01 -2.633527451286141359e-03 -5.455380162576991543e-01 -6.734403254192024013e-01 -6.951953319222511363e-01 -2.298054829943008692e-01 1.416033223547809028e-01 -1.218562116534545187e-01 -3.966115265220448438e-01 -6.359099424002974121e-01 1.109565919667784728e+00 4.576577904806424790e-01 8.525181662229340818e-01 6.298737461621273237e-01 -9.836225458025360524e-02 -6.631344691634782906e-02 -4.255093590569525852e-01 -9.621391984972336997e-02 3.788229881623809692e-01 -3.935821070609870076e-01 -2.080037197295396822e-01 -2.123573281484303632e-01 -4.796424462762431951e-01 2.458870142418092819e-01 5.235987252901177502e-01 -2.532453049426120276e-02 -1.598610798584103598e-01 -2.239937250557330062e-01 -2.433127625901198299e-01 1.346546430756314638e-01 -1.792133936076910905e-01 1.553474005936538727e-01 3.729060538332889529e-01 6.471390630668587274e-03 1.962626351915898737e-01 1.600205526751143359e-01 -5.630983632295670782e-01 -3.154605678431713911e-01 6.408042848198032271e-01 1.591073618893081854e-01 -2.004681663605216990e-01 -1.122334167606227166e-02 -2.522034996520292061e-01 6.952123615891190322e-01 1.716513875058209015e-01 -6.615823929355668653e-01 3.221156613909473831e-01 -1.401315402314692350e-02 -5.510004153554035611e-01 -4.991962416595874946e-02 -1.741189005980060545e-01 -1.088104813387769793e-01 1.977369506533371013e-01 2.308045822037959049e-01 9.790467605680959473e-02 6.221198207929101720e-01 5.362319823690394616e-01 -6.937496558089150112e-01 5.852364115851484971e-01 5.166829793444762675e-01 -4.333284050109281749e-02 5.337483595675561743e-01 1.510751073842220515e+00 7.539026657022112055e-01 1.138187920472973902e+00 1.075383731392806075e+00 1.949649920871360242e-01 -1.552311311311722897e-01 -7.709568521384292383e-01 6.696416583346769258e-01 1.355679877253019194e+00 -8.992053403147935720e-02 -3.392988194562083226e-01 5.386511720173492446e-01 -2.096412741570441440e-02 2.048439961830029743e-01 -1.689523156007261273e-01 -3.757241296078676629e-01 3.294894292029429406e-02 -1.774202994946700446e-02 -2.627814114618729491e-01 7.218063300293240392e-01 -4.272682677746617030e-02 3.005890029877200664e-01 4.298794239122159522e-01 -5.984968117509872343e-01 4.012541009172678613e-02 3.033668716844162283e-01 4.326116209915848443e-01 -1.680461986865091489e-02 4.236577440939134909e-01 2.843702570547936292e-01 -4.547674292296066123e-01 -8.865188245715112103e-01 4.327389638176870612e-01 -3.592658837633023738e-01 -7.494266534869908902e-01 2.501188561083609319e-01 9.969320287180217788e-01 2.256865897150812927e-01 6.113774977038982650e-01 -2.112169403351573937e-01 1.709425072217723718e-01 -6.980198572084561626e-01 -1.624762199485082492e-01 6.442568242829527225e-01 7.289807801486778427e-01 1.930771595336734994e-02 -2.888481227312905686e-01 1.064185167679183169e-01 4.623406351177229978e-01 4.173983619030086079e-01 5.340664274494163477e-01 -1.331765010183750264e-01 -4.112827262161909414e-01 -1.042434652758608138e+00 2.322133143489494567e-01 1.339611072562388316e-01 -3.654654595119227189e-01 3.772831090500462503e-01 2.152510347643447203e-02 4.084654848577767838e-02 -2.001602952724927664e-01 -7.806781736176653386e-01 -7.633830315845106795e-02 -6.261080221952752822e-01 2.873093632315322221e-01 -5.962928356591671308e-01 -1.553460195999158133e-01 -1.096330407434878529e+00 -4.921726458641667024e-01 7.279595330623869209e-01 3.769306027025434019e-03 6.814615988825122317e-01 4.851311078760826567e-01 6.638829861797997944e-01 9.909062929253378282e-01 2.970175376708822021e-02 2.531563473793172619e-02 -1.602348741238408980e+00 -2.742430724382065588e-01 2.680556082321610134e-01 2.994378137883009772e-01 -8.995288176160284310e-01 -4.662662324757188004e-01 4.504012272349950385e-01 -2.485628527503816187e-01 -9.427893370346726587e-02 4.265303378344994512e-01 6.344952221414827953e-01 4.019110382384198377e-01 -3.339510456632223123e-01 -1.893242737485248709e-04 -9.335631558798140883e-02 -8.316180730364536311e-02 -7.108736675264220040e-01 4.626421473635131121e-01 -9.203742700865388260e-01 -1.543410835217267352e-01 -1.974914436264523510e-01 -1.956884095187675088e-01 -2.186338219970006824e-01 -1.816312930442458284e-02 -2.787275483353470751e-01 -7.406576349339933918e-01 -6.914493462168064264e-01 -1.702481787039430150e-01 7.282087534408657747e-01 1.957141900010931634e-01 -4.080183664945117306e-01 -3.000901015875492850e-01 1.343527636916003742e-01 3.428212917871790721e-01 -4.279378105884864003e-01 -5.199502578021606425e-01 -3.661332256347452629e-01 5.754290190147238332e-02 1.046812054827761379e-01 -1.968012438135040010e-01 -3.181155864169915581e-01 -5.752431815602997434e-01 2.782629650563761547e-01 -6.830300987616074737e-01 -2.057954430944081703e-01 8.926508604540422595e-03 9.714211456113674981e-01 6.062792082011815298e-01 -8.021706059054647953e-02 2.024904159619577149e-01 -9.798284613517095620e-02 -8.392733411714835279e-03 -5.333041385094609149e-03 -1.625205950534014676e-01 -3.889762355570623442e-01 1.422125828911581513e-01 1.897008019191463724e-02 6.112733043211343587e-01 -5.434135621768548807e-01 -2.926546578910170782e-01 -1.220366965598773945e-01 -4.943456022102687974e-01 -1.103511198958668560e+00 7.097622062235838802e-01 9.390558297173413616e-01 5.524122673487629198e-01 3.848941473635571903e-02 -3.664145423924139999e-01 1.382082579125473998e-01 1.265637348333804868e-01 -1.642901870039379653e-01 -5.572728411291496403e-02 5.282661729525992556e-01 5.630432874396933407e-01 3.320033341889465084e-01 9.613847823148530258e-02 5.829917530403595505e-01 -3.768420573049701128e-01 -3.595168155790842146e-01 -9.912213859970167018e-01 8.807850299173548836e-02 1.068022916969528641e-01 7.400676666242702595e-01 7.802219553606720703e-01 9.346535246091135507e-01 6.614679194444242349e-02 -1.199149765988692523e-01 -8.375199257151526577e-01 2.522081360853865029e-01 -3.361112887370277802e-01 -4.515152490007240393e-01 -3.943178607626621757e-01 2.407844867042499559e-01 1.632278752850643000e-01 2.481529092749950316e-01 -9.836032396411376055e-02 -1.299205826747817927e-01 -4.755452292532890701e-01 -1.243482294390323206e+00 -5.449509291359557741e-04 7.208570383462274966e-01 1.385347442717141275e+00 5.359141271029225218e-01 3.502270335571178173e-01 3.504415053428724947e-01 3.687784471609862336e-01 -1.657057355235400375e-01 -5.085815313721504527e-01 6.339754680996768921e-02 -1.471716859352004692e-01 1.308862663542344207e-01 2.665629087906734584e-01 8.866090928668924898e-01 4.679542631318652224e-01 -4.039445371884431979e-01 -7.257088088963824513e-01 -4.403665903953059013e-01 -1.180017190863805188e-01 7.633142726187241989e-01 6.637785198585712809e-01 7.350937169056875886e-01 2.355792292708852320e-01 8.922562929280988819e-02 1.763382935238058391e-01 -7.030442611583059831e-02 -6.025446742370261788e-01 9.530467368142274409e-02 5.002267460644440611e-01 4.788399763698794054e-01 2.206986536274799515e-01 1.357805897409210816e-01 -4.118662819110076589e-01 -3.884958483599053047e-01 -3.283618547910556740e-01 -5.951127020051925898e-02 -1.004358567527865731e-01 8.101673426817673773e-01 4.675674896082439302e-02 -1.142797693036409906e-01 3.182241968837795643e-01 5.566047956701758448e-01 8.350269086337368252e-02 1.854193287316574512e-01 5.443252850236143248e-01 5.550732685610718642e-01 4.269096925890217831e-01 3.534943016476958522e-01 4.219773868167683295e-01 6.917879492920343820e-02 1.934273904941335442e-01 -7.429679909741618848e-01 -4.230035154728862268e-01 -1.821553029337381335e-01 -7.846819197836480964e-01 6.122267442548356975e-01 6.082010276064120369e-01 8.682979716995610220e-01 6.456379582159298414e-01 2.561123383015147525e-01 1.381659563053809492e-01 2.562808818244434739e-01 -8.905039610754357238e-01 -5.778713699317006292e-01 4.309108776235480720e-01 -2.396945804497936372e-01 4.123925680233745950e-01 -4.830698691896949046e-03 -4.413133670818040755e-01 -6.276731388249604526e-01 9.325998881302148547e-02 -6.010151906832270630e-01 -8.511248461081638702e-04 1.217551503515565070e+00 4.007141236454699329e-01 -2.325234640277661774e-02 -1.627141672410913342e-01 2.141184971959038397e-02 4.130336159398682594e-01 6.565968393410001047e-01 -5.625531263114786906e-01 1.954128308877090860e-03 -2.012236635448268474e-01 4.780150707438153290e-01 4.472462969835098168e-01 -2.852697975741946834e-01 4.127847445774527890e-01 -5.223176762049509120e-02 -1.422829773553364874e-01 -1.475469034615713992e-01 8.992196995832516526e-01 7.594958162199938467e-01 6.492014819395862668e-01 -1.094419113722898546e-01 -4.125795466903002529e-02 5.240261670771095837e-01 3.730358412762034837e-01 3.047005394814785162e-01 -1.345798568616622393e-01 -2.525729505119984619e-01 8.921881417797859759e-02 -4.937620979683318700e-02 8.632004137205087635e-02 -7.457167597484062882e-02 2.427986789238321397e-01 2.716413431604735584e-01 -2.797387553815788852e-01 -8.311540795827746519e-01 -8.961727332891636921e-01 5.443302836504143594e-01 2.177930884648554555e-01 5.343201584782980573e-01 -2.386757178669308629e-02 -1.362457117954502667e-02 1.533406139863543738e-01 -1.879793252548152271e-02 -1.352163960825895628e-01 -3.111407012105495418e-01 -1.284502532869825908e-01 -1.800046305096430488e-01 -2.033826409994626827e-01 1.213027130211049021e-01 -3.484057677994182867e-01 1.296531147989427903e-02 -7.221070641315446847e-01 -6.194291525348387673e-01 2.853076113547280968e-01 3.956991865830752908e-01 3.431422430163679760e-01 6.492674247921665920e-01 9.158819440153824765e-01 4.491700326271403365e-01 4.649885831841044648e-01 7.372203005678370502e-01 -7.760003366586727402e-01 3.785783071747522710e-02 5.681645157744619201e-01 2.848403820610015489e-03 -2.928169692068641194e-01 -4.469403257606445190e-01 -1.898817153832357274e-01 6.061970324590795212e-01 -8.784254209754450982e-02 -8.018439252400229034e-01 3.796074380524241398e-01 -2.051501536488137822e-01 -5.206284907581750776e-01 -6.742267289458362400e-01 5.538853832785368692e-01 8.780171576940833944e-01 9.140433659057644045e-01 -1.868031083232836453e-01 -3.362049831100753505e-01 -8.712482623353291489e-01 -3.845993225468475329e-01 1.827234732161152342e-01 2.148016102786147186e-01 8.611418595665677744e-02 -4.504590350901990781e-01 -5.155959726594299374e-03 -1.007972120125036675e+00 -2.841970754960566059e-01 1.322813413694288454e-01 -8.340417718012835824e-01 4.187458207331151150e-01 3.807470994502933359e-01 5.772806001974497558e-01 8.021209495208628804e-01 3.249335523990948271e-01 -5.099559666358043086e-02 1.395436880138189450e-01 -3.790051920840875055e-01 1.876296530412104313e-01 5.200505280386454876e-01 1.281028290182213147e-01 2.218494319191269548e-01 -3.653594882439953895e-01 -2.915596055317251547e-03 1.741941883893766696e-01 -5.552880642624871133e-01 -3.928017273670521559e-01 -2.681538584578136430e-01 4.308841051034386083e-01 -1.378900766350328877e-01 -8.742557165985433143e-02 -7.890310652956426807e-02 8.426159706674082317e-01 1.489251211159325072e-01 -8.529327089593825573e-01 -5.080370149970834248e-01 -4.699926351470197217e-01 -1.175412342897434348e+00 -1.200282072710805586e-01 4.477455122838956414e-01 2.882504354365458821e-02 -1.158490412404649117e-01 -1.089836313092974907e+00 -4.355062376014733339e-01 -7.835430483510481547e-01 -4.849884360664763472e-01 -3.183243332983465290e-01 1.086471302264068045e-01 6.527070038009941122e-01 5.535551942185672480e-01 9.530075006353804223e-01 4.521161808475780419e-01 -2.902771007529352243e-01 -9.304921805220355280e-01 6.272371776872593951e-01 -7.020661388846566320e-02 8.701411053590750733e-01 -2.142588443506811269e-01 -9.005282959144386146e-01 -7.204174158477097967e-01 -2.660930273691745063e-01 1.193948714720665244e-01 -5.807325383783493722e-01 2.680483521437208583e-01 -4.725301472112208856e-01 4.952742448260172986e-02 -4.848602561295698443e-01 3.720224682864522320e-02 4.270643836095063262e-01 2.652946802120765835e-01 -8.670608646147237586e-01 -3.147455783361772230e-01 -6.706855029427536419e-01 -3.552813455465972381e-01 -9.960725293565571015e-01 5.991622429356758400e-02 1.784557402808541748e-01 -9.784541871304764937e-01 -6.427552295771991053e-01 6.083074234978749079e-02 -9.439971147721148981e-01 -1.933397367111062415e-01 -4.180571831972588193e-01 3.213106941365517777e-01 4.795636029826849112e-01 6.907148222157128981e-01 5.979697062174664790e-01 2.919224869524853494e-01 -6.805685534942801374e-01 1.948398883785344357e-02 -1.349221038830251684e-01 -4.121088724999445729e-02 2.592881709859394812e-01 2.977228464770601546e-01 -2.599297381652092009e-01 3.355402946116973206e-01 -1.014148417832881011e+00 3.375920132195509016e-01 -8.198889619876243984e-01 -1.301176659571198213e-01 6.409107996425622567e-01 1.172542767732810964e-01 -4.377549754257348269e-01 7.415420837842336965e-01 4.158812550455481816e-01 8.648443260387074227e-01 -5.375752763919583455e-01 -2.737158265646016386e-01 -8.177835821885646173e-01 -4.179718214102826623e-01 -9.371344814651866306e-02 8.221337546962638465e-02 -2.412622971741438804e-01 -2.285463373234598028e-01 -9.292544141523865209e-01 -3.221621477541901646e-01 -4.834592148653364951e-01 1.696093106538261175e-01 -3.551795475592873785e-01 -4.155205386804259465e-02 -1.669458038796833854e-01 3.686714884437261031e-01 3.981604827516412870e-01 -2.624164350033640347e-01 -9.516589672831294866e-01 -1.257138277334631127e+00 -1.456283584489878324e-01 -5.138873364399378779e-02 2.633632108149229767e-01 3.724067988547408170e-01 5.692714988850973157e-01 -1.005731712684272861e+00 -1.307826356066759566e+00 1.298582672939391780e-01 -6.001198485487092560e-01 9.914124584729030465e-01 9.617691346651732198e-01 7.255617994319369934e-01 3.339048679211111259e-01 1.616773811635881589e-02 7.076444098426258877e-01 5.301970403241476060e-01 -1.419907337866501473e+00 -4.391732088161222625e-01 -3.717614310603654104e-01 -1.038106894802002522e-01 -5.439683709062141936e-01 -6.947514731419903722e-01 -3.883429770607850218e-01 -1.668572771628686890e-01 -1.052825129996118464e-01 3.308249453113787930e-01 -1.102854620947593851e-02 1.162530983279415481e-01 2.018485377180579965e-01 3.109351323031417924e-01 -9.059453161646661146e-01 -6.141670706920208112e-01 2.638762566946638022e-01 5.810107179524175436e-01 7.297766270112542031e-02 3.028060729532561571e-02 1.901947568008603706e-01 -3.199919542266722594e-01 -8.216490930795484759e-01 3.947651660610595470e-01 7.096363369237875807e-01 -2.659567040903033086e-01 -6.861486337363883470e-01 -5.037944719869827948e-01 1.169164249439983150e-01 1.025873658567728608e+00 3.406059772858334722e-01 7.601312238509165820e-01 1.070828714360373274e-01 9.663059904064041916e-02 4.539235328071054565e-01 -1.563903357229615154e-01 3.620485113383684617e-01 8.892587213260498558e-02 1.506518632991295237e-01 -3.097768822483760176e-01 -1.466732017947710576e-01 8.982102552066576484e-01 3.076140099982948017e-01 -4.947929522839242811e-01 1.670060090141075454e-02 6.525902045915065175e-01 3.335281226288266954e-02 -2.601135567555439287e-01 -4.658546879237514954e-02 6.708781041840883308e-01 -2.157736269958511754e-01 9.855146750190546534e-02 -4.088129487607182200e-01 5.084811184479323676e-02 -2.518410409418047058e-01 4.036455779204356498e-02 2.247796883824788872e-01 3.336673133225450533e-02 -1.614236654782199853e-01 -4.408120744156719673e-02 2.196697016223173593e-01 2.571337166809659069e-01 1.714425072028920305e-01 -2.441589542272538105e-01 -2.784872562901923865e-01 -2.181919894268497528e-01 -1.575079294831187304e-01 -6.234675787252930840e-02 -1.559751997684970526e-01 3.775772333160042349e-01 5.337897398667289517e-01 2.083377194820767442e-01 -2.310025713212182918e-01 -8.215683826205292251e-01 -1.998054487596007817e-02 3.479837229876650007e-01 9.156546186244978180e-01 8.036491519942076112e-01 5.443537971163582290e-01 9.599020462048365454e-01 5.354015676797487799e-01 -3.472686534540526671e-01 -1.632012363413878342e-01 -3.366403518634408232e-01 -1.685433839576776782e-01 -3.952590625745633912e-01 -7.772688176603397003e-02 2.195791260915407606e-01 6.216106855138943121e-01 3.619326442473722039e-02 -3.072774614697003359e-02 6.284300141787197980e-01 4.761290615586573072e-01 2.154896777058054047e-01 8.399261261046048199e-01 2.334935906340181166e-01 -3.239756692268598304e-01 -1.742802161103483571e-01 -1.170355251495189153e+00 -1.013770372200925696e+00 2.698809408734424431e-01 3.542629566608571784e-02 -4.071429678485457004e-01 -5.035676481542278315e-02 3.559747731575832463e-01 3.542578188001472284e-01 4.310735463045722166e-02 8.863229874231535188e-01 1.012004546332108401e-01 -7.903051095090370959e-01 -6.806879803186270950e-01 4.148421172073277208e-02 3.971674336314118259e-01 -3.256397953861100425e-01 -2.596091216867306151e-01 3.418818678611623141e-01 2.006649086334428289e-01 -5.208939021528232738e-01 1.184369184356649646e-01 -2.292304219777890339e-01 -6.728833047473301576e-01 -9.751097028406950917e-01 2.715874554995530432e-01 2.478964509594885901e-01 -4.594356726561306115e-01 -6.110318391333772192e-01 -2.197940869360906768e-01 -3.420548929060909793e-01 6.772832453373616168e-01 3.286152209188655804e-01 4.783000786699519447e-01 -4.504118816778216461e-01 -7.888103643360697692e-01 -3.291548421761951726e-01 -7.396720430853483963e-01 -1.505666469543779140e+00 6.597359523574150009e-01 6.316321612677799902e-01 3.144896573527368178e-01 2.038148004453850803e-01 2.256643572589801527e-01 1.631406629709485634e-01 -4.016976254973401717e-01 7.034197855825448098e-01 1.153875734003838721e-01 -6.591950837197150248e-01 -6.170637424204903354e-01 -8.180231799050621810e-02 -2.010944144940108452e-02 -7.389932708978473597e-02 2.354164605302809798e-01 -5.565308206185834612e-03 -7.925215979901950591e-01 -2.011240143879113873e-01 9.484717422543444965e-01 2.176144396025518624e-01 -9.074512123226520233e-01 -1.203895456439361800e+00 2.844136312569454095e-01 -3.587585750520738137e-01 -1.125838866407482541e+00 -5.699979803627032160e-01 -6.330049639836735076e-02 -1.238184664378210842e+00 9.482104826089668426e-02 5.167880886420429531e-01 7.685063634549558209e-01 -6.052061952844656201e-01 -6.904439385645628757e-01 -1.871061580144300074e-01 3.979830406111222740e-01 -1.081289908091887852e+00 1.162047456934140577e+00 5.109323115630406420e-01 -2.071699066704358327e-01 -4.618555670265640095e-02 7.588412736206655296e-02 1.484993976744496402e-01 -6.754041776085707716e-02 9.847340402404520798e-01 2.829611609871779954e-01 -2.723216096209982728e-01 -4.390015136472270041e-01 -5.470034611462915031e-01 1.714972598867538223e-01 -6.796628424545625435e-01 -9.206966593526897391e-01 2.288792410934763766e-01 -3.783845491953259921e-01 -8.939675132766057297e-01 1.459915873050802837e+00 -2.916710128174481720e-01 2.449320942465374185e-01 -4.845423413100723165e-02 7.698776566334226690e-01 -2.880133162980996753e-01 -4.718605663046578358e-01 -1.190585877696257677e+00 -1.989746326402928867e-01 -2.688392146428852936e-01 3.831715556566478997e-01 3.737575957596627196e-01 2.627218792082589571e-01 -3.653862581841117452e-01 -4.034943007477224675e-01 1.812883773397903631e-01 -4.033902130520452545e-01 -9.146611556602969317e-01 4.739020741494799627e-03 -3.901738511946406529e-01 -5.603377954264249228e-01 -4.108241252048035475e-01 -5.320487300218346149e-01 -3.982050999108633915e-01 -3.807511635109595560e-01 1.386485214381505182e+00 3.260866207171246867e-01 -4.813090661049882479e-01 2.560600253760937917e-01 -8.156831140665605773e-01 -2.439374055380308104e-01 3.890853087977115821e-01 -8.040411813626653637e-02 4.715676154235823314e-02 -2.536791855377174346e-02 -1.101677158001715728e+00 7.108042360076138877e-01 4.248259365621178674e-01 2.158825744956147374e-01 5.189896007737592187e-01 6.752699498888051766e-01 -1.559854476072276841e-01 -3.077259149996742216e-01 8.260331634028580394e-01 4.845766030961786708e-01 4.870684317048122325e-01 9.862007257817709815e-01 8.170476022515726910e-01 4.709762890719755846e-01 -1.574488461339456913e-01 -3.940820965413048826e-01 4.084595703419430790e-01 -9.747503004962115858e-01 2.791191416239762746e-01 -1.193019398347385102e-01 -2.624329520391436091e-02 -9.919561750229718977e-02 -3.915757454066713383e-01 -5.673625505332219321e-01 3.766473422396778292e-01 3.128986924474619347e-01 5.480171527991074543e-01 -6.814963958337234562e-01 -1.349780539793789813e-01 -2.332572833369854770e-01 -7.133449103370381739e-01 -9.347778636659850315e-01 6.063548861099195275e-02 -1.892693663419176553e-01 -1.141354039573682311e+00 -9.779853992621220238e-01 -1.095817570386443007e+00 -1.706446301364810403e-01 1.567034325844224585e-01 4.697975136876834101e-01 -9.586950496989024573e-02 1.097622239657833065e-01 -3.546945166946099959e-01 -5.846295854837711969e-01 9.903700243259495883e-02 -1.104048654021581310e-01 -4.204591975874944487e-01 8.387216895051863297e-01 -2.045027505779250035e-02 1.538677997540396081e-01 2.171971222715218808e-02 -7.970603539771341228e-02 -7.552171726936265372e-01 -1.216051599536270705e-01 1.155407337893838315e+00 -7.673251811424153246e-02 -8.859325240920771227e-01 -1.614348315094968067e-01 3.008603341927427732e-01 4.103378600644534968e-01 7.058787681385489954e-01 5.257318855282817616e-01 3.493768950010661678e-01 8.592151103795080125e-02 -3.198506367340931966e-01 -2.572892698787180854e-01 -9.467033003668549052e-01 -1.286667994541506599e-01 1.795976831384459016e-01 -1.396519655211797828e-01 1.485271265117896200e-01 7.304461090904622962e-04 -8.607359193605169656e-01 -2.565574741515982971e-01 1.309938337060090607e-01 7.328225021799040784e-01 1.173624223226029217e+00 5.448317375710929333e-01 4.989124791159818550e-01 4.384649733110215220e-01 -4.747813519485476474e-01 9.297646800779636733e-02 -2.581910402717640940e-01 7.044085635832127990e-01 1.682079263588469598e-01 -9.295165095367275906e-03 -1.951131470123932954e-01 -3.612102987611573446e-01 -9.166632012536727325e-01 -3.033311880132474325e-01 6.983906380335479502e-01 -1.737493686409466442e-01 -3.181552563107729048e-01 -3.532823781317939726e-02 1.080443063686266497e-01 -1.276742902091613785e-01 2.886748918719312385e-01 2.068199094736035137e-01 9.733600260359362433e-02 4.390528331444003562e-01 -6.188767573013426865e-02 -4.911805994239131223e-01 -3.771001755320697035e-01 6.173726943478323459e-02 2.072970555430345488e-02 -2.925645504158428528e-02 1.511343794438415600e-01 -5.978166722959427082e-01 2.085833909330665203e-01 -4.258646997526749356e-01 7.810235990157838870e-01 9.792141546141036601e-01 6.508140017149641743e-01 3.933329305358418404e-01 4.267412757970182047e-01 2.691141600625575614e-01 2.377704212729183919e-01 -3.773166989357229495e-01 7.015750882888015239e-02 3.722486405352068428e-01 5.304574790581933347e-02 -3.267862396834503302e-01 4.053441583847886553e-01 3.218242625331106943e-01 -1.321911461081148043e-01 -3.898712748090008007e-01 3.257308149990773005e-01 -1.969189523267545483e-01 -3.573378658226786797e-01 1.999912392914509063e-01 1.310630423831955216e-01 1.662571563830501364e-01 3.725980725118691606e-01 -8.256709408942090878e-02 3.753949167825321731e-01 3.638488630985582395e-01 -7.025577646783922603e-01 -2.339003838099734944e-01 -7.517507731788407588e-01 -4.134384086023171201e-01 3.790998860667279535e-01 2.239894863666613556e-01 4.680137461294291978e-01 -1.025678996678782928e+00 -9.418081528667463509e-01 -2.650449616653313689e-01 -1.863324331715760784e-01 8.552893217326852371e-01 3.349954757745281508e-01 9.935516393644457933e-01 9.311257471085595538e-01 3.204963280506297196e-01 -1.960065914608563331e-01 -1.854282082069614590e-01 -2.325907951421175290e-01 1.183397544050035222e-01 5.315377469464549476e-02 2.386750470374455479e-01 -2.232428084719075556e-01 -4.495816556188647062e-01 -1.433816536709663081e-01 -1.269803282186800386e+00 2.808114357497326075e-01 6.224160524404970252e-01 1.817048566428589029e-01 2.807336548891868899e-01 2.389895595922104932e-02 -2.856437177019254814e-01 2.783495605095960210e-02 -1.000154762211185322e-01 4.975118045193729355e-01 2.121569174645284717e-01 -3.656775674482073968e-01 -2.240201399649027203e-01 -1.924390776624916310e-01 -4.038100666324849763e-01 6.849741310732715416e-02 5.293319708889878683e-01 7.852974937193029081e-01 -5.051183010517052985e-01 -2.749137086256279727e-01 1.294181834792758057e-01 -5.416636532780503277e-01 -3.798951527763307912e-01 5.151182399128607647e-01 7.690063606390702411e-01 4.427554178191445700e-01 6.153150600597835362e-01 -5.014962786294167030e-01 -2.549263022446725535e-01 -2.814685273805355159e-01 -2.968753445762020160e-01 3.036942587122088560e-02 7.172585390357818502e-01 -9.891237733235490326e-02 -4.751091881797106509e-01 4.306554364961097670e-01 -8.461337270491098295e-02 -6.142518303833475191e-01 9.290139143014896073e-01 -3.853646921434512040e-01 -2.738651376125469383e-01 -1.104644500141730296e-01 -3.656951369955201842e-02 1.514578711645004072e-01 -1.161009179230814703e-01 -1.528243460399473230e-01 -5.448622555143675106e-01 4.328325729729942117e-01 1.710610405531062805e-01 -4.141110321321238574e-01 -8.814848229982351346e-02 2.666644132013029078e-01 9.518645477659480880e-01 9.698932369353214789e-01 -9.364386038785983413e-01 6.454968890729659847e-01 6.795999146542498481e-01 -6.894423333517436525e-01 -4.189235557000301480e-01 2.763344536932618167e-01 3.890107429629022784e-01 6.885667789319301901e-01 -1.819054213448016988e-01 -3.274281256636029092e-01 -9.285161628343939766e-01 -6.347362093868972321e-01 8.690772519908966653e-02 -1.499465156879766781e-01 1.403568985216985809e-01 -7.881832773271862935e-01 -3.994403982877999248e-01 7.408613720824493154e-02 -5.640674717937446125e-01 -1.630419281975051954e-02 1.204870420221482608e+00 -6.144094129438449903e-01 3.168572428285190701e-02 -5.952021971590194110e-02 1.435759399313615847e-01 3.171173912671443884e-01 8.229787778515910146e-01 4.373214941494578123e-01 -6.063831936685238899e-01 1.579820789411653936e-01 -3.370546181811962527e-01 -1.394110165967311354e-01 -4.247109376370052924e-01 1.076630196051579613e+00 1.771153131547777704e-01 5.283029718431423438e-01 -1.993437747643603264e-01 1.211382604809569663e-01 -1.596869189463571426e-01 -4.108315507976987441e-02 3.672794317884836013e-01 1.675449507063956067e-01 4.677222133768851875e-02 2.590404250446891044e-01 5.110876231274754516e-02 6.780545886627608043e-01 -8.904822871229944869e-01 -9.044059102547584716e-01 2.921979961693637606e-01 -3.944005307396361015e-01 -1.866251523273403379e-01 1.396184290710251741e-01 -3.978991674349436902e-01 -3.733048140875031701e-02 -8.705738965639122640e-01 4.771462423713480061e-01 -6.800838302728409723e-02 3.768582406324383349e-02 -3.410073007186185112e-01 -2.464712107494594906e-01 -6.513428801422633807e-01 7.354133649008411933e-01 5.249993136435602281e-01 7.475311434286099344e-01 -8.373867954419496051e-01 2.922250790018114386e-01 -2.204234821275322942e-01 -1.133366554265689885e+00 -1.470055411010900981e-01 -6.090566763117775256e-02 1.690383828034343061e-01 -3.055135105940884888e-01 -7.055655770384162695e-01 -2.623996344954671600e-01 -2.340569875740220948e-02 1.702356196993826953e-01 -5.945725852569732073e-01 3.351476444645589692e-01 -3.463066276431913115e-01 -5.306987831357082852e-01 6.262413876458764461e-01 1.565810638632883611e+00 -1.107729762443574906e+00 -1.157685466709855060e+00 1.191627422793604563e+00 -3.994399452858986010e-01 2.550923537384267026e-02 1.526778412536088092e-01 1.625393900884023746e-01 -7.293080230989330559e-01 -7.366674177252978684e-01 6.343783714317505762e-01 7.763780859257923828e-01 -2.609384675764632178e-01 1.858545154288134861e-03 1.948822726379498549e-01 -3.935587566471426268e-01 -4.911674397349214405e-01 6.746340848648417765e-01 2.041671543376468168e-01 -1.463793804589978986e+00 -6.928857690006182679e-01 2.055819368151995674e-01 1.229367721656055013e-01 -2.538029120723198084e-01 6.300042832623115041e-01 5.955428745528162926e-01 2.654312285505004976e-01 -8.224743932151736825e-01 4.345937945387353535e-02 -2.542883135119237692e-01 -4.021994279023463625e-01 8.024410671672355111e-01 9.900853848865255324e-01 -2.133596954920501387e-01 -6.861909603804903224e-01 2.376726111493211724e-01 1.123541476671289230e+00 -3.029859058353814860e-01 -3.020543590796344324e-02 6.004840081572082600e-01 -4.348571977106366893e-01 -4.697643335402139075e-01 1.303479234655316565e+00 -5.815864208339468350e-02 -3.889545847220746144e-01 -5.154717993492073935e-01 5.755339871167722832e-01 9.328146548955869033e-01 1.604540028289083015e-02 1.864626020619550850e-01 4.945977456048368803e-01 2.498256334514832866e-01 9.228113724495515258e-02 -2.523589984449827184e-01 -7.224403575011324463e-01 -1.837284223966976215e-01 -1.275696441357902777e-01 1.453208391716332704e-01 3.837561109275562654e-02 -2.050396486460634160e-01 6.783430532707385163e-01 7.675812237730008647e-01 6.170855103457240087e-01 4.941340397311025923e-01 9.176766282204408542e-02 -3.108138978140500552e-01 1.664157582686557335e-01 1.004642758584875173e+00 8.796895704893431533e-01 -6.969572842280667979e-01 -3.046465041965363274e-01 6.274377980771725372e-02 2.640379335671342309e-01 1.852168496993885083e-01 7.174350308003383248e-01 -2.645544987631366918e-01 -2.082528627002875332e-01 -4.628407684131473077e-01 -3.486551891312985596e-01 3.452070104899395697e-01 -2.745114814621845145e-01 1.218917572802485742e-02 -3.846768874790755799e-01 3.195498238731381974e-02 3.108423976011664980e-01 6.469286937124775483e-02 3.466286063844096349e-02 1.533153093726702387e-01 -9.728703092712527589e-02 3.882379613969075272e-01 2.328681586561426597e-01 2.371764778539811047e-01 5.997046352976385108e-01 7.604078243733840559e-01 4.503963723576260847e-01 9.955324368135454183e-01 -1.287757555630625050e-01 4.660816115110438251e-01 6.668129606620807337e-01 2.041223443438986984e-01 -1.118875144199787508e+00 4.429169816732497211e-01 -4.882206606205475308e-01 -3.361356154510130451e-02 -1.410411399867646798e-01 4.304149374367989556e-02 5.286635330336180161e-01 2.329698948550757154e-01 -3.145970759733531241e-01 -4.782838170420294355e-01 -2.138596901012671803e-01 -3.003479133432591097e-01 9.086636567251397956e-02 5.461227490436879745e-02 4.475557872045303476e-02 -3.561876400097676032e-01 -1.182179690578571307e+00 -2.389813294620544981e-01 -3.788789352914815334e-01 -9.656140278968790014e-01 -3.184793929246599320e-01 -3.017857625055328508e-01 -4.209560578842894696e-01 5.103127797413505723e-02 -5.683282460537887326e-01 -5.906782241910972509e-02 8.102507889333219193e-01 7.093145502984188333e-01 -8.076397313710144132e-01 -1.671620602302509584e-01 4.241461685410150007e-01 4.186943065372786821e-01 -3.679896044974173552e-01 -9.069464380027481010e-01 -8.568984808298980849e-02 5.962478029261548268e-02 -7.913670001062947379e-02 9.030760464783241237e-02 4.453224414436366546e-02 -5.404053390605185747e-01 -1.450807150297248882e-01 2.066430718544575995e-01 2.123156806813457365e-01 -3.396140338470558517e-01 -1.666658213914067765e+00 -1.258173457072593759e+00 -1.167767462452026228e+00 3.853401105452168851e-01 -1.166559501334092225e-01 1.229415244148326508e-01 -1.714636490697225568e-01 -8.049030699987002047e-01 -4.079480740682185358e-01 2.052517180764506025e-02 -9.123310256395286144e-01 -9.497389888103939526e-02 6.726641176897376617e-01 -2.592207949248292453e-01 -3.866556131577877919e-01 4.394018758253993018e-01 1.355718135165782101e-01 -1.946917791637026163e-01 1.132810477659492054e+00 2.330678447709973788e+00 -8.271004142434429385e-01 1.739926065518850734e-02 -3.249327166523540145e-01 2.909222490998188970e-01 -4.604809070792164061e-01 8.816620293247620088e-01 5.623996562560019674e-01 1.180268713253052187e-01 1.740652438834622284e-01 -3.643241555002694754e-01 -3.967787729397862506e-01 -1.091137004114172804e+00 -1.139181087696747641e+00 -9.360101413904590995e-02 2.870526027091978571e-01 -7.008654797261467673e-01 -3.913473836290455310e-01 -1.096117877680369501e+00 -5.881490506003905772e-01 6.890307798358525915e-01 1.169309659667422917e-02 -7.881757909026132491e-02 1.744581903193236916e-01 -3.477553790094171926e-02 6.541400082161694662e-01 -8.154031914369073153e-01 -1.240693221275199098e+00 9.238097913975836795e-01 -1.498925887449225614e-01 -3.320810395496296974e-01 -3.966123293357270430e-01 -6.831160956426421405e-02 -5.008453501530952812e-01 -1.823214982742797363e-01 1.640888098127264882e+00 1.307726455351322592e+00 -5.521737776629628280e-01 -1.905253575980954128e-01 1.679709180939409352e-01 1.188773247261525334e-01 -2.005582904992132542e-01 7.866081763820018113e-02 3.144511822558941350e-01 9.910931493846719675e-01 1.274577595868330859e-01 7.939817023985604738e-01 5.887258054981605593e-01 -8.170668150363684656e-01 -4.223994538333142312e-01 1.104425360980639398e-01 -6.291122232818279099e-03 -4.358912429467522442e-01 4.643374137589638129e-01 8.096074893807775341e-01 4.896545958816991284e-01 7.331540517731243156e-01 5.269389990676538460e-01 4.009919329135454569e-01 1.954773425372690332e-01 4.207939397643746804e-01 3.866853709389830862e-01 -3.162688910866385261e-01 2.593563680992618803e-01 2.761200735422006947e-01 -4.484061392107115962e-01 -1.843043678610666036e-01 3.456492899654631246e-02 1.865687887866663841e-01 -1.418279836886275624e-01 5.743596816259675109e-01 8.260050646116334772e-01 2.605737245379252665e-01 1.685803129825346747e-01 -2.469142402884262968e-02 -5.408754887843049142e-01 1.695705925494818411e-01 -3.885366549681869008e-01 4.122076857463542465e-01 -1.929002620640735133e-01 7.927987506435442144e-01 -1.378493215865152222e-01 8.949386688448025817e-02 2.899166900857081397e-01 2.072441509610468136e-01 3.154183290555224728e-01 8.761566235629653088e-02 6.439854499465323678e-02 2.638752529285579018e-01 2.193943095475182070e-01 1.606520891226697334e-01 3.365926029413288112e-01 7.138844206870609277e-01 1.892592683412845367e-01 -6.126889089798225330e-01 -6.692297884345473069e-02 2.531624363256807508e-01 6.309702154081091585e-01 -1.896008463146892364e-01 3.111277047149293984e-01 -9.589087896845069348e-02 -4.849672820549231211e-01 -2.092458008813930237e-01 -1.063061082457708584e-01 1.642614088634007374e-01 3.905730229473090009e-01 -9.356794187117997708e-02 8.412988446115248209e-01 3.049200394056711949e-01 2.841386296494683231e-02 -1.348355313668797018e-01 -6.129448161745095769e-01 -5.056939665764393910e-01 2.512338350144361840e-02 7.586898775681854001e-01 5.788698494566057312e-02 7.353801115097460817e-02 -3.177242310618227927e-01 -9.700747476626170318e-02 -4.587928345870690566e-02 -3.314708743005810310e-01 -5.078358736725389067e-01 3.789574432582196173e-01 -1.042954864469951115e+00 -3.634379160695086486e-01 8.204943960486184296e-02 5.646316315215048620e-01 3.145100839906695978e-01 4.736586551726776895e-01 4.649873743175653162e-02 2.822839523182484323e-01 1.553193439292349931e-01 1.364005701796349446e-01 2.833391386913052812e-01 -3.737577081391911249e-01 3.125335399453351704e-01 3.785735407550422371e-01 -3.698209668267313233e-01 1.798966875483264949e-01 6.557537803277844191e-01 5.493227930135674564e-01 3.616553092187138607e-01 3.681226285929771747e-01 1.078300884017842742e+00 6.266337721138793837e-01 3.270764847565665323e-01 -5.758032228218949999e-01 -3.695062997442695174e-01 -1.617270472982046681e-01 9.486558763949248796e-02 2.943964747054357289e-01 -2.633680306251863779e-01 -3.697191665139694661e-01 3.785130005083868765e-01 -1.078454698397658257e-01 6.119533405321745390e-01 -1.254556118467507198e-01 3.748034607644333271e-01 1.293009194645625415e-01 1.041679990572157433e-01 6.014182652930806228e-01 -2.255249811977589613e-01 -2.644809620075978460e-02 5.182097012619701903e-01 1.466392438193499237e-01 3.912850215363033457e-01 4.654869853779042832e-01 -5.391672814144840009e-01 -9.825282429616520874e-01 1.383798843310268811e-01 -2.188191258980282383e-01 6.150450106991407484e-01 2.284519087094205869e-01 -4.580817793894839673e-01 5.435872761613220749e-01 4.319906330603281996e-01 2.475612987333582204e-01 -1.037429796075917537e-01 1.508033931296186847e-01 1.025141619699129203e+00 6.217312253037248215e-01 -2.809727505129719360e-01 4.410902680426151967e-01 -4.654519902683570409e-01 -3.100327087860986763e-01 2.551380425154243237e-01 -9.517411288070780351e-02 2.746605121353172807e-01 -4.895514783060828101e-01 -6.541527353362149855e-01 -6.768509847979766736e-01 4.216092361055256421e-01 5.650505374492864608e-01 -9.936978847079695754e-02 2.293565592281748000e-01 1.026920191141588168e-01 1.229720359637768573e-01 -6.705891151100620284e-01 -3.523742058696208712e-01 -8.447850962435717037e-02 1.123876734499850427e-01 1.487914590917842894e-01 2.278504303584256707e-01 -6.999546381007526463e-02 -6.359624701357904919e-02 -6.223072468157065940e-01 -2.442276956822826972e-01 6.487171763628997445e-02 7.212994530862494313e-01 1.347365952879586992e-01 3.093753376932639187e-01 -1.576958506321061715e-01 1.944739480753439331e-01 -3.206983293609227958e-01 -6.729732048349825746e-01 4.148506892831654858e-02 -3.395686305447802589e-01 -5.607184437083244655e-01 6.234944099831156439e-02 5.024512765966820949e-01 -2.534030157617382650e-02 3.974956986828079991e-02 3.807022566305678923e-01 8.999087612843834627e-01 -1.229919622742165625e-01 -3.337051444059077610e-02 -9.977719164770214311e-02 -1.597627811021733180e-01 -1.182323030321077717e-01 2.606215823478434945e-01 4.252750948955515420e-01 2.988036718863370522e-01 -1.661704595739570689e-01 -9.843195803277859923e-01 -6.032807284992279806e-01 4.679675524693256428e-01 -1.389680940120860686e-01 -1.388858030310165248e-01 5.853940572995324221e-01 -2.700769060761635254e-01 -5.135604668420022945e-01 -2.213017821677859820e-01 1.058378165914567459e+00 1.054311567976744968e+00 1.024974753883488132e+00 4.691291318706923841e-01 -8.909006348495730754e-02 -8.537792915438387198e-02 -1.229038292737087146e-01 -8.156603198124369181e-01 -6.707761667495750757e-01 5.857048707963018463e-01 -1.323035806270872472e-01 -5.131317900803028520e-01 3.275880487071422542e-01 2.246483543402638394e-01 -2.084971837596020228e-01 5.166400114806603966e-02 3.651058453523513547e-01 3.900945717075332553e-01 3.509590014560026033e-02 5.567790211819197144e-02 5.651986241068389372e-02 -3.373094065535736652e-01 -2.878427096980532562e-01 2.036915105476509724e-01 3.352573467531147489e-01 -5.168439162424141864e-02 2.737319006148680178e-01 1.839713079499544768e-01 -1.000745321494363349e+00 -9.715290680600548179e-02 -8.134609526269113988e-02 1.507019335785164671e-01 5.167976655402962277e-02 2.316146638605114452e-02 -3.478099761389572553e-01 -1.246743769087572951e-01 3.645907420499479579e-01 4.066038746275626448e-01 1.251986009902096297e+00 8.723401924119404682e-02 1.355556167187996763e-01 2.468413930712101134e-01 -2.204628658762757265e-01 -3.698728702964977910e-01 -5.296428409730499220e-01 6.765064509072243881e-01 4.674583154180307898e-01 2.466919258924614722e-01 3.590764197700830329e-01 -2.200670486366826106e-01 -2.996586752766705608e-01 8.685849750199342578e-01 1.103371847749379103e-01 8.008843274631106679e-01 1.066271555858634645e+00 2.790903386371342831e-01 -4.398544800983124614e-01 -2.097298664369535437e-01 5.893272991205783518e-01 1.362874209454164598e-01 -6.732874752349623515e-01 -1.862629235830923213e-01 1.253494062773596873e-02 4.461705747884295303e-01 5.385193904662997078e-01 3.429069778348610154e-01 5.137129941540101719e-01 4.441409496885105335e-01 4.939890603313337181e-01 1.719929502961176637e-01 -2.043427142530849228e-01 5.311077656645625256e-01 1.779107486061157761e-01 1.178780950502850811e+00 8.219293930500576328e-01 1.043834735837572275e-01 -6.714003963593773161e-01 2.679857878843343033e-01 1.182894152637111174e-01 1.495880472276311102e-01 1.482223499767269248e-01 6.314432667547185130e-01 2.445810750142299317e-02 -5.300286600892816224e-01 -2.695865656034740487e-01 4.467806371640921093e-01 -1.622347557611509283e-01 -4.611361266616862409e-01 -1.174188524310258996e-01 -5.496349625514569681e-02 -6.644074267780657704e-03 2.799386118675033508e-01 6.397903525164773397e-02 7.603138012598893436e-01 -2.610419143185499849e-02 -1.653072528716205414e-02 -3.334326188319572393e-02 -3.726997450588177829e-02 1.613589695037141170e-01 9.708999003346839851e-01 -1.382111071462494012e-01 1.298170936516364726e+00 4.718496249620487415e-01 4.439875856725644665e-01 -4.192167833082346279e-02 -1.922925422617600411e-01 -3.193731201824488997e-01 -4.295318548096934697e-01 -7.642940707241215881e-01 1.533407276326373969e+00 1.331123213295270835e+00 -6.576826867899687734e-01 -5.945624454833903227e-03 1.579318895827627744e-01 -3.230629177847592626e-01 -1.043444905782859311e-01 6.230435179287704406e-01 5.805649612967471729e-01 -1.088874656476434444e+00 -1.128852320517343744e+00 -2.471050105707554012e-01 -7.471859276974537334e-01 -4.708436870605786084e-01 -1.875876352254347568e-01 2.584413723234749716e-01 -4.426211162399055765e-01 -1.350475098229676041e+00 -8.460733546229125546e-01 1.710168486668634663e-02 -1.498247414211394402e-01 2.762652850695311857e-01 -2.888369488768025573e-01 -9.572050383589765232e-01 -8.931140669102642926e-01 -2.088875759977688873e-01 1.138733426068369470e+00 5.021902232041312170e-02 8.718719895890083560e-01 7.543497982532070267e-01 -4.899339842425087244e-01 3.858594926991879698e-02 -3.853746271899485820e-02 -9.240302991187211712e-02 -6.565339082067073173e-01 -9.041969321517555613e-01 1.917572745297026149e+00 1.923652126144177021e+00 -9.174056864647290865e-01 -4.005987610000626420e-01 2.451474691561170982e-01 -1.272824537414105617e-01 4.149618455688231511e-01 1.190827732360471986e-01 -2.339794792058542683e-01 -3.506756779042342065e-01 -3.521610793164002273e-01 -8.681327093552774210e-01 -1.074650752676352461e+00 -8.204565876101600486e-01 -2.324125011372453475e-01 -3.834101957109854464e-01 -3.776088771895561580e-01 -1.444690380485532000e+00 -1.685151381496800660e+00 -1.425987795700276894e+00 -5.217998614887392472e-01 -3.757898403669161502e-01 4.694555225155759848e-01 -8.756182422498600681e-01 -1.560004561745351737e+00 -6.431663665909611582e-01 -4.629336766578632800e-01 2.286275025278604600e-01 1.000077981966245755e+00 7.603029569986448077e-01 -2.058129861076310463e-01 -6.175014958735836057e-01 -1.478122423683002895e-01 -2.316265656115366889e-01 -3.712311970755778900e-01 -2.835238257094082059e-01 -4.299876748397269410e-01 -2.467398098211532331e-01 2.146506151290867581e-01 1.959513114346210227e-01 -6.732428632360429321e-02 4.481014631630425571e-02 1.716758876325860383e-01 3.855919583753943392e-01 -4.045609278097246353e-01 -6.076067882343172410e-01 -8.497304353548139622e-01 4.798704491414736151e-02 6.410444508241146533e-01 5.665703425792741887e-01 -7.327989544462860938e-02 -3.476534485086839599e-01 -8.387316245680234150e-01 -5.543329596968834538e-01 -4.343317060508578020e-01 -5.441374298590808678e-01 -5.735880728893090197e-01 -2.024355104440224706e-01 -2.045819065316586138e-01 -3.001237106471761340e-01 -5.949829078613854128e-01 -4.524349581523108288e-01 -9.420903807403128993e-02 -6.977768358165088447e-01 4.360990862014498259e-01 2.635033047442331688e-01 1.562735637990228243e-01 -9.115076471667458158e-01 1.451269159730066149e-01 3.817257749706429171e-02 -5.690370578541813912e-02 -4.271216890954679934e-01 -2.811200253119216508e-01 3.085410262090506617e-01 -1.601378266325500510e-01 1.732475946656270027e-01 -3.260893392220344800e-01 4.504596265897090612e-01 5.651098729487485928e-01 2.432962957326976761e-01 1.538743524204629898e-01 3.639090248139424943e-01 9.360967007796623662e-02 -2.407498369170538721e-01 5.572037288760173235e-01 2.240121568597435719e-01 -2.946918299996793000e-01 1.061293586417592916e-02 7.222344163762254299e-01 1.098730894185736134e-01 -8.738074685329773050e-01 -3.330717342045304008e-01 -1.531416800348087415e-01 -2.707312007442100321e-01 9.694425331638738264e-02 -1.255137686725488755e-01 1.306831748294418061e-01 -2.110175653213045011e-01 -3.266154925074888915e-01 1.627760785816665667e-01 6.793832742213803400e-01 1.442850875343504313e-01 -4.836058533887236388e-01 -6.136353550392720235e-01 -6.473985804316687576e-01 -5.324061631812289086e-01 -4.694359051329878851e-01 -3.499513853161197452e-01 -6.385770884403940695e-01 -2.699244224712070150e-01 1.381594639860402318e-01 -2.226873234882676134e-01 -8.031205753512767886e-01 -3.044833191172606757e-01 -3.261835684050565787e-01 -4.314694088351747059e-01 4.175015238541137097e-01 4.675640196776834623e-01 3.354156327970099771e-01 -1.239172114867994473e-01 -3.323442768984754547e-01 1.459632417081484501e-01 -7.790194011258599893e-01 -3.401325802304012713e-01 -4.222592180613857216e-01 4.872752454247101794e-01 9.071162580151566346e-02 1.758375009645959108e-01 -4.959308123749129882e-01 -2.813081254888938898e-01 -3.493225958495441708e-01 -5.923675705745067299e-01 -4.650634087974074848e-01 3.409469476645381192e-02 -5.345647227976764171e-01 1.422973950268407312e-02 7.983125159499648849e-02 -3.281310634377296864e-01 -4.206759742673117364e-01 -4.354276834696650944e-01 -6.744480021953874749e-01 -3.123101107607965110e-01 -5.127599210295091803e-01 3.367538239333482397e-01 -2.855060757597276955e-01 -2.405780033114739980e-01 -3.204638002891184723e-01 -3.183786658541860048e-01 5.336446112938759978e-02 -1.605649127772787454e-01 -3.359310088179218168e-01 -5.137641483563155642e-01 -3.225226338757993250e-01 9.463589700961494433e-01 1.651811214104887196e-02 -2.998723949969040459e-01 5.374411284114291032e-01 9.272853630392836888e-02 -3.321116542666479599e-01 -5.377881660786684725e-02 -2.598190782736340965e-01 8.225891210091781924e-02 -2.364965296336678791e-01 3.353232104539823344e-01 -3.402241378975526809e-01 -5.258363268098236176e-01 -3.389257503300021068e-01 -5.219482896353668799e-01 -2.162966716777052212e-01 -3.739121714620466386e-01 -4.684228608442065900e-01 -6.075224682442977864e-01 -2.002012388861599823e-01 4.220644090913088786e-01 -5.507683080233588546e-01 -2.674284086435527175e-01 1.201679278737630835e-01 1.826377842801265305e-01 4.864704056804070031e-01 -4.998033163085997543e-01 -1.381755771282380252e-01 -6.552615206254870373e-01 -4.858018722340444184e-01 -1.571640541891878573e-01 4.714955155738149717e-01 -2.299533732431172095e-02 -4.900953985907837152e-01 -3.929198267659075872e-01 -4.799615485386420910e-01 2.798087463047800316e-01 1.695332201517643356e-01 -3.855478614388955783e-01 -2.859873941906604933e-01 -6.523666133210725970e-01 -5.933291743325429524e-01 5.268692010178122054e-01 3.241193922582216169e-01 1.128982256078947394e-01 1.970604382676963418e-01 -3.404091455667521138e-01 1.102808044256445713e-01 6.210380354120732110e-02 1.507502104999053349e-01 4.676281744372068339e-01 -7.933698299158259415e-02 -1.517387543188918553e+00 -5.745846942322851980e-01 -6.086324319550067141e-01 -7.851352146747355709e-01 5.752640378884639194e-01 